<?xml version="1.0"?>
<MethodSetup Method="BDT::BDT">
  <GeneralInfo>
    <Info name="TMVA Release" value="4.2.1 [262657]"/>
    <Info name="ROOT Release" value="6.06/01 [394753]"/>
    <Info name="Creator" value="rateixei"/>
    <Info name="Date" value="Sun Jan 29 13:37:12 2017"/>
    <Info name="Host" value="Linux vocms0301.cern.ch 2.6.32-642.11.1.el6.x86_64 #1 SMP Wed Nov 16 09:40:09 CET 2016 x86_64 x86_64 x86_64 GNU/Linux"/>
    <Info name="Dir" value="/afs/cern.ch/work/r/rateixei/work/DiHiggs/flashgg_Moriond17/CMSSW_8_0_25/src/flashgg/bbggTools/NonResMVA"/>
    <Info name="Training events" value="139202"/>
    <Info name="TrainingTime" value="2.67030739e+02"/>
    <Info name="AnalysisType" value="Classification"/>
  </GeneralInfo>
  <Options>
    <Option name="V" modified="No">False</Option>
    <Option name="VerbosityLevel" modified="No">Default</Option>
    <Option name="VarTransform" modified="No">None</Option>
    <Option name="H" modified="No">False</Option>
    <Option name="CreateMVAPdfs" modified="No">False</Option>
    <Option name="IgnoreNegWeightsInTraining" modified="No">False</Option>
    <Option name="NTrees" modified="Yes">1000</Option>
    <Option name="MaxDepth" modified="No">3</Option>
    <Option name="MinNodeSize" modified="No">5%</Option>
    <Option name="nCuts" modified="No">20</Option>
    <Option name="BoostType" modified="Yes">Grad</Option>
    <Option name="AdaBoostR2Loss" modified="No">quadratic</Option>
    <Option name="UseBaggedBoost" modified="No">False</Option>
    <Option name="Shrinkage" modified="No">1.000000e+00</Option>
    <Option name="AdaBoostBeta" modified="No">5.000000e-01</Option>
    <Option name="UseRandomisedTrees" modified="Yes">True</Option>
    <Option name="UseNvars" modified="No">3</Option>
    <Option name="UsePoissonNvars" modified="No">True</Option>
    <Option name="BaggedSampleFraction" modified="No">6.000000e-01</Option>
    <Option name="UseYesNoLeaf" modified="No">True</Option>
    <Option name="NegWeightTreatment" modified="Yes">ignorenegweightsintraining</Option>
    <Option name="Css" modified="No">1.000000e+00</Option>
    <Option name="Cts_sb" modified="No">1.000000e+00</Option>
    <Option name="Ctb_ss" modified="No">1.000000e+00</Option>
    <Option name="Cbb" modified="No">1.000000e+00</Option>
    <Option name="NodePurityLimit" modified="No">5.000000e-01</Option>
    <Option name="SeparationType" modified="No">giniindex</Option>
    <Option name="DoBoostMonitor" modified="No">False</Option>
    <Option name="UseFisherCuts" modified="No">False</Option>
    <Option name="MinLinCorrForFisher" modified="No">8.000000e-01</Option>
    <Option name="UseExclusiveVars" modified="No">False</Option>
    <Option name="DoPreselection" modified="No">False</Option>
    <Option name="SigToBkgFraction" modified="No">1.000000e+00</Option>
    <Option name="PruneMethod" modified="No">nopruning</Option>
    <Option name="PruneStrength" modified="No">0.000000e+00</Option>
    <Option name="PruningValFraction" modified="No">5.000000e-01</Option>
    <Option name="nEventsMin" modified="No">0</Option>
    <Option name="UseBaggedGrad" modified="No">False</Option>
    <Option name="GradBaggingFraction" modified="No">6.000000e-01</Option>
    <Option name="UseNTrainEvents" modified="No">0</Option>
    <Option name="NNodesMax" modified="No">0</Option>
  </Options>
  <Variables NVar="7">
    <Variable VarIndex="0" Expression="leadingJet_bDis" Label="leadingJet_bDis" Title="leadingJet_bDis" Unit="" Internal="leadingJet_bDis" Type="F" Min="3.52059491e-02" Max="9.99556899e-01"/>
    <Variable VarIndex="1" Expression="subleadingJet_bDis" Label="subleadingJet_bDis" Title="subleadingJet_bDis" Unit="" Internal="subleadingJet_bDis" Type="F" Min="3.70081328e-02" Max="9.99626279e-01"/>
    <Variable VarIndex="2" Expression="diphotonCandidate.Pt()/(diHiggsCandidate.M())" Label="diphotonCandidate.Pt()/(diHiggsCandidate.M())" Title="diphotonCandidate.Pt()/(diHiggsCandidate.M())" Unit="" Internal="diphotonCandidate.Pt___D__diHiggsCandidate.M___" Type="F" Min="6.71616988e-04" Max="3.11955380e+00"/>
    <Variable VarIndex="3" Expression="fabs(CosThetaStar_CS)" Label="fabs(CosThetaStar_CS)" Title="fabs(CosThetaStar_CS)" Unit="" Internal="fabs_CosThetaStar_CS_" Type="F" Min="1.19813822e-05" Max="9.99999523e-01"/>
    <Variable VarIndex="4" Expression="fabs(CosTheta_bb)" Label="fabs(CosTheta_bb)" Title="fabs(CosTheta_bb)" Unit="" Internal="fabs_CosTheta_bb_" Type="F" Min="1.81277264e-05" Max="9.99986529e-01"/>
    <Variable VarIndex="5" Expression="fabs(CosTheta_gg)" Label="fabs(CosTheta_gg)" Title="fabs(CosTheta_gg)" Unit="" Internal="fabs_CosTheta_gg_" Type="F" Min="9.18905243e-06" Max="9.99987483e-01"/>
    <Variable VarIndex="6" Expression="dijetCandidate.Pt()/(diHiggsCandidate.M())" Label="dijetCandidate.Pt()/(diHiggsCandidate.M())" Title="dijetCandidate.Pt()/(diHiggsCandidate.M())" Unit="" Internal="dijetCandidate.Pt___D__diHiggsCandidate.M___" Type="F" Min="5.40118548e-04" Max="2.51337457e+00"/>
  </Variables>
  <Spectators NSpec="0"/>
  <Classes NClass="2">
    <Class Name="Signal" Index="0"/>
    <Class Name="Background" Index="1"/>
  </Classes>
  <Transformations NTransformations="0"/>
  <MVAPdfs/>
  <Weights NTrees="1000" AnalysisType="1">
    <BinaryTree type="DecisionTree" boostWeight="1.0000000000000000e+00" itree="0">
      <Node pos="s" depth="0" NCoef="0" IVar="2" Cut="2.9770800471305847e-01" cType="1" res="0.0000000000000000e+00" rms="0.0000000000000000e+00" purity="5.0000000000000000e-01" nType="0">
        <Node pos="l" depth="1" NCoef="0" IVar="3" Cut="9.0476495027542114e-01" cType="1" res="0.0000000000000000e+00" rms="0.0000000000000000e+00" purity="1.8777593970298767e-01" nType="0">
          <Node pos="l" depth="2" NCoef="0" IVar="0" Cut="7.7054017782211304e-01" cType="1" res="-2.1490325033664703e-01" rms="4.5146051049232483e-01" purity="2.8509676456451416e-01" nType="0">
            <Node pos="l" depth="3" NCoef="0" IVar="-1" Cut="0.0000000000000000e+00" cType="1" res="-6.6257274150848389e-01" rms="3.4076124429702759e-01" purity="1.3410143554210663e-01" nType="-99"/>
            <Node pos="r" depth="3" NCoef="0" IVar="-1" Cut="0.0000000000000000e+00" cType="1" res="4.1643640398979187e-01" rms="4.5780229568481445e-01" purity="7.0103991031646729e-01" nType="-99"/>
          </Node>
          <Node pos="r" depth="2" NCoef="0" IVar="0" Cut="6.3300210237503052e-01" cType="1" res="-3.9841377735137939e-01" rms="3.0210340023040771e-01" purity="1.0158622264862061e-01" nType="0">
            <Node pos="l" depth="3" NCoef="0" IVar="-1" Cut="0.0000000000000000e+00" cType="1" res="-8.0562949180603027e-01" rms="2.1044880151748657e-01" purity="4.6445917338132858e-02" nType="-99"/>
            <Node pos="r" depth="3" NCoef="0" IVar="-1" Cut="0.0000000000000000e+00" cType="1" res="-3.3575820922851562e-01" rms="4.6736699342727661e-01" purity="3.2232591509819031e-01" nType="-99"/>
          </Node>
        </Node>
        <Node pos="r" depth="1" NCoef="0" IVar="1" Cut="5.9167879819869995e-01" cType="1" res="0.0000000000000000e+00" rms="0.0000000000000000e+00" purity="8.1125986576080322e-01" nType="0">
          <Node pos="l" depth="2" NCoef="0" IVar="0" Cut="6.7804926633834839e-01" cType="1" res="1.2326488643884659e-01" rms="4.8456761240959167e-01" purity="6.2326490879058838e-01" nType="0">
            <Node pos="l" depth="3" NCoef="0" IVar="-1" Cut="0.0000000000000000e+00" cType="1" res="-2.2574689984321594e-01" rms="4.8592436313629150e-01" purity="3.8219720125198364e-01" nType="-99"/>
            <Node pos="r" depth="3" NCoef="0" IVar="-1" Cut="0.0000000000000000e+00" cType="1" res="8.3537381887435913e-01" rms="3.1961789727210999e-01" purity="8.8450539112091064e-01" nType="-99"/>
          </Node>
          <Node pos="r" depth="2" NCoef="0" IVar="1" Cut="8.0537933111190796e-01" cType="1" res="0.0000000000000000e+00" rms="0.0000000000000000e+00" purity="9.4034028053283691e-01" nType="0">
            <Node pos="l" depth="3" NCoef="0" IVar="-1" Cut="0.0000000000000000e+00" cType="1" res="7.1431851387023926e-01" rms="3.7273371219635010e-01" purity="8.3327108621597290e-01" nType="-99"/>
            <Node pos="r" depth="3" NCoef="0" IVar="-1" Cut="0.0000000000000000e+00" cType="1" res="1.0325003862380981e+00" rms="1.8365900218486786e-01" purity="9.6504765748977661e-01" nType="-99"/>
          </Node>
        </Node>
      </Node>
    </BinaryTree>
    <BinaryTree type="DecisionTree" boostWeight="1.0000000000000000e+00" itree="1">
      <Node pos="s" depth="0" NCoef="0" IVar="1" Cut="7.7043145895004272e-01" cType="1" res="-1.5379975549876690e-02" rms="3.3226144313812256e-01" purity="5.0000000000000000e-01" nType="0">
        <Node pos="l" depth="1" NCoef="0" IVar="0" Cut="9.0770363807678223e-01" cType="1" res="-8.1287093460559845e-02" rms="3.3673620223999023e-01" purity="3.0955359339714050e-01" nType="0">
          <Node pos="l" depth="2" NCoef="0" IVar="3" Cut="6.1905246973037720e-01" cType="1" res="-1.1423810571432114e-01" rms="3.2847657799720764e-01" purity="2.0048768818378448e-01" nType="0">
            <Node pos="l" depth="3" NCoef="0" IVar="-1" Cut="0.0000000000000000e+00" cType="1" res="-8.0111093819141388e-02" rms="4.3416100740432739e-01" purity="4.5716720819473267e-01" nType="-99"/>
            <Node pos="r" depth="3" NCoef="0" IVar="-1" Cut="0.0000000000000000e+00" cType="1" res="-4.0288516879081726e-01" rms="2.7118122577667236e-01" purity="1.0241696238517761e-01" nType="-99"/>
          </Node>
          <Node pos="r" depth="2" NCoef="0" IVar="1" Cut="3.5746949911117554e-01" cType="1" res="7.7002108097076416e-02" rms="3.3092898130416870e-01" purity="8.3348131179809570e-01" nType="0">
            <Node pos="l" depth="3" NCoef="0" IVar="-1" Cut="0.0000000000000000e+00" cType="1" res="1.6535435616970062e-01" rms="3.4447377920150757e-01" purity="8.0668896436691284e-01" nType="-99"/>
            <Node pos="r" depth="3" NCoef="0" IVar="-1" Cut="0.0000000000000000e+00" cType="1" res="3.5446599125862122e-01" rms="3.1196156144142151e-01" purity="8.6389046907424927e-01" nType="-99"/>
          </Node>
        </Node>
        <Node pos="r" depth="1" NCoef="0" IVar="2" Cut="2.9785656929016113e-01" cType="1" res="0.0000000000000000e+00" rms="0.0000000000000000e+00" purity="8.6565691232681274e-01" nType="0">
          <Node pos="l" depth="2" NCoef="0" IVar="-1" Cut="0.0000000000000000e+00" cType="1" res="5.7703059911727905e-01" rms="4.3582549691200256e-01" purity="5.9411925077438354e-01" nType="-99"/>
          <Node pos="r" depth="2" NCoef="0" IVar="2" Cut="4.3223813176155090e-01" cType="1" res="0.0000000000000000e+00" rms="0.0000000000000000e+00" purity="9.6055972576141357e-01" nType="0">
            <Node pos="l" depth="3" NCoef="0" IVar="-1" Cut="0.0000000000000000e+00" cType="1" res="2.7452006936073303e-01" rms="2.4567109346389771e-01" purity="9.3444371223449707e-01" nType="-99"/>
            <Node pos="r" depth="3" NCoef="0" IVar="-1" Cut="0.0000000000000000e+00" cType="1" res="5.3799402713775635e-01" rms="1.3106913864612579e-01" purity="9.8260396718978882e-01" nType="-99"/>
          </Node>
        </Node>
      </Node>
    </BinaryTree>
    <BinaryTree type="DecisionTree" boostWeight="1.0000000000000000e+00" itree="2">
      <Node pos="s" depth="0" NCoef="0" IVar="3" Cut="8.0952572822570801e-01" cType="1" res="0.0000000000000000e+00" rms="0.0000000000000000e+00" purity="5.0000000000000000e-01" nType="0">
        <Node pos="l" depth="1" NCoef="0" IVar="2" Cut="4.5467999577522278e-01" cType="1" res="0.0000000000000000e+00" rms="0.0000000000000000e+00" purity="7.1068334579467773e-01" nType="0">
          <Node pos="l" depth="2" NCoef="0" IVar="2" Cut="3.7007781863212585e-01" cType="1" res="0.0000000000000000e+00" rms="0.0000000000000000e+00" purity="6.0761928558349609e-01" nType="0">
            <Node pos="l" depth="3" NCoef="0" IVar="-1" Cut="0.0000000000000000e+00" cType="1" res="-2.1971678733825684e-01" rms="3.5838475823402405e-01" purity="4.5763966441154480e-01" nType="-99"/>
            <Node pos="r" depth="3" NCoef="0" IVar="-1" Cut="0.0000000000000000e+00" cType="1" res="1.9107188284397125e-01" rms="2.9520499706268311e-01" purity="8.4030365943908691e-01" nType="-99"/>
          </Node>
          <Node pos="r" depth="2" NCoef="0" IVar="6" Cut="3.5308796167373657e-01" cType="1" res="0.0000000000000000e+00" rms="0.0000000000000000e+00" purity="9.2445397377014160e-01" nType="0">
            <Node pos="l" depth="3" NCoef="0" IVar="-1" Cut="0.0000000000000000e+00" cType="1" res="4.4993251562118530e-01" rms="3.0398935079574585e-01" purity="8.8496381044387817e-01" nType="-99"/>
            <Node pos="r" depth="3" NCoef="0" IVar="-1" Cut="0.0000000000000000e+00" cType="1" res="6.4789384603500366e-01" rms="1.9841039180755615e-01" purity="9.6766185760498047e-01" nType="-99"/>
          </Node>
        </Node>
        <Node pos="r" depth="1" NCoef="0" IVar="2" Cut="1.8933348357677460e-01" cType="1" res="-5.1810458302497864e-02" rms="2.9239511489868164e-01" purity="1.7939980328083038e-01" nType="0">
          <Node pos="l" depth="2" NCoef="0" IVar="4" Cut="5.2385264635086060e-01" cType="1" res="0.0000000000000000e+00" rms="0.0000000000000000e+00" purity="8.6764559149742126e-02" nType="0">
            <Node pos="l" depth="3" NCoef="0" IVar="-1" Cut="0.0000000000000000e+00" cType="1" res="-2.1032314002513885e-01" rms="2.8013259172439575e-01" purity="1.3816179335117340e-01" nType="-99"/>
            <Node pos="r" depth="3" NCoef="0" IVar="-1" Cut="0.0000000000000000e+00" cType="1" res="-4.0463122725486755e-01" rms="2.1890182793140411e-01" purity="6.0368958860635757e-02" nType="-99"/>
          </Node>
          <Node pos="r" depth="2" NCoef="0" IVar="4" Cut="6.6671007871627808e-01" cType="1" res="0.0000000000000000e+00" rms="0.0000000000000000e+00" purity="3.9583116769790649e-01" nType="0">
            <Node pos="l" depth="3" NCoef="0" IVar="-1" Cut="0.0000000000000000e+00" cType="1" res="2.0246829092502594e-01" rms="3.8024747371673584e-01" purity="4.7692346572875977e-01" nType="-99"/>
            <Node pos="r" depth="3" NCoef="0" IVar="-1" Cut="0.0000000000000000e+00" cType="1" res="-9.4683401286602020e-02" rms="3.6506429314613342e-01" purity="2.9603850841522217e-01" nType="-99"/>
          </Node>
        </Node>
      </Node>
    </BinaryTree>
    <BinaryTree type="DecisionTree" boostWeight="1.0000000000000000e+00" itree="3">
      <Node pos="s" depth="0" NCoef="0" IVar="4" Cut="7.1428126096725464e-01" cType="1" res="0.0000000000000000e+00" rms="0.0000000000000000e+00" purity="5.0000000000000000e-01" nType="0">
        <Node pos="l" depth="1" NCoef="0" IVar="0" Cut="3.5860264301300049e-01" cType="1" res="7.6552513055503368e-03" rms="3.0170452594757080e-01" purity="5.6205934286117554e-01" nType="0">
          <Node pos="l" depth="2" NCoef="0" IVar="3" Cut="6.1905270814895630e-01" cType="1" res="0.0000000000000000e+00" rms="0.0000000000000000e+00" purity="2.0460911095142365e-01" nType="0">
            <Node pos="l" depth="3" NCoef="0" IVar="-1" Cut="0.0000000000000000e+00" cType="1" res="-3.0694687366485596e-01" rms="3.6950349807739258e-01" purity="4.3147191405296326e-01" nType="-99"/>
            <Node pos="r" depth="3" NCoef="0" IVar="-1" Cut="0.0000000000000000e+00" cType="1" res="-1.7812295258045197e-01" rms="2.6366516947746277e-01" purity="1.1127951741218567e-01" nType="-99"/>
          </Node>
          <Node pos="r" depth="2" NCoef="0" IVar="1" Cut="4.0938159823417664e-01" cType="1" res="0.0000000000000000e+00" rms="0.0000000000000000e+00" purity="7.5083082914352417e-01" nType="0">
            <Node pos="l" depth="3" NCoef="0" IVar="-1" Cut="0.0000000000000000e+00" cType="1" res="4.5052442699670792e-02" rms="3.5251444578170776e-01" purity="5.2640938758850098e-01" nType="-99"/>
            <Node pos="r" depth="3" NCoef="0" IVar="-1" Cut="0.0000000000000000e+00" cType="1" res="3.2008126378059387e-01" rms="2.7033168077468872e-01" purity="8.4776687622070312e-01" nType="-99"/>
          </Node>
        </Node>
        <Node pos="r" depth="1" NCoef="0" IVar="6" Cut="4.3369674682617188e-01" cType="1" res="0.0000000000000000e+00" rms="0.0000000000000000e+00" purity="4.0001246333122253e-01" nType="0">
          <Node pos="l" depth="2" NCoef="0" IVar="1" Cut="9.0780794620513916e-01" cType="1" res="-3.2456833869218826e-02" rms="2.8988450765609741e-01" purity="3.4707790613174438e-01" nType="0">
            <Node pos="l" depth="3" NCoef="0" IVar="-1" Cut="0.0000000000000000e+00" cType="1" res="-2.1764467656612396e-01" rms="2.9086276888847351e-01" purity="2.4682167172431946e-01" nType="-99"/>
            <Node pos="r" depth="3" NCoef="0" IVar="-1" Cut="0.0000000000000000e+00" cType="1" res="1.7142063379287720e-01" rms="2.7771967649459839e-01" purity="8.6810290813446045e-01" nType="-99"/>
          </Node>
          <Node pos="r" depth="2" NCoef="0" IVar="-1" Cut="0.0000000000000000e+00" cType="1" res="1.9003324210643768e-01" rms="2.9847183823585510e-01" purity="7.4519681930541992e-01" nType="-99"/>
        </Node>
      </Node>
    </BinaryTree>
    <BinaryTree type="DecisionTree" boostWeight="1.0000000000000000e+00" itree="4">
      <Node pos="s" depth="0" NCoef="0" IVar="5" Cut="5.7142537832260132e-01" cType="1" res="-2.0626394543796778e-03" rms="2.9302144050598145e-01" purity="5.0000000000000000e-01" nType="0">
        <Node pos="l" depth="1" NCoef="0" IVar="4" Cut="3.8095846772193909e-01" cType="1" res="0.0000000000000000e+00" rms="0.0000000000000000e+00" purity="5.3247350454330444e-01" nType="0">
          <Node pos="l" depth="2" NCoef="0" IVar="6" Cut="2.9534128308296204e-01" cType="1" res="2.1383041515946388e-02" rms="3.0654504895210266e-01" purity="6.3304662704467773e-01" nType="0">
            <Node pos="l" depth="3" NCoef="0" IVar="-1" Cut="0.0000000000000000e+00" cType="1" res="4.5309033244848251e-02" rms="3.3061072230339050e-01" purity="4.5307102799415588e-01" nType="-99"/>
            <Node pos="r" depth="3" NCoef="0" IVar="-1" Cut="0.0000000000000000e+00" cType="1" res="2.0504848659038544e-01" rms="2.8425309062004089e-01" purity="7.8483629226684570e-01" nType="-99"/>
          </Node>
          <Node pos="r" depth="2" NCoef="0" IVar="0" Cut="3.1070303916931152e-01" cType="1" res="1.0482643730938435e-02" rms="3.0037352442741394e-01" purity="4.8802965879440308e-01" nType="0">
            <Node pos="l" depth="3" NCoef="0" IVar="-1" Cut="0.0000000000000000e+00" cType="1" res="-7.3378086090087891e-02" rms="2.8909283876419067e-01" purity="1.7789350450038910e-01" nType="-99"/>
            <Node pos="r" depth="3" NCoef="0" IVar="-1" Cut="0.0000000000000000e+00" cType="1" res="1.2953665852546692e-01" rms="3.0542680621147156e-01" purity="6.5063774585723877e-01" nType="-99"/>
          </Node>
        </Node>
        <Node pos="r" depth="1" NCoef="0" IVar="1" Cut="9.5378732681274414e-01" cType="1" res="0.0000000000000000e+00" rms="0.0000000000000000e+00" purity="4.6261563897132874e-01" nType="0">
          <Node pos="l" depth="2" NCoef="0" IVar="2" Cut="4.4671970605850220e-01" cType="1" res="-2.7979079633951187e-02" rms="2.9099518060684204e-01" purity="3.6626648902893066e-01" nType="0">
            <Node pos="l" depth="3" NCoef="0" IVar="-1" Cut="0.0000000000000000e+00" cType="1" res="-2.0985864102840424e-01" rms="2.8966301679611206e-01" purity="2.5474348664283752e-01" nType="-99"/>
            <Node pos="r" depth="3" NCoef="0" IVar="-1" Cut="0.0000000000000000e+00" cType="1" res="2.0242322981357574e-01" rms="2.8997948765754700e-01" purity="8.8591974973678589e-01" nType="-99"/>
          </Node>
          <Node pos="r" depth="2" NCoef="0" IVar="-1" Cut="0.0000000000000000e+00" cType="1" res="1.6682894527912140e-01" rms="2.2171959280967712e-01" purity="9.2769271135330200e-01" nType="-99"/>
        </Node>
      </Node>
    </BinaryTree>
    <BinaryTree type="DecisionTree" boostWeight="1.0000000000000000e+00" itree="5">
      <Node pos="s" depth="0" NCoef="0" IVar="6" Cut="2.3985768854618073e-01" cType="1" res="0.0000000000000000e+00" rms="0.0000000000000000e+00" purity="5.0000000000000000e-01" nType="0">
        <Node pos="l" depth="1" NCoef="0" IVar="2" Cut="1.1869177967309952e-01" cType="1" res="0.0000000000000000e+00" rms="0.0000000000000000e+00" purity="2.3923008143901825e-01" nType="0">
          <Node pos="l" depth="2" NCoef="0" IVar="0" Cut="3.5805833339691162e-01" cType="1" res="-2.8229083865880966e-02" rms="1.8965306878089905e-01" purity="4.9089834094047546e-02" nType="0">
            <Node pos="l" depth="3" NCoef="0" IVar="-1" Cut="0.0000000000000000e+00" cType="1" res="-2.3088814318180084e-01" rms="1.3494217395782471e-01" purity="1.9620578736066818e-02" nType="-99"/>
            <Node pos="r" depth="3" NCoef="0" IVar="-1" Cut="0.0000000000000000e+00" cType="1" res="-2.3284390568733215e-01" rms="2.4794502556324005e-01" purity="9.2134587466716766e-02" nType="-99"/>
          </Node>
          <Node pos="r" depth="2" NCoef="0" IVar="1" Cut="5.9165388345718384e-01" cType="1" res="-1.2012697756290436e-02" rms="3.2539114356040955e-01" purity="3.3944514393806458e-01" nType="0">
            <Node pos="l" depth="3" NCoef="0" IVar="-1" Cut="0.0000000000000000e+00" cType="1" res="-5.9966882690787315e-03" rms="3.0674305558204651e-01" purity="2.1004490554332733e-01" nType="-99"/>
            <Node pos="r" depth="3" NCoef="0" IVar="-1" Cut="0.0000000000000000e+00" cType="1" res="-1.8827186524868011e-01" rms="3.6243742704391479e-01" purity="6.2868177890777588e-01" nType="-99"/>
          </Node>
        </Node>
        <Node pos="r" depth="1" NCoef="0" IVar="3" Cut="5.7137775421142578e-01" cType="1" res="9.8615409806370735e-03" rms="2.9240891337394714e-01" purity="6.7986565828323364e-01" nType="0">
          <Node pos="l" depth="2" NCoef="0" IVar="0" Cut="2.1886239945888519e-01" cType="1" res="-4.6331989578902721e-03" rms="2.7253660559654236e-01" purity="7.8897446393966675e-01" nType="0">
            <Node pos="l" depth="3" NCoef="0" IVar="-1" Cut="0.0000000000000000e+00" cType="1" res="-2.0457592606544495e-01" rms="3.5078617930412292e-01" purity="3.5682144761085510e-01" nType="-99"/>
            <Node pos="r" depth="3" NCoef="0" IVar="-1" Cut="0.0000000000000000e+00" cType="1" res="3.1532552093267441e-02" rms="2.5559812784194946e-01" purity="8.6381125450134277e-01" nType="-99"/>
          </Node>
          <Node pos="r" depth="2" NCoef="0" IVar="0" Cut="7.7049857378005981e-01" cType="1" res="3.4614205360412598e-02" rms="3.2203018665313721e-01" purity="4.9354055523872375e-01" nType="0">
            <Node pos="l" depth="3" NCoef="0" IVar="-1" Cut="0.0000000000000000e+00" cType="1" res="2.5751417875289917e-01" rms="3.3241608738899231e-01" purity="2.7202302217483521e-01" nType="-99"/>
            <Node pos="r" depth="3" NCoef="0" IVar="-1" Cut="0.0000000000000000e+00" cType="1" res="7.6880797743797302e-02" rms="3.0361559987068176e-01" purity="8.4844523668289185e-01" nType="-99"/>
          </Node>
        </Node>
      </Node>
    </BinaryTree>
    <BinaryTree type="DecisionTree" boostWeight="1.0000000000000000e+00" itree="6">
      <Node pos="s" depth="0" NCoef="0" IVar="6" Cut="4.7917523980140686e-01" cType="1" res="-1.5555120771750808e-03" rms="2.8832164406776428e-01" purity="5.0000000000000000e-01" nType="0">
        <Node pos="l" depth="1" NCoef="0" IVar="2" Cut="5.9474444389343262e-01" cType="1" res="0.0000000000000000e+00" rms="0.0000000000000000e+00" purity="4.7429034113883972e-01" nType="0">
          <Node pos="l" depth="2" NCoef="0" IVar="3" Cut="9.0476292371749878e-01" cType="1" res="0.0000000000000000e+00" rms="0.0000000000000000e+00" purity="4.4513654708862305e-01" nType="0">
            <Node pos="l" depth="3" NCoef="0" IVar="-1" Cut="0.0000000000000000e+00" cType="1" res="-8.6078770458698273e-02" rms="3.0429044365882874e-01" purity="6.0031610727310181e-01" nType="-99"/>
            <Node pos="r" depth="3" NCoef="0" IVar="-1" Cut="0.0000000000000000e+00" cType="1" res="6.9119617342948914e-02" rms="2.4889294803142548e-01" purity="1.1437419801950455e-01" nType="-99"/>
          </Node>
          <Node pos="r" depth="2" NCoef="0" IVar="-1" Cut="0.0000000000000000e+00" cType="1" res="3.1858131289482117e-01" rms="2.5559464097023010e-01" purity="9.2790406942367554e-01" nType="-99"/>
        </Node>
        <Node pos="r" depth="1" NCoef="0" IVar="-1" Cut="0.0000000000000000e+00" cType="1" res="1.6736383736133575e-01" rms="3.0525279045104980e-01" purity="7.4900329113006592e-01" nType="-99"/>
      </Node>
    </BinaryTree>
    <BinaryTree type="DecisionTree" boostWeight="1.0000000000000000e+00" itree="7">
      <Node pos="s" depth="0" NCoef="0" IVar="5" Cut="2.8571727871894836e-01" cType="1" res="0.0000000000000000e+00" rms="0.0000000000000000e+00" purity="5.0000000000000000e-01" nType="0">
        <Node pos="l" depth="1" NCoef="0" IVar="0" Cut="9.5420348644256592e-01" cType="1" res="1.0269542224705219e-02" rms="3.0312117934226990e-01" purity="5.5453729629516602e-01" nType="0">
          <Node pos="l" depth="2" NCoef="0" IVar="1" Cut="8.6369037628173828e-01" cType="1" res="8.0234035849571228e-03" rms="3.1838998198509216e-01" purity="4.5030114054679871e-01" nType="0">
            <Node pos="l" depth="3" NCoef="0" IVar="-1" Cut="0.0000000000000000e+00" cType="1" res="9.2262942343950272e-03" rms="3.3136358857154846e-01" purity="3.0463820695877075e-01" nType="-99"/>
            <Node pos="r" depth="3" NCoef="0" IVar="-1" Cut="0.0000000000000000e+00" cType="1" res="2.0833253860473633e-01" rms="2.7479618787765503e-01" purity="8.8917618989944458e-01" nType="-99"/>
          </Node>
          <Node pos="r" depth="2" NCoef="0" IVar="-1" Cut="0.0000000000000000e+00" cType="1" res="1.6293717920780182e-01" rms="2.4001272022724152e-01" purity="9.3011254072189331e-01" nType="-99"/>
        </Node>
        <Node pos="r" depth="1" NCoef="0" IVar="2" Cut="1.4973813295364380e-01" cType="1" res="0.0000000000000000e+00" rms="0.0000000000000000e+00" purity="4.8105946183204651e-01" nType="0">
          <Node pos="l" depth="2" NCoef="0" IVar="3" Cut="9.5246297121047974e-01" cType="1" res="0.0000000000000000e+00" rms="0.0000000000000000e+00" purity="6.4248047769069672e-02" nType="0">
            <Node pos="l" depth="3" NCoef="0" IVar="-1" Cut="0.0000000000000000e+00" cType="1" res="-3.0283743143081665e-01" rms="2.4700038135051727e-01" purity="1.0154181718826294e-01" nType="-99"/>
            <Node pos="r" depth="3" NCoef="0" IVar="-1" Cut="0.0000000000000000e+00" cType="1" res="-1.6708762943744659e-01" rms="1.7995673418045044e-01" purity="4.3475605547428131e-02" nType="-99"/>
          </Node>
          <Node pos="r" depth="2" NCoef="0" IVar="0" Cut="2.6481330394744873e-01" cType="1" res="4.0306868031620979e-03" rms="2.9976299405097961e-01" purity="6.0935539007186890e-01" nType="0">
            <Node pos="l" depth="3" NCoef="0" IVar="-1" Cut="0.0000000000000000e+00" cType="1" res="-6.5037839114665985e-02" rms="3.1021159887313843e-01" purity="2.2693149745464325e-01" nType="-99"/>
            <Node pos="r" depth="3" NCoef="0" IVar="-1" Cut="0.0000000000000000e+00" cType="1" res="6.1865489929914474e-02" rms="2.9581123590469360e-01" purity="7.4277633428573608e-01" nType="-99"/>
          </Node>
        </Node>
      </Node>
    </BinaryTree>
    <BinaryTree type="DecisionTree" boostWeight="1.0000000000000000e+00" itree="8">
      <Node pos="s" depth="0" NCoef="0" IVar="6" Cut="3.5951647162437439e-01" cType="1" res="0.0000000000000000e+00" rms="0.0000000000000000e+00" purity="5.0000000000000000e-01" nType="0">
        <Node pos="l" depth="1" NCoef="0" IVar="3" Cut="6.1905461549758911e-01" cType="1" res="0.0000000000000000e+00" rms="0.0000000000000000e+00" purity="3.7229955196380615e-01" nType="0">
          <Node pos="l" depth="2" NCoef="0" IVar="2" Cut="5.3408062458038330e-01" cType="1" res="0.0000000000000000e+00" rms="0.0000000000000000e+00" purity="7.4356019496917725e-01" nType="0">
            <Node pos="l" depth="3" NCoef="0" IVar="-1" Cut="0.0000000000000000e+00" cType="1" res="-2.4970324337482452e-01" rms="3.2228222489356995e-01" purity="6.4366781711578369e-01" nType="-99"/>
            <Node pos="r" depth="3" NCoef="0" IVar="-1" Cut="0.0000000000000000e+00" cType="1" res="3.1090201810002327e-02" rms="2.5226813554763794e-01" purity="9.2146784067153931e-01" nType="-99"/>
          </Node>
          <Node pos="r" depth="2" NCoef="0" IVar="2" Cut="2.3821127414703369e-01" cType="1" res="2.6365313678979874e-03" rms="2.8786039352416992e-01" purity="2.5580260157585144e-01" nType="0">
            <Node pos="l" depth="3" NCoef="0" IVar="-1" Cut="0.0000000000000000e+00" cType="1" res="-7.0236921310424805e-02" rms="2.4613200128078461e-01" purity="1.0692135989665985e-01" nType="-99"/>
            <Node pos="r" depth="3" NCoef="0" IVar="-1" Cut="0.0000000000000000e+00" cType="1" res="1.3603016734123230e-01" rms="3.5927087068557739e-01" purity="5.7084900140762329e-01" nType="-99"/>
          </Node>
        </Node>
        <Node pos="r" depth="1" NCoef="0" IVar="2" Cut="3.2676711678504944e-01" cType="1" res="0.0000000000000000e+00" rms="0.0000000000000000e+00" purity="7.6202076673507690e-01" nType="0">
          <Node pos="l" depth="2" NCoef="0" IVar="-1" Cut="0.0000000000000000e+00" cType="1" res="-6.4944893121719360e-02" rms="3.5351464152336121e-01" purity="4.5061340928077698e-01" nType="-99"/>
          <Node pos="r" depth="2" NCoef="0" IVar="4" Cut="2.8572115302085876e-01" cType="1" res="0.0000000000000000e+00" rms="0.0000000000000000e+00" purity="8.9430630207061768e-01" nType="0">
            <Node pos="l" depth="3" NCoef="0" IVar="-1" Cut="0.0000000000000000e+00" cType="1" res="1.0799718648195267e-01" rms="2.2729408740997314e-01" purity="9.0406566858291626e-01" nType="-99"/>
            <Node pos="r" depth="3" NCoef="0" IVar="-1" Cut="0.0000000000000000e+00" cType="1" res="1.5940022468566895e-01" rms="2.3304077982902527e-01" purity="8.9073109626770020e-01" nType="-99"/>
          </Node>
        </Node>
      </Node>
    </BinaryTree>
    <BinaryTree type="DecisionTree" boostWeight="1.0000000000000000e+00" itree="9">
      <Node pos="s" depth="0" NCoef="0" IVar="2" Cut="2.9770800471305847e-01" cType="1" res="0.0000000000000000e+00" rms="0.0000000000000000e+00" purity="5.0000000000000000e-01" nType="0">
        <Node pos="l" depth="1" NCoef="0" IVar="6" Cut="2.3985768854618073e-01" cType="1" res="0.0000000000000000e+00" rms="0.0000000000000000e+00" purity="1.8777593970298767e-01" nType="0">
          <Node pos="l" depth="2" NCoef="0" IVar="5" Cut="7.1430057287216187e-01" cType="1" res="7.1202791295945644e-03" rms="2.5081267952919006e-01" purity="1.1652491241693497e-01" nType="0">
            <Node pos="l" depth="3" NCoef="0" IVar="-1" Cut="0.0000000000000000e+00" cType="1" res="1.0326245427131653e-01" rms="2.6562145352363586e-01" purity="1.3288035988807678e-01" nType="-99"/>
            <Node pos="r" depth="3" NCoef="0" IVar="-1" Cut="0.0000000000000000e+00" cType="1" res="-9.6357218921184540e-02" rms="2.0638583600521088e-01" purity="7.3924057185649872e-02" nType="-99"/>
          </Node>
          <Node pos="r" depth="2" NCoef="0" IVar="0" Cut="7.7051293849945068e-01" cType="1" res="-5.4094973020255566e-03" rms="3.2657584547996521e-01" purity="3.1436115503311157e-01" nType="0">
            <Node pos="l" depth="3" NCoef="0" IVar="-1" Cut="0.0000000000000000e+00" cType="1" res="5.8833785355091095e-02" rms="2.9759272933006287e-01" purity="1.5081207454204559e-01" nType="-99"/>
            <Node pos="r" depth="3" NCoef="0" IVar="-1" Cut="0.0000000000000000e+00" cType="1" res="-1.7748995125293732e-01" rms="3.8575437664985657e-01" purity="7.1636223793029785e-01" nType="-99"/>
          </Node>
        </Node>
        <Node pos="r" depth="1" NCoef="0" IVar="1" Cut="5.9167879819869995e-01" cType="1" res="-3.2139432150870562e-03" rms="2.8775396943092346e-01" purity="8.1125986576080322e-01" nType="0">
          <Node pos="l" depth="2" NCoef="0" IVar="2" Cut="4.0158760547637939e-01" cType="1" res="0.0000000000000000e+00" rms="0.0000000000000000e+00" purity="6.2326490879058838e-01" nType="0">
            <Node pos="l" depth="3" NCoef="0" IVar="-1" Cut="0.0000000000000000e+00" cType="1" res="-4.5881178230047226e-02" rms="3.9345008134841919e-01" purity="4.2835897207260132e-01" nType="-99"/>
            <Node pos="r" depth="3" NCoef="0" IVar="-1" Cut="0.0000000000000000e+00" cType="1" res="1.6394427418708801e-01" rms="3.5407048463821411e-01" purity="7.8618115186691284e-01" nType="-99"/>
          </Node>
          <Node pos="r" depth="2" NCoef="0" IVar="0" Cut="5.8996236324310303e-01" cType="1" res="-1.4857511967420578e-02" rms="2.0889824628829956e-01" purity="9.4034028053283691e-01" nType="0">
            <Node pos="l" depth="3" NCoef="0" IVar="-1" Cut="0.0000000000000000e+00" cType="1" res="-5.4826194047927856e-01" rms="3.2820779085159302e-01" purity="8.2690852880477905e-01" nType="-99"/>
            <Node pos="r" depth="3" NCoef="0" IVar="-1" Cut="0.0000000000000000e+00" cType="1" res="7.2320364415645599e-02" rms="1.4923192560672760e-01" purity="9.7573703527450562e-01" nType="-99"/>
          </Node>
        </Node>
      </Node>
    </BinaryTree>
    <BinaryTree type="DecisionTree" boostWeight="1.0000000000000000e+00" itree="10">
      <Node pos="s" depth="0" NCoef="0" IVar="3" Cut="3.3334115147590637e-01" cType="1" res="0.0000000000000000e+00" rms="0.0000000000000000e+00" purity="5.0000000000000000e-01" nType="0">
        <Node pos="l" depth="1" NCoef="0" IVar="0" Cut="4.0253207087516785e-01" cType="1" res="-8.1129837781190872e-03" rms="2.5803971290588379e-01" purity="8.1893801689147949e-01" nType="0">
          <Node pos="l" depth="2" NCoef="0" IVar="-1" Cut="0.0000000000000000e+00" cType="1" res="2.4807332083582878e-02" rms="3.5801747441291809e-01" purity="4.8577269911766052e-01" nType="-99"/>
          <Node pos="r" depth="2" NCoef="0" IVar="0" Cut="8.5732787847518921e-01" cType="1" res="-1.2347382493317127e-02" rms="2.2079584002494812e-01" purity="9.1497105360031128e-01" nType="0">
            <Node pos="l" depth="3" NCoef="0" IVar="-1" Cut="0.0000000000000000e+00" cType="1" res="-1.8759560585021973e-01" rms="2.9511836171150208e-01" purity="8.2157039642333984e-01" nType="-99"/>
            <Node pos="r" depth="3" NCoef="0" IVar="-1" Cut="0.0000000000000000e+00" cType="1" res="-9.4135381281375885e-02" rms="1.6617223620414734e-01" purity="9.6602082252502441e-01" nType="-99"/>
          </Node>
        </Node>
        <Node pos="r" depth="1" NCoef="0" IVar="6" Cut="3.0425471067428589e-01" cType="1" res="4.6658455394208431e-03" rms="2.8875043988227844e-01" purity="4.0346476435661316e-01" nType="0">
          <Node pos="l" depth="2" NCoef="0" IVar="0" Cut="9.5373845100402832e-01" cType="1" res="-4.9644312821328640e-03" rms="2.8563925623893738e-01" purity="2.7846118807792664e-01" nType="0">
            <Node pos="l" depth="3" NCoef="0" IVar="-1" Cut="0.0000000000000000e+00" cType="1" res="-5.1774285733699799e-02" rms="2.8005650639533997e-01" purity="2.0614758133888245e-01" nType="-99"/>
            <Node pos="r" depth="3" NCoef="0" IVar="-1" Cut="0.0000000000000000e+00" cType="1" res="9.8178513348102570e-02" rms="3.2407802343368530e-01" purity="8.2839196920394897e-01" nType="-99"/>
          </Node>
          <Node pos="r" depth="2" NCoef="0" IVar="2" Cut="3.2506456971168518e-01" cType="1" res="0.0000000000000000e+00" rms="0.0000000000000000e+00" purity="6.5578615665435791e-01" nType="0">
            <Node pos="l" depth="3" NCoef="0" IVar="-1" Cut="0.0000000000000000e+00" cType="1" res="5.1200583577156067e-02" rms="3.3955547213554382e-01" purity="3.9825695753097534e-01" nType="-99"/>
            <Node pos="r" depth="3" NCoef="0" IVar="-1" Cut="0.0000000000000000e+00" cType="1" res="2.5984692573547363e-01" rms="2.4898469448089600e-01" purity="8.7152558565139771e-01" nType="-99"/>
          </Node>
        </Node>
      </Node>
    </BinaryTree>
    <BinaryTree type="DecisionTree" boostWeight="1.0000000000000000e+00" itree="11">
      <Node pos="s" depth="0" NCoef="0" IVar="0" Cut="6.7810660600662231e-01" cType="1" res="1.2029185018036515e-04" rms="2.8086593747138977e-01" purity="5.0000000000000000e-01" nType="0">
        <Node pos="l" depth="1" NCoef="0" IVar="0" Cut="5.2503496408462524e-01" cType="1" res="4.0003550238907337e-03" rms="2.9008516669273376e-01" purity="2.4723184108734131e-01" nType="0">
          <Node pos="l" depth="2" NCoef="0" IVar="2" Cut="3.5522559285163879e-01" cType="1" res="8.3234842168167233e-04" rms="2.8345426917076111e-01" purity="2.1502672135829926e-01" nType="0">
            <Node pos="l" depth="3" NCoef="0" IVar="-1" Cut="0.0000000000000000e+00" cType="1" res="-2.6186568662524223e-02" rms="2.4521379172801971e-01" purity="9.1989740729331970e-02" nType="-99"/>
            <Node pos="r" depth="3" NCoef="0" IVar="-1" Cut="0.0000000000000000e+00" cType="1" res="5.5342666804790497e-02" rms="3.8818237185478210e-01" purity="6.4487999677658081e-01" nType="-99"/>
          </Node>
          <Node pos="r" depth="2" NCoef="0" IVar="-1" Cut="0.0000000000000000e+00" cType="1" res="1.0578776150941849e-01" rms="3.2142296433448792e-01" purity="4.1217455267906189e-01" nType="-99"/>
        </Node>
        <Node pos="r" depth="1" NCoef="0" IVar="0" Cut="8.4648680686950684e-01" cType="1" res="-5.0320085138082504e-03" rms="2.6804754137992859e-01" purity="8.3564859628677368e-01" nType="0">
          <Node pos="l" depth="2" NCoef="0" IVar="-1" Cut="0.0000000000000000e+00" cType="1" res="-1.8659302592277527e-01" rms="3.1988710165023804e-01" purity="6.5170639753341675e-01" nType="-99"/>
          <Node pos="r" depth="2" NCoef="0" IVar="3" Cut="7.6189732551574707e-01" cType="1" res="0.0000000000000000e+00" rms="0.0000000000000000e+00" purity="8.9054554700851440e-01" nType="0">
            <Node pos="l" depth="3" NCoef="0" IVar="-1" Cut="0.0000000000000000e+00" cType="1" res="-2.6254966855049133e-02" rms="2.0029297471046448e-01" purity="9.4707155227661133e-01" nType="-99"/>
            <Node pos="r" depth="3" NCoef="0" IVar="-1" Cut="0.0000000000000000e+00" cType="1" res="7.9209186136722565e-02" rms="3.7767332792282104e-01" purity="6.8719649314880371e-01" nType="-99"/>
          </Node>
        </Node>
      </Node>
    </BinaryTree>
    <BinaryTree type="DecisionTree" boostWeight="1.0000000000000000e+00" itree="12">
      <Node pos="s" depth="0" NCoef="0" IVar="1" Cut="9.0794837474822998e-01" cType="1" res="-4.6669902076246217e-05" rms="2.8020855784416199e-01" purity="5.0000000000000000e-01" nType="0">
        <Node pos="l" depth="1" NCoef="0" IVar="0" Cut="4.4849920272827148e-01" cType="1" res="-6.2585729174315929e-03" rms="2.9465976357460022e-01" purity="3.6796408891677856e-01" nType="0">
          <Node pos="l" depth="2" NCoef="0" IVar="3" Cut="7.1428972482681274e-01" cType="1" res="0.0000000000000000e+00" rms="0.0000000000000000e+00" purity="1.3063506782054901e-01" nType="0">
            <Node pos="l" depth="3" NCoef="0" IVar="-1" Cut="0.0000000000000000e+00" cType="1" res="-8.8201910257339478e-02" rms="3.6023080348968506e-01" purity="2.9078471660614014e-01" nType="-99"/>
            <Node pos="r" depth="3" NCoef="0" IVar="-1" Cut="0.0000000000000000e+00" cType="1" res="4.6973407734185457e-05" rms="2.1368126571178436e-01" purity="5.8750368654727936e-02" nType="-99"/>
          </Node>
          <Node pos="r" depth="2" NCoef="0" IVar="6" Cut="2.6078796386718750e-01" cType="1" res="0.0000000000000000e+00" rms="0.0000000000000000e+00" purity="6.0991096496582031e-01" nType="0">
            <Node pos="l" depth="3" NCoef="0" IVar="-1" Cut="0.0000000000000000e+00" cType="1" res="-1.0082451254129410e-01" rms="3.3717441558837891e-01" purity="3.7013122439384460e-01" nType="-99"/>
            <Node pos="r" depth="3" NCoef="0" IVar="-1" Cut="0.0000000000000000e+00" cType="1" res="2.9180085286498070e-02" rms="3.0591580271720886e-01" purity="7.8092086315155029e-01" nType="-99"/>
          </Node>
        </Node>
        <Node pos="r" depth="1" NCoef="0" IVar="2" Cut="2.9785656929016113e-01" cType="1" res="0.0000000000000000e+00" rms="0.0000000000000000e+00" purity="9.2164283990859985e-01" nType="0">
          <Node pos="l" depth="2" NCoef="0" IVar="-1" Cut="0.0000000000000000e+00" cType="1" res="2.5294256210327148e-01" rms="3.8121461868286133e-01" purity="7.3602795600891113e-01" nType="-99"/>
          <Node pos="r" depth="2" NCoef="0" IVar="6" Cut="3.5319787263870239e-01" cType="1" res="0.0000000000000000e+00" rms="0.0000000000000000e+00" purity="9.7483050823211670e-01" nType="0">
            <Node pos="l" depth="3" NCoef="0" IVar="-1" Cut="0.0000000000000000e+00" cType="1" res="-4.0518794208765030e-02" rms="1.9726920127868652e-01" purity="9.5716208219528198e-01" nType="-99"/>
            <Node pos="r" depth="3" NCoef="0" IVar="-1" Cut="0.0000000000000000e+00" cType="1" res="2.4725517630577087e-01" rms="1.1701030284166336e-01" purity="9.8607724905014038e-01" nType="-99"/>
          </Node>
        </Node>
      </Node>
    </BinaryTree>
    <BinaryTree type="DecisionTree" boostWeight="1.0000000000000000e+00" itree="13">
      <Node pos="s" depth="0" NCoef="0" IVar="1" Cut="2.2036397457122803e-01" cType="1" res="-1.4827447012066841e-04" rms="2.7908751368522644e-01" purity="5.0000000000000000e-01" nType="0">
        <Node pos="l" depth="1" NCoef="0" IVar="5" Cut="5.7141703367233276e-01" cType="1" res="-9.9924644455313683e-03" rms="2.8232964873313904e-01" purity="2.4513594806194305e-01" nType="0">
          <Node pos="l" depth="2" NCoef="0" IVar="0" Cut="3.1073153018951416e-01" cType="1" res="-1.5800679102540016e-02" rms="2.9806238412857056e-01" purity="2.6856333017349243e-01" nType="0">
            <Node pos="l" depth="3" NCoef="0" IVar="-1" Cut="0.0000000000000000e+00" cType="1" res="-6.6715590655803680e-02" rms="2.4874356389045715e-01" purity="8.5597172379493713e-02" nType="-99"/>
            <Node pos="r" depth="3" NCoef="0" IVar="-1" Cut="0.0000000000000000e+00" cType="1" res="-1.0081164538860321e-01" rms="3.3748275041580200e-01" purity="4.3899226188659668e-01" nType="-99"/>
          </Node>
          <Node pos="r" depth="2" NCoef="0" IVar="4" Cut="6.1921501159667969e-01" cType="1" res="-3.6778771318495274e-03" rms="2.6401939988136292e-01" purity="2.1966613829135895e-01" nType="0">
            <Node pos="l" depth="3" NCoef="0" IVar="-1" Cut="0.0000000000000000e+00" cType="1" res="4.2081307619810104e-03" rms="2.8071472048759460e-01" purity="2.6797372102737427e-01" nType="-99"/>
            <Node pos="r" depth="3" NCoef="0" IVar="-1" Cut="0.0000000000000000e+00" cType="1" res="-5.7136178016662598e-02" rms="2.4828593432903290e-01" purity="1.7701725661754608e-01" nType="-99"/>
          </Node>
        </Node>
        <Node pos="r" depth="1" NCoef="0" IVar="1" Cut="7.7698123455047607e-01" cType="1" res="0.0000000000000000e+00" rms="0.0000000000000000e+00" purity="5.8704018592834473e-01" nType="0">
          <Node pos="l" depth="2" NCoef="0" IVar="4" Cut="7.1427744626998901e-01" cType="1" res="0.0000000000000000e+00" rms="0.0000000000000000e+00" purity="3.5256293416023254e-01" nType="0">
            <Node pos="l" depth="3" NCoef="0" IVar="-1" Cut="0.0000000000000000e+00" cType="1" res="3.8061041384935379e-02" rms="3.1247565150260925e-01" purity="4.1608068346977234e-01" nType="-99"/>
            <Node pos="r" depth="3" NCoef="0" IVar="-1" Cut="0.0000000000000000e+00" cType="1" res="9.9640302360057831e-02" rms="2.8616905212402344e-01" purity="2.6134175062179565e-01" nType="-99"/>
          </Node>
          <Node pos="r" depth="2" NCoef="0" IVar="6" Cut="2.4086570739746094e-01" cType="1" res="-4.8299590125679970e-03" rms="2.4559332430362701e-01" purity="8.6887294054031372e-01" nType="0">
            <Node pos="l" depth="3" NCoef="0" IVar="-1" Cut="0.0000000000000000e+00" cType="1" res="-9.9198691546916962e-02" rms="3.4657615423202515e-01" purity="6.4422851800918579e-01" nType="-99"/>
            <Node pos="r" depth="3" NCoef="0" IVar="-1" Cut="0.0000000000000000e+00" cType="1" res="-4.1131512261927128e-03" rms="2.0937809348106384e-01" purity="9.3041825294494629e-01" nType="-99"/>
          </Node>
        </Node>
      </Node>
    </BinaryTree>
    <BinaryTree type="DecisionTree" boostWeight="1.0000000000000000e+00" itree="14">
      <Node pos="s" depth="0" NCoef="0" IVar="3" Cut="9.0476262569427490e-01" cType="1" res="0.0000000000000000e+00" rms="0.0000000000000000e+00" purity="5.0000000000000000e-01" nType="0">
        <Node pos="l" depth="1" NCoef="0" IVar="1" Cut="5.4559189081192017e-01" cType="1" res="-3.2732111867517233e-03" rms="2.9107534885406494e-01" purity="6.4333599805831909e-01" nType="0">
          <Node pos="l" depth="2" NCoef="0" IVar="0" Cut="6.7804926633834839e-01" cType="1" res="-9.4063989818096161e-03" rms="3.3126020431518555e-01" purity="4.0077546238899231e-01" nType="0">
            <Node pos="l" depth="3" NCoef="0" IVar="-1" Cut="0.0000000000000000e+00" cType="1" res="-5.0069345161318779e-03" rms="3.2500523328781128e-01" purity="1.9705690443515778e-01" nType="-99"/>
            <Node pos="r" depth="3" NCoef="0" IVar="-1" Cut="0.0000000000000000e+00" cType="1" res="-1.2850625813007355e-01" rms="3.4175804257392883e-01" purity="7.6870423555374146e-01" nType="-99"/>
          </Node>
          <Node pos="r" depth="2" NCoef="0" IVar="0" Cut="3.6236971616744995e-01" cType="1" res="2.0959775429219007e-03" rms="2.5053918361663818e-01" purity="8.5568130016326904e-01" nType="0">
            <Node pos="l" depth="3" NCoef="0" IVar="-1" Cut="0.0000000000000000e+00" cType="1" res="9.5496647059917450e-02" rms="3.5784614086151123e-01" purity="5.6707966327667236e-01" nType="-99"/>
            <Node pos="r" depth="3" NCoef="0" IVar="-1" Cut="0.0000000000000000e+00" cType="1" res="-3.2488856464624405e-02" rms="2.1945355832576752e-01" purity="9.1972213983535767e-01" nType="-99"/>
          </Node>
        </Node>
        <Node pos="r" depth="1" NCoef="0" IVar="6" Cut="1.3030005991458893e-01" cType="1" res="0.0000000000000000e+00" rms="0.0000000000000000e+00" purity="1.2055913358926773e-01" nType="0">
          <Node pos="l" depth="2" NCoef="0" IVar="6" Cut="8.0858632922172546e-02" cType="1" res="0.0000000000000000e+00" rms="0.0000000000000000e+00" purity="8.6794964969158173e-02" nType="0">
            <Node pos="l" depth="3" NCoef="0" IVar="-1" Cut="0.0000000000000000e+00" cType="1" res="-1.1070655286312103e-01" rms="2.1105864644050598e-01" purity="7.2239190340042114e-02" nType="-99"/>
            <Node pos="r" depth="3" NCoef="0" IVar="-1" Cut="0.0000000000000000e+00" cType="1" res="5.7087924331426620e-02" rms="2.3898963630199432e-01" purity="1.0263394564390182e-01" nType="-99"/>
          </Node>
          <Node pos="r" depth="2" NCoef="0" IVar="1" Cut="3.1203833222389221e-01" cType="1" res="0.0000000000000000e+00" rms="0.0000000000000000e+00" purity="1.6366729140281677e-01" nType="0">
            <Node pos="l" depth="3" NCoef="0" IVar="-1" Cut="0.0000000000000000e+00" cType="1" res="2.0903256535530090e-01" rms="2.1959087252616882e-01" purity="7.3077723383903503e-02" nType="-99"/>
            <Node pos="r" depth="3" NCoef="0" IVar="-1" Cut="0.0000000000000000e+00" cType="1" res="1.7800946533679962e-01" rms="2.9791364073753357e-01" purity="2.4487335979938507e-01" nType="-99"/>
          </Node>
        </Node>
      </Node>
    </BinaryTree>
    <BinaryTree type="DecisionTree" boostWeight="1.0000000000000000e+00" itree="15">
      <Node pos="s" depth="0" NCoef="0" IVar="5" Cut="8.5713344812393188e-01" cType="1" res="5.2847979532089084e-05" rms="2.7823868393898010e-01" purity="5.0000000000000000e-01" nType="0">
        <Node pos="l" depth="1" NCoef="0" IVar="6" Cut="5.0673109292984009e-01" cType="1" res="0.0000000000000000e+00" rms="0.0000000000000000e+00" purity="4.9496385455131531e-01" nType="0">
          <Node pos="l" depth="2" NCoef="0" IVar="1" Cut="7.7043145895004272e-01" cType="1" res="0.0000000000000000e+00" rms="0.0000000000000000e+00" purity="4.7648301720619202e-01" nType="0">
            <Node pos="l" depth="3" NCoef="0" IVar="-1" Cut="0.0000000000000000e+00" cType="1" res="1.7196191474795341e-02" rms="2.8708788752555847e-01" purity="2.9430100321769714e-01" nType="-99"/>
            <Node pos="r" depth="3" NCoef="0" IVar="-1" Cut="0.0000000000000000e+00" cType="1" res="-4.7156766057014465e-02" rms="2.5119832158088684e-01" purity="8.5490548610687256e-01" nType="-99"/>
          </Node>
          <Node pos="r" depth="2" NCoef="0" IVar="-1" Cut="0.0000000000000000e+00" cType="1" res="1.4035190641880035e-01" rms="3.0598425865173340e-01" purity="7.4792629480361938e-01" nType="-99"/>
        </Node>
        <Node pos="r" depth="1" NCoef="0" IVar="2" Cut="3.7213718891143799e-01" cType="1" res="0.0000000000000000e+00" rms="0.0000000000000000e+00" purity="5.3175854682922363e-01" nType="0">
          <Node pos="l" depth="2" NCoef="0" IVar="-1" Cut="0.0000000000000000e+00" cType="1" res="-1.0248880833387375e-01" rms="2.9337686300277710e-01" purity="2.6895394921302795e-01" nType="-99"/>
          <Node pos="r" depth="2" NCoef="0" IVar="-1" Cut="0.0000000000000000e+00" cType="1" res="-1.1472764890640974e-03" rms="2.5738754868507385e-01" purity="8.7216490507125854e-01" nType="-99"/>
        </Node>
      </Node>
    </BinaryTree>
    <BinaryTree type="DecisionTree" boostWeight="1.0000000000000000e+00" itree="16">
      <Node pos="s" depth="0" NCoef="0" IVar="0" Cut="7.2402805089950562e-01" cType="1" res="1.1674637789838016e-05" rms="2.7800372242927551e-01" purity="5.0000000000000000e-01" nType="0">
        <Node pos="l" depth="1" NCoef="0" IVar="2" Cut="2.3723283410072327e-01" cType="1" res="0.0000000000000000e+00" rms="0.0000000000000000e+00" purity="2.5975543260574341e-01" nType="0">
          <Node pos="l" depth="2" NCoef="0" IVar="6" Cut="2.3985768854618073e-01" cType="1" res="0.0000000000000000e+00" rms="0.0000000000000000e+00" purity="5.8874137699604034e-02" nType="0">
            <Node pos="l" depth="3" NCoef="0" IVar="-1" Cut="0.0000000000000000e+00" cType="1" res="-4.8814143985509872e-02" rms="1.8621794879436493e-01" purity="4.2853869497776031e-02" nType="-99"/>
            <Node pos="r" depth="3" NCoef="0" IVar="-1" Cut="0.0000000000000000e+00" cType="1" res="-1.7966614663600922e-01" rms="2.6768144965171814e-01" purity="1.0708646476268768e-01" nType="-99"/>
          </Node>
          <Node pos="r" depth="2" NCoef="0" IVar="3" Cut="7.1422016620635986e-01" cType="1" res="6.4138150773942471e-03" rms="3.6045563220977783e-01" purity="4.9836188554763794e-01" nType="0">
            <Node pos="l" depth="3" NCoef="0" IVar="-1" Cut="0.0000000000000000e+00" cType="1" res="-1.1312107555568218e-02" rms="3.4991464018821716e-01" purity="5.5678296089172363e-01" nType="-99"/>
            <Node pos="r" depth="3" NCoef="0" IVar="-1" Cut="0.0000000000000000e+00" cType="1" res="1.2161651253700256e-01" rms="3.8633763790130615e-01" purity="3.4118574857711792e-01" nType="-99"/>
          </Node>
        </Node>
        <Node pos="r" depth="1" NCoef="0" IVar="0" Cut="9.0771412849426270e-01" cType="1" res="4.7847600653767586e-03" rms="2.6146593689918518e-01" purity="8.4970402717590332e-01" nType="0">
          <Node pos="l" depth="2" NCoef="0" IVar="3" Cut="5.2389484643936157e-01" cType="1" res="1.0549697093665600e-02" rms="3.0096393823623657e-01" purity="7.3353838920593262e-01" nType="0">
            <Node pos="l" depth="3" NCoef="0" IVar="-1" Cut="0.0000000000000000e+00" cType="1" res="-5.7388048619031906e-02" rms="2.3854011297225952e-01" purity="9.0986299514770508e-01" nType="-99"/>
            <Node pos="r" depth="3" NCoef="0" IVar="-1" Cut="0.0000000000000000e+00" cType="1" res="1.2430025637149811e-01" rms="3.5031524300575256e-01" purity="5.6258869171142578e-01" nType="-99"/>
          </Node>
          <Node pos="r" depth="2" NCoef="0" IVar="6" Cut="2.6174414157867432e-01" cType="1" res="0.0000000000000000e+00" rms="0.0000000000000000e+00" purity="9.0955698490142822e-01" nType="0">
            <Node pos="l" depth="3" NCoef="0" IVar="-1" Cut="0.0000000000000000e+00" cType="1" res="-5.7767231017351151e-02" rms="3.3668678998947144e-01" purity="7.8669136762619019e-01" nType="-99"/>
            <Node pos="r" depth="3" NCoef="0" IVar="-1" Cut="0.0000000000000000e+00" cType="1" res="7.3637500405311584e-02" rms="1.9679230451583862e-01" purity="9.4893592596054077e-01" nType="-99"/>
          </Node>
        </Node>
      </Node>
    </BinaryTree>
    <BinaryTree type="DecisionTree" boostWeight="1.0000000000000000e+00" itree="17">
      <Node pos="s" depth="0" NCoef="0" IVar="1" Cut="9.5378732681274414e-01" cType="1" res="0.0000000000000000e+00" rms="0.0000000000000000e+00" purity="5.0000000000000000e-01" nType="0">
        <Node pos="l" depth="1" NCoef="0" IVar="6" Cut="2.3985768854618073e-01" cType="1" res="0.0000000000000000e+00" rms="0.0000000000000000e+00" purity="4.0194350481033325e-01" nType="0">
          <Node pos="l" depth="2" NCoef="0" IVar="3" Cut="7.6198488473892212e-01" cType="1" res="0.0000000000000000e+00" rms="0.0000000000000000e+00" purity="1.9153994321823120e-01" nType="0">
            <Node pos="l" depth="3" NCoef="0" IVar="-1" Cut="0.0000000000000000e+00" cType="1" res="-1.7970494925975800e-01" rms="3.5102128982543945e-01" purity="6.1431962251663208e-01" nType="-99"/>
            <Node pos="r" depth="3" NCoef="0" IVar="-1" Cut="0.0000000000000000e+00" cType="1" res="-1.1900481767952442e-02" rms="2.5554910302162170e-01" purity="1.2644405663013458e-01" nType="-99"/>
          </Node>
          <Node pos="r" depth="2" NCoef="0" IVar="6" Cut="3.4813165664672852e-01" cType="1" res="0.0000000000000000e+00" rms="0.0000000000000000e+00" purity="5.8225494623184204e-01" nType="0">
            <Node pos="l" depth="3" NCoef="0" IVar="-1" Cut="0.0000000000000000e+00" cType="1" res="2.5482982397079468e-02" rms="3.1132677197456360e-01" purity="4.7477450966835022e-01" nType="-99"/>
            <Node pos="r" depth="3" NCoef="0" IVar="-1" Cut="0.0000000000000000e+00" cType="1" res="-1.2092266231775284e-02" rms="3.0188977718353271e-01" purity="6.6555821895599365e-01" nType="-99"/>
          </Node>
        </Node>
        <Node pos="r" depth="1" NCoef="0" IVar="5" Cut="5.7142704725265503e-01" cType="1" res="0.0000000000000000e+00" rms="0.0000000000000000e+00" purity="9.3505632877349854e-01" nType="0">
          <Node pos="l" depth="2" NCoef="0" IVar="1" Cut="9.9088722467422485e-01" cType="1" res="0.0000000000000000e+00" rms="0.0000000000000000e+00" purity="9.4069623947143555e-01" nType="0">
            <Node pos="l" depth="3" NCoef="0" IVar="-1" Cut="0.0000000000000000e+00" cType="1" res="1.5036152303218842e-01" rms="2.1131618320941925e-01" purity="9.3701034784317017e-01" nType="-99"/>
            <Node pos="r" depth="3" NCoef="0" IVar="-1" Cut="0.0000000000000000e+00" cType="1" res="2.1659852564334869e-01" rms="2.0785102248191833e-01" purity="9.4422936439514160e-01" nType="-99"/>
          </Node>
          <Node pos="r" depth="2" NCoef="0" IVar="-1" Cut="0.0000000000000000e+00" cType="1" res="-1.8412459641695023e-02" rms="2.1152092516422272e-01" purity="9.2769271135330200e-01" nType="-99"/>
        </Node>
      </Node>
    </BinaryTree>
    <BinaryTree type="DecisionTree" boostWeight="1.0000000000000000e+00" itree="18">
      <Node pos="s" depth="0" NCoef="0" IVar="3" Cut="4.7619652748107910e-01" cType="1" res="0.0000000000000000e+00" rms="0.0000000000000000e+00" purity="5.0000000000000000e-01" nType="0">
        <Node pos="l" depth="1" NCoef="0" IVar="2" Cut="4.5467999577522278e-01" cType="1" res="-2.8057617601007223e-03" rms="2.6144668459892273e-01" purity="8.0260133743286133e-01" nType="0">
          <Node pos="l" depth="2" NCoef="0" IVar="4" Cut="7.1427518129348755e-01" cType="1" res="0.0000000000000000e+00" rms="0.0000000000000000e+00" purity="6.8773770332336426e-01" nType="0">
            <Node pos="l" depth="3" NCoef="0" IVar="-1" Cut="0.0000000000000000e+00" cType="1" res="-2.1042451262474060e-02" rms="2.9506215453147888e-01" purity="7.1409213542938232e-01" nType="-99"/>
            <Node pos="r" depth="3" NCoef="0" IVar="-1" Cut="0.0000000000000000e+00" cType="1" res="-1.1060430854558945e-01" rms="3.0091357231140137e-01" purity="6.3466018438339233e-01" nType="-99"/>
          </Node>
          <Node pos="r" depth="2" NCoef="0" IVar="1" Cut="7.7294492721557617e-01" cType="1" res="0.0000000000000000e+00" rms="0.0000000000000000e+00" purity="9.3902641534805298e-01" nType="0">
            <Node pos="l" depth="3" NCoef="0" IVar="-1" Cut="0.0000000000000000e+00" cType="1" res="6.6783294081687927e-02" rms="2.9857680201530457e-01" purity="8.7315744161605835e-01" nType="-99"/>
            <Node pos="r" depth="3" NCoef="0" IVar="-1" Cut="0.0000000000000000e+00" cType="1" res="2.4342229589819908e-03" rms="1.0601610690355301e-01" purity="9.8820823431015015e-01" nType="-99"/>
          </Node>
        </Node>
        <Node pos="r" depth="1" NCoef="0" IVar="6" Cut="2.0301651954650879e-01" cType="1" res="0.0000000000000000e+00" rms="0.0000000000000000e+00" purity="3.4851154685020447e-01" nType="0">
          <Node pos="l" depth="2" NCoef="0" IVar="3" Cut="8.7529456615447998e-01" cType="1" res="0.0000000000000000e+00" rms="0.0000000000000000e+00" purity="1.8119521439075470e-01" nType="0">
            <Node pos="l" depth="3" NCoef="0" IVar="-1" Cut="0.0000000000000000e+00" cType="1" res="-1.0913025587797165e-01" rms="3.5032474994659424e-01" purity="4.8393148183822632e-01" nType="-99"/>
            <Node pos="r" depth="3" NCoef="0" IVar="-1" Cut="0.0000000000000000e+00" cType="1" res="5.6113814935088158e-03" rms="2.4210816621780396e-01" purity="1.1278359591960907e-01" nType="-99"/>
          </Node>
          <Node pos="r" depth="2" NCoef="0" IVar="4" Cut="8.5713392496109009e-01" cType="1" res="0.0000000000000000e+00" rms="0.0000000000000000e+00" purity="5.0200045108795166e-01" nType="0">
            <Node pos="l" depth="3" NCoef="0" IVar="-1" Cut="0.0000000000000000e+00" cType="1" res="4.5314725488424301e-02" rms="3.0103510618209839e-01" purity="5.3381329774856567e-01" nType="-99"/>
            <Node pos="r" depth="3" NCoef="0" IVar="-1" Cut="0.0000000000000000e+00" cType="1" res="4.0008854120969772e-03" rms="2.9815042018890381e-01" purity="3.7993234395980835e-01" nType="-99"/>
          </Node>
        </Node>
      </Node>
    </BinaryTree>
    <BinaryTree type="DecisionTree" boostWeight="1.0000000000000000e+00" itree="19">
      <Node pos="s" depth="0" NCoef="0" IVar="5" Cut="5.7142537832260132e-01" cType="1" res="0.0000000000000000e+00" rms="0.0000000000000000e+00" purity="5.0000000000000000e-01" nType="0">
        <Node pos="l" depth="1" NCoef="0" IVar="4" Cut="7.1428126096725464e-01" cType="1" res="0.0000000000000000e+00" rms="0.0000000000000000e+00" purity="5.3247350454330444e-01" nType="0">
          <Node pos="l" depth="2" NCoef="0" IVar="3" Cut="9.0476143360137939e-01" cType="1" res="0.0000000000000000e+00" rms="0.0000000000000000e+00" purity="5.9308493137359619e-01" nType="0">
            <Node pos="l" depth="3" NCoef="0" IVar="-1" Cut="0.0000000000000000e+00" cType="1" res="-6.0458417981863022e-02" rms="2.9070904850959778e-01" purity="7.1542811393737793e-01" nType="-99"/>
            <Node pos="r" depth="3" NCoef="0" IVar="-1" Cut="0.0000000000000000e+00" cType="1" res="-3.2671347726136446e-03" rms="2.9080751538276672e-01" purity="2.0447458326816559e-01" nType="-99"/>
          </Node>
          <Node pos="r" depth="2" NCoef="0" IVar="0" Cut="4.0253177285194397e-01" cType="1" res="6.9558143150061369e-04" rms="2.8242275118827820e-01" purity="4.3205952644348145e-01" nType="0">
            <Node pos="l" depth="3" NCoef="0" IVar="-1" Cut="0.0000000000000000e+00" cType="1" res="-4.8526566475629807e-02" rms="2.7006992697715759e-01" purity="1.7328244447708130e-01" nType="-99"/>
            <Node pos="r" depth="3" NCoef="0" IVar="-1" Cut="0.0000000000000000e+00" cType="1" res="4.3579168617725372e-02" rms="2.9139497876167297e-01" purity="6.3057541847229004e-01" nType="-99"/>
          </Node>
        </Node>
        <Node pos="r" depth="1" NCoef="0" IVar="2" Cut="1.4973813295364380e-01" cType="1" res="0.0000000000000000e+00" rms="0.0000000000000000e+00" purity="4.6261563897132874e-01" nType="0">
          <Node pos="l" depth="2" NCoef="0" IVar="-1" Cut="0.0000000000000000e+00" cType="1" res="-1.1242918670177460e-01" rms="1.6901743412017822e-01" purity="4.1011676192283630e-02" nType="-99"/>
          <Node pos="r" depth="2" NCoef="0" IVar="4" Cut="8.5713058710098267e-01" cType="1" res="0.0000000000000000e+00" rms="0.0000000000000000e+00" purity="5.9238183498382568e-01" nType="0">
            <Node pos="l" depth="3" NCoef="0" IVar="-1" Cut="0.0000000000000000e+00" cType="1" res="6.4144469797611237e-02" rms="2.8342100977897644e-01" purity="6.2457859516143799e-01" nType="-99"/>
            <Node pos="r" depth="3" NCoef="0" IVar="-1" Cut="0.0000000000000000e+00" cType="1" res="2.1037189289927483e-02" rms="2.9511588811874390e-01" purity="4.6587103605270386e-01" nType="-99"/>
          </Node>
        </Node>
      </Node>
    </BinaryTree>
    <BinaryTree type="DecisionTree" boostWeight="1.0000000000000000e+00" itree="20">
      <Node pos="s" depth="0" NCoef="0" IVar="4" Cut="9.5236897468566895e-01" cType="1" res="-1.4946318697184324e-04" rms="2.7631595730781555e-01" purity="5.0000000000000000e-01" nType="0">
        <Node pos="l" depth="1" NCoef="0" IVar="5" Cut="8.0951541662216187e-01" cType="1" res="8.1348023377358913e-04" rms="2.7619293332099915e-01" purity="5.1058048009872437e-01" nType="0">
          <Node pos="l" depth="2" NCoef="0" IVar="6" Cut="5.0673109292984009e-01" cType="1" res="0.0000000000000000e+00" rms="0.0000000000000000e+00" purity="5.0682818889617920e-01" nType="0">
            <Node pos="l" depth="3" NCoef="0" IVar="-1" Cut="0.0000000000000000e+00" cType="1" res="1.0710250586271286e-02" rms="2.7494910359382629e-01" purity="4.8831820487976074e-01" nType="-99"/>
            <Node pos="r" depth="3" NCoef="0" IVar="-1" Cut="0.0000000000000000e+00" cType="1" res="8.2798622548580170e-02" rms="3.0489447712898254e-01" purity="7.5387603044509888e-01" nType="-99"/>
          </Node>
          <Node pos="r" depth="2" NCoef="0" IVar="1" Cut="7.7247905731201172e-01" cType="1" res="0.0000000000000000e+00" rms="0.0000000000000000e+00" purity="5.2682626247406006e-01" nType="0">
            <Node pos="l" depth="3" NCoef="0" IVar="-1" Cut="0.0000000000000000e+00" cType="1" res="-1.6114391386508942e-02" rms="2.9089957475662231e-01" purity="3.3344808220863342e-01" nType="-99"/>
            <Node pos="r" depth="3" NCoef="0" IVar="-1" Cut="0.0000000000000000e+00" cType="1" res="-1.1031179875135422e-01" rms="2.3405006527900696e-01" purity="8.7211287021636963e-01" nType="-99"/>
          </Node>
        </Node>
        <Node pos="r" depth="1" NCoef="0" IVar="-1" Cut="0.0000000000000000e+00" cType="1" res="-8.1065520644187927e-02" rms="2.7756407856941223e-01" purity="3.6815902590751648e-01" nType="-99"/>
      </Node>
    </BinaryTree>
    <BinaryTree type="DecisionTree" boostWeight="1.0000000000000000e+00" itree="21">
      <Node pos="s" depth="0" NCoef="0" IVar="5" Cut="5.7142537832260132e-01" cType="1" res="0.0000000000000000e+00" rms="0.0000000000000000e+00" purity="5.0000000000000000e-01" nType="0">
        <Node pos="l" depth="1" NCoef="0" IVar="0" Cut="3.1073153018951416e-01" cType="1" res="-1.4099872205406427e-03" rms="2.8749632835388184e-01" purity="5.3247350454330444e-01" nType="0">
          <Node pos="l" depth="2" NCoef="0" IVar="2" Cut="2.3726493120193481e-01" cType="1" res="0.0000000000000000e+00" rms="0.0000000000000000e+00" purity="1.9394607841968536e-01" nType="0">
            <Node pos="l" depth="3" NCoef="0" IVar="-1" Cut="0.0000000000000000e+00" cType="1" res="6.1750661581754684e-02" rms="2.1369020640850067e-01" purity="5.7804021984338760e-02" nType="-99"/>
            <Node pos="r" depth="3" NCoef="0" IVar="-1" Cut="0.0000000000000000e+00" cType="1" res="4.9034398049116135e-02" rms="3.6450660228729248e-01" purity="3.8530397415161133e-01" nType="-99"/>
          </Node>
          <Node pos="r" depth="2" NCoef="0" IVar="5" Cut="3.2653152942657471e-01" cType="1" res="-6.2066414393484592e-03" rms="2.8797772526741028e-01" purity="6.9429838657379150e-01" nType="0">
            <Node pos="l" depth="3" NCoef="0" IVar="-1" Cut="0.0000000000000000e+00" cType="1" res="-1.7084244638681412e-02" rms="2.8967052698135376e-01" purity="7.0997685194015503e-01" nType="-99"/>
            <Node pos="r" depth="3" NCoef="0" IVar="-1" Cut="0.0000000000000000e+00" cType="1" res="-7.1481674909591675e-02" rms="2.8574633598327637e-01" purity="6.7438948154449463e-01" nType="-99"/>
          </Node>
        </Node>
        <Node pos="r" depth="1" NCoef="0" IVar="0" Cut="1.2900604307651520e-01" cType="1" res="1.6535029280930758e-03" rms="2.6254507899284363e-01" purity="4.6261563897132874e-01" nType="0">
          <Node pos="l" depth="2" NCoef="0" IVar="-1" Cut="0.0000000000000000e+00" cType="1" res="-6.7636713385581970e-02" rms="2.3670959472656250e-01" purity="1.2551766633987427e-01" nType="-99"/>
          <Node pos="r" depth="2" NCoef="0" IVar="1" Cut="5.4123669862747192e-01" cType="1" res="0.0000000000000000e+00" rms="0.0000000000000000e+00" purity="5.1562839746475220e-01" nType="0">
            <Node pos="l" depth="3" NCoef="0" IVar="-1" Cut="0.0000000000000000e+00" cType="1" res="2.2494008298963308e-03" rms="2.7963784337043762e-01" purity="2.8384837508201599e-01" nType="-99"/>
            <Node pos="r" depth="3" NCoef="0" IVar="-1" Cut="0.0000000000000000e+00" cType="1" res="5.4402962327003479e-02" rms="2.5118091702461243e-01" purity="7.6566511392593384e-01" nType="-99"/>
          </Node>
        </Node>
      </Node>
    </BinaryTree>
    <BinaryTree type="DecisionTree" boostWeight="1.0000000000000000e+00" itree="22">
      <Node pos="s" depth="0" NCoef="0" IVar="1" Cut="7.7043145895004272e-01" cType="1" res="0.0000000000000000e+00" rms="0.0000000000000000e+00" purity="5.0000000000000000e-01" nType="0">
        <Node pos="l" depth="1" NCoef="0" IVar="6" Cut="4.3671888113021851e-01" cType="1" res="0.0000000000000000e+00" rms="0.0000000000000000e+00" purity="3.0955359339714050e-01" nType="0">
          <Node pos="l" depth="2" NCoef="0" IVar="0" Cut="4.4849434494972229e-01" cType="1" res="3.5029819700866938e-03" rms="2.8354191780090332e-01" purity="2.7855598926544189e-01" nType="0">
            <Node pos="l" depth="3" NCoef="0" IVar="-1" Cut="0.0000000000000000e+00" cType="1" res="-1.0222251527011395e-02" rms="2.4477161467075348e-01" purity="9.6613056957721710e-02" nType="-99"/>
            <Node pos="r" depth="3" NCoef="0" IVar="-1" Cut="0.0000000000000000e+00" cType="1" res="4.9570724368095398e-02" rms="3.2651725411415100e-01" purity="5.1204651594161987e-01" nType="-99"/>
          </Node>
          <Node pos="r" depth="2" NCoef="0" IVar="-1" Cut="0.0000000000000000e+00" cType="1" res="-4.2060561478137970e-02" rms="3.5042488574981689e-01" purity="5.5690753459930420e-01" nType="-99"/>
        </Node>
        <Node pos="r" depth="1" NCoef="0" IVar="1" Cut="8.4683185815811157e-01" cType="1" res="-3.9924341253936291e-03" rms="2.4289107322692871e-01" purity="8.6565691232681274e-01" nType="0">
          <Node pos="l" depth="2" NCoef="0" IVar="-1" Cut="0.0000000000000000e+00" cType="1" res="-1.5348231792449951e-01" rms="3.0350714921951294e-01" purity="6.6862463951110840e-01" nType="-99"/>
          <Node pos="r" depth="2" NCoef="0" IVar="1" Cut="9.1231811046600342e-01" cType="1" res="0.0000000000000000e+00" rms="0.0000000000000000e+00" purity="9.0043830871582031e-01" nType="0">
            <Node pos="l" depth="3" NCoef="0" IVar="-1" Cut="0.0000000000000000e+00" cType="1" res="3.9984758943319321e-02" rms="2.7031049132347107e-01" purity="8.0880779027938843e-01" nType="-99"/>
            <Node pos="r" depth="3" NCoef="0" IVar="-1" Cut="0.0000000000000000e+00" cType="1" res="-1.3008162379264832e-02" rms="2.1937601268291473e-01" purity="9.2283761501312256e-01" nType="-99"/>
          </Node>
        </Node>
      </Node>
    </BinaryTree>
    <BinaryTree type="DecisionTree" boostWeight="1.0000000000000000e+00" itree="23">
      <Node pos="s" depth="0" NCoef="0" IVar="1" Cut="5.8707565069198608e-01" cType="1" res="0.0000000000000000e+00" rms="0.0000000000000000e+00" purity="5.0000000000000000e-01" nType="0">
        <Node pos="l" depth="1" NCoef="0" IVar="2" Cut="3.5473209619522095e-01" cType="1" res="-2.6605778839439154e-03" rms="2.8874033689498901e-01" purity="2.7696564793586731e-01" nType="0">
          <Node pos="l" depth="2" NCoef="0" IVar="2" Cut="2.5356498360633850e-01" cType="1" res="0.0000000000000000e+00" rms="0.0000000000000000e+00" purity="1.2056837975978851e-01" nType="0">
            <Node pos="l" depth="3" NCoef="0" IVar="-1" Cut="0.0000000000000000e+00" cType="1" res="-9.3557618558406830e-02" rms="2.2049418091773987e-01" purity="6.8420834839344025e-02" nType="-99"/>
            <Node pos="r" depth="3" NCoef="0" IVar="-1" Cut="0.0000000000000000e+00" cType="1" res="1.4417309314012527e-02" rms="3.5868203639984131e-01" purity="2.8966301679611206e-01" nType="-99"/>
          </Node>
          <Node pos="r" depth="2" NCoef="0" IVar="5" Cut="5.7142794132232666e-01" cType="1" res="0.0000000000000000e+00" rms="0.0000000000000000e+00" purity="7.1873956918716431e-01" nType="0">
            <Node pos="l" depth="3" NCoef="0" IVar="-1" Cut="0.0000000000000000e+00" cType="1" res="5.5000260472297668e-02" rms="3.5665068030357361e-01" purity="7.2977471351623535e-01" nType="-99"/>
            <Node pos="r" depth="3" NCoef="0" IVar="-1" Cut="0.0000000000000000e+00" cType="1" res="2.2458013147115707e-02" rms="3.5891389846801758e-01" purity="7.0575278997421265e-01" nType="-99"/>
          </Node>
        </Node>
        <Node pos="r" depth="1" NCoef="0" IVar="2" Cut="2.9785656929016113e-01" cType="1" res="3.5279740113765001e-03" rms="2.5727111101150513e-01" purity="7.9857861995697021e-01" nType="0">
          <Node pos="l" depth="2" NCoef="0" IVar="6" Cut="2.4086570739746094e-01" cType="1" res="0.0000000000000000e+00" rms="0.0000000000000000e+00" purity="4.7307676076889038e-01" nType="0">
            <Node pos="l" depth="3" NCoef="0" IVar="-1" Cut="0.0000000000000000e+00" cType="1" res="1.0859370231628418e-01" rms="3.4947764873504639e-01" purity="3.2576271891593933e-01" nType="-99"/>
            <Node pos="r" depth="3" NCoef="0" IVar="-1" Cut="0.0000000000000000e+00" cType="1" res="-1.5252532437443733e-02" rms="3.5835102200508118e-01" purity="6.3693684339523315e-01" nType="-99"/>
          </Node>
          <Node pos="r" depth="2" NCoef="0" IVar="0" Cut="6.8098336458206177e-01" cType="1" res="3.6702115903608501e-04" rms="2.0113252103328705e-01" purity="9.4012027978897095e-01" nType="0">
            <Node pos="l" depth="3" NCoef="0" IVar="-1" Cut="0.0000000000000000e+00" cType="1" res="-3.1979620456695557e-02" rms="3.0649945139884949e-01" purity="8.4266591072082520e-01" nType="-99"/>
            <Node pos="r" depth="3" NCoef="0" IVar="-1" Cut="0.0000000000000000e+00" cType="1" res="6.8807534873485565e-02" rms="1.3816122710704803e-01" purity="9.7901678085327148e-01" nType="-99"/>
          </Node>
        </Node>
      </Node>
    </BinaryTree>
    <BinaryTree type="DecisionTree" boostWeight="1.0000000000000000e+00" itree="24">
      <Node pos="s" depth="0" NCoef="0" IVar="1" Cut="7.7043145895004272e-01" cType="1" res="0.0000000000000000e+00" rms="0.0000000000000000e+00" purity="5.0000000000000000e-01" nType="0">
        <Node pos="l" depth="1" NCoef="0" IVar="1" Cut="6.3073098659515381e-01" cType="1" res="1.2218042975291610e-03" rms="2.9104718565940857e-01" purity="3.0955359339714050e-01" nType="0">
          <Node pos="l" depth="2" NCoef="0" IVar="4" Cut="7.1427744626998901e-01" cType="1" res="0.0000000000000000e+00" rms="0.0000000000000000e+00" purity="2.8430795669555664e-01" nType="0">
            <Node pos="l" depth="3" NCoef="0" IVar="-1" Cut="0.0000000000000000e+00" cType="1" res="-1.8414871767163277e-02" rms="3.0089232325553894e-01" purity="3.3517128229141235e-01" nType="-99"/>
            <Node pos="r" depth="3" NCoef="0" IVar="-1" Cut="0.0000000000000000e+00" cType="1" res="2.0251628011465073e-02" rms="2.7093541622161865e-01" purity="2.1461965143680573e-01" nType="-99"/>
          </Node>
          <Node pos="r" depth="2" NCoef="0" IVar="-1" Cut="0.0000000000000000e+00" cType="1" res="1.0881242156028748e-01" rms="3.1149467825889587e-01" purity="5.3888469934463501e-01" nType="-99"/>
        </Node>
        <Node pos="r" depth="1" NCoef="0" IVar="3" Cut="6.1905187368392944e-01" cType="1" res="-3.5048755817115307e-03" rms="2.4235512316226959e-01" purity="8.6565691232681274e-01" nType="0">
          <Node pos="l" depth="2" NCoef="0" IVar="3" Cut="4.4217088818550110e-01" cType="1" res="0.0000000000000000e+00" rms="0.0000000000000000e+00" purity="9.5324552059173584e-01" nType="0">
            <Node pos="l" depth="3" NCoef="0" IVar="-1" Cut="0.0000000000000000e+00" cType="1" res="2.1471587941050529e-02" rms="1.6812884807586670e-01" purity="9.5920455455780029e-01" nType="-99"/>
            <Node pos="r" depth="3" NCoef="0" IVar="-1" Cut="0.0000000000000000e+00" cType="1" res="7.1061350405216217e-02" rms="2.0672672986984253e-01" purity="9.3701922893524170e-01" nType="-99"/>
          </Node>
          <Node pos="r" depth="2" NCoef="0" IVar="4" Cut="5.2382361888885498e-01" cType="1" res="0.0000000000000000e+00" rms="0.0000000000000000e+00" purity="7.1070694923400879e-01" nType="0">
            <Node pos="l" depth="3" NCoef="0" IVar="-1" Cut="0.0000000000000000e+00" cType="1" res="-2.5074888020753860e-02" rms="3.0451878905296326e-01" purity="7.8255808353424072e-01" nType="-99"/>
            <Node pos="r" depth="3" NCoef="0" IVar="-1" Cut="0.0000000000000000e+00" cType="1" res="-1.0642983019351959e-01" rms="3.4230390191078186e-01" purity="6.4509522914886475e-01" nType="-99"/>
          </Node>
        </Node>
      </Node>
    </BinaryTree>
    <BinaryTree type="DecisionTree" boostWeight="1.0000000000000000e+00" itree="25">
      <Node pos="s" depth="0" NCoef="0" IVar="2" Cut="2.9770800471305847e-01" cType="1" res="-1.3007916095375549e-05" rms="2.7515876293182373e-01" purity="5.0000000000000000e-01" nType="0">
        <Node pos="l" depth="1" NCoef="0" IVar="2" Cut="2.5526598095893860e-01" cType="1" res="0.0000000000000000e+00" rms="0.0000000000000000e+00" purity="1.8777593970298767e-01" nType="0">
          <Node pos="l" depth="2" NCoef="0" IVar="3" Cut="8.5714769363403320e-01" cType="1" res="-1.7947899177670479e-03" rms="2.5872510671615601e-01" purity="1.4925204217433929e-01" nType="0">
            <Node pos="l" depth="3" NCoef="0" IVar="-1" Cut="0.0000000000000000e+00" cType="1" res="-1.2567475438117981e-01" rms="3.0294823646545410e-01" purity="2.5219944119453430e-01" nType="-99"/>
            <Node pos="r" depth="3" NCoef="0" IVar="-1" Cut="0.0000000000000000e+00" cType="1" res="5.5268757045269012e-02" rms="2.3978593945503235e-01" purity="1.1107164621353149e-01" nType="-99"/>
          </Node>
          <Node pos="r" depth="2" NCoef="0" IVar="-1" Cut="0.0000000000000000e+00" cType="1" res="1.2623880803585052e-01" rms="3.3879849314689636e-01" purity="4.1509303450584412e-01" nType="-99"/>
        </Node>
        <Node pos="r" depth="1" NCoef="0" IVar="3" Cut="3.3327043056488037e-01" cType="1" res="0.0000000000000000e+00" rms="0.0000000000000000e+00" purity="8.1125986576080322e-01" nType="0">
          <Node pos="l" depth="2" NCoef="0" IVar="2" Cut="4.3209522962570190e-01" cType="1" res="0.0000000000000000e+00" rms="0.0000000000000000e+00" purity="8.6036378145217896e-01" nType="0">
            <Node pos="l" depth="3" NCoef="0" IVar="-1" Cut="0.0000000000000000e+00" cType="1" res="-4.8621665686368942e-02" rms="3.0060368776321411e-01" purity="7.1476179361343384e-01" nType="-99"/>
            <Node pos="r" depth="3" NCoef="0" IVar="-1" Cut="0.0000000000000000e+00" cType="1" res="5.3838141262531281e-02" rms="2.0889927446842194e-01" purity="9.3740355968475342e-01" nType="-99"/>
          </Node>
          <Node pos="r" depth="2" NCoef="0" IVar="3" Cut="4.9196866154670715e-01" cType="1" res="-4.4905971735715866e-03" rms="3.0072757601737976e-01" purity="7.7486699819564819e-01" nType="0">
            <Node pos="l" depth="3" NCoef="0" IVar="-1" Cut="0.0000000000000000e+00" cType="1" res="-1.1613199114799500e-01" rms="2.6419356465339661e-01" purity="8.2580041885375977e-01" nType="-99"/>
            <Node pos="r" depth="3" NCoef="0" IVar="-1" Cut="0.0000000000000000e+00" cType="1" res="2.4452062789350748e-03" rms="3.1777825951576233e-01" purity="7.4866485595703125e-01" nType="-99"/>
          </Node>
        </Node>
      </Node>
    </BinaryTree>
    <BinaryTree type="DecisionTree" boostWeight="1.0000000000000000e+00" itree="26">
      <Node pos="s" depth="0" NCoef="0" IVar="0" Cut="6.3218510150909424e-01" cType="1" res="-8.4680941654369235e-05" rms="2.7455937862396240e-01" purity="5.0000000000000000e-01" nType="0">
        <Node pos="l" depth="1" NCoef="0" IVar="2" Cut="3.5522559285163879e-01" cType="1" res="0.0000000000000000e+00" rms="0.0000000000000000e+00" purity="2.3593351244926453e-01" nType="0">
          <Node pos="l" depth="2" NCoef="0" IVar="6" Cut="3.0425471067428589e-01" cType="1" res="-1.3158506480976939e-03" rms="2.4645289778709412e-01" purity="1.0176179558038712e-01" nType="0">
            <Node pos="l" depth="3" NCoef="0" IVar="-1" Cut="0.0000000000000000e+00" cType="1" res="-3.0310276895761490e-02" rms="2.2002242505550385e-01" purity="7.1818992495536804e-02" nType="-99"/>
            <Node pos="r" depth="3" NCoef="0" IVar="-1" Cut="0.0000000000000000e+00" cType="1" res="2.5577208027243614e-02" rms="3.1870627403259277e-01" purity="2.0105990767478943e-01" nType="-99"/>
          </Node>
          <Node pos="r" depth="2" NCoef="0" IVar="6" Cut="3.5201936960220337e-01" cType="1" res="1.2411376461386681e-02" rms="3.7417608499526978e-01" purity="6.7517155408859253e-01" nType="0">
            <Node pos="l" depth="3" NCoef="0" IVar="-1" Cut="0.0000000000000000e+00" cType="1" res="8.6560435593128204e-02" rms="4.0453135967254639e-01" purity="6.1310678720474243e-01" nType="-99"/>
            <Node pos="r" depth="3" NCoef="0" IVar="-1" Cut="0.0000000000000000e+00" cType="1" res="-1.8476961180567741e-02" rms="3.3458176255226135e-01" purity="7.4755048751831055e-01" nType="-99"/>
          </Node>
        </Node>
        <Node pos="r" depth="1" NCoef="0" IVar="1" Cut="2.2776596248149872e-01" cType="1" res="0.0000000000000000e+00" rms="0.0000000000000000e+00" purity="8.1631278991699219e-01" nType="0">
          <Node pos="l" depth="2" NCoef="0" IVar="-1" Cut="0.0000000000000000e+00" cType="1" res="6.3519857823848724e-02" rms="3.4288182854652405e-01" purity="6.1170703172683716e-01" nType="-99"/>
          <Node pos="r" depth="2" NCoef="0" IVar="1" Cut="7.4233496189117432e-01" cType="1" res="0.0000000000000000e+00" rms="0.0000000000000000e+00" purity="8.5681480169296265e-01" nType="0">
            <Node pos="l" depth="3" NCoef="0" IVar="-1" Cut="0.0000000000000000e+00" cType="1" res="-8.7855704128742218e-02" rms="3.2444804906845093e-01" purity="6.9281148910522461e-01" nType="-99"/>
            <Node pos="r" depth="3" NCoef="0" IVar="-1" Cut="0.0000000000000000e+00" cType="1" res="-3.8146823644638062e-03" rms="1.9415307044982910e-01" purity="9.4458425045013428e-01" nType="-99"/>
          </Node>
        </Node>
      </Node>
    </BinaryTree>
    <BinaryTree type="DecisionTree" boostWeight="1.0000000000000000e+00" itree="27">
      <Node pos="s" depth="0" NCoef="0" IVar="2" Cut="4.4622620940208435e-01" cType="1" res="-1.7721949916449375e-05" rms="2.7431517839431763e-01" purity="5.0000000000000000e-01" nType="0">
        <Node pos="l" depth="1" NCoef="0" IVar="5" Cut="5.7141697406768799e-01" cType="1" res="0.0000000000000000e+00" rms="0.0000000000000000e+00" purity="3.8175824284553528e-01" nType="0">
          <Node pos="l" depth="2" NCoef="0" IVar="2" Cut="2.5526022911071777e-01" cType="1" res="0.0000000000000000e+00" rms="0.0000000000000000e+00" purity="4.2060548067092896e-01" nType="0">
            <Node pos="l" depth="3" NCoef="0" IVar="-1" Cut="0.0000000000000000e+00" cType="1" res="3.7797622382640839e-02" rms="2.8651884198188782e-01" purity="1.9536142051219940e-01" nType="-99"/>
            <Node pos="r" depth="3" NCoef="0" IVar="-1" Cut="0.0000000000000000e+00" cType="1" res="-4.4735036790370941e-02" rms="3.1270509958267212e-01" purity="6.8783140182495117e-01" nType="-99"/>
          </Node>
          <Node pos="r" depth="2" NCoef="0" IVar="1" Cut="9.0779393911361694e-01" cType="1" res="0.0000000000000000e+00" rms="0.0000000000000000e+00" purity="3.3752217888832092e-01" nType="0">
            <Node pos="l" depth="3" NCoef="0" IVar="-1" Cut="0.0000000000000000e+00" cType="1" res="4.2522501200437546e-02" rms="2.6819968223571777e-01" purity="2.2740761935710907e-01" nType="-99"/>
            <Node pos="r" depth="3" NCoef="0" IVar="-1" Cut="0.0000000000000000e+00" cType="1" res="8.1512065662536770e-05" rms="2.6619529724121094e-01" purity="8.6414033174514771e-01" nType="-99"/>
          </Node>
        </Node>
        <Node pos="r" depth="1" NCoef="0" IVar="1" Cut="5.9167879819869995e-01" cType="1" res="-7.2299810126423836e-03" rms="2.3316125571727753e-01" purity="9.1967582702636719e-01" nType="0">
          <Node pos="l" depth="2" NCoef="0" IVar="-1" Cut="0.0000000000000000e+00" cType="1" res="-9.0283513069152832e-02" rms="3.3689001202583313e-01" purity="8.1980323791503906e-01" nType="-99"/>
          <Node pos="r" depth="2" NCoef="0" IVar="6" Cut="3.5319787263870239e-01" cType="1" res="-1.6770410584285855e-03" rms="1.4571383595466614e-01" purity="9.7549027204513550e-01" nType="0">
            <Node pos="l" depth="3" NCoef="0" IVar="-1" Cut="0.0000000000000000e+00" cType="1" res="-9.0433493256568909e-02" rms="1.9180445373058319e-01" purity="9.5623332262039185e-01" nType="-99"/>
            <Node pos="r" depth="3" NCoef="0" IVar="-1" Cut="0.0000000000000000e+00" cType="1" res="7.3236159980297089e-02" rms="9.2085473239421844e-02" purity="9.9125397205352783e-01" nType="-99"/>
          </Node>
        </Node>
      </Node>
    </BinaryTree>
    <BinaryTree type="DecisionTree" boostWeight="1.0000000000000000e+00" itree="28">
      <Node pos="s" depth="0" NCoef="0" IVar="2" Cut="2.9770800471305847e-01" cType="1" res="2.1425650629680604e-04" rms="2.7422899007797241e-01" purity="5.0000000000000000e-01" nType="0">
        <Node pos="l" depth="1" NCoef="0" IVar="2" Cut="9.9680535495281219e-02" cType="1" res="0.0000000000000000e+00" rms="0.0000000000000000e+00" purity="1.8777593970298767e-01" nType="0">
          <Node pos="l" depth="2" NCoef="0" IVar="0" Cut="3.1926682591438293e-01" cType="1" res="-1.0554760694503784e-02" rms="1.9138647615909576e-01" purity="6.1441469937562943e-02" nType="0">
            <Node pos="l" depth="3" NCoef="0" IVar="-1" Cut="0.0000000000000000e+00" cType="1" res="-5.9183590114116669e-02" rms="1.3910795748233795e-01" purity="2.2105753421783447e-02" nType="-99"/>
            <Node pos="r" depth="3" NCoef="0" IVar="-1" Cut="0.0000000000000000e+00" cType="1" res="-1.4632037281990051e-01" rms="2.3826460540294647e-01" purity="1.0764289647340775e-01" nType="-99"/>
          </Node>
          <Node pos="r" depth="2" NCoef="0" IVar="6" Cut="3.6027511954307556e-01" cType="1" res="1.8281374359503388e-03" rms="2.9333141446113586e-01" purity="2.3172125220298767e-01" nType="0">
            <Node pos="l" depth="3" NCoef="0" IVar="-1" Cut="0.0000000000000000e+00" cType="1" res="-1.9008278846740723e-02" rms="2.8057241439819336e-01" purity="1.8677899241447449e-01" nType="-99"/>
            <Node pos="r" depth="3" NCoef="0" IVar="-1" Cut="0.0000000000000000e+00" cType="1" res="1.0509751737117767e-01" rms="3.4205767512321472e-01" purity="4.2502027750015259e-01" nType="-99"/>
          </Node>
        </Node>
        <Node pos="r" depth="1" NCoef="0" IVar="0" Cut="2.1889184415340424e-01" cType="1" res="1.7912329640239477e-03" rms="2.7761909365653992e-01" purity="8.1125986576080322e-01" nType="0">
          <Node pos="l" depth="2" NCoef="0" IVar="-1" Cut="0.0000000000000000e+00" cType="1" res="4.3958660215139389e-02" rms="3.7576329708099365e-01" purity="4.3821546435356140e-01" nType="-99"/>
          <Node pos="r" depth="2" NCoef="0" IVar="6" Cut="2.3655879497528076e-01" cType="1" res="2.0047875295858830e-05" rms="2.5758951902389526e-01" purity="8.7349480390548706e-01" nType="0">
            <Node pos="l" depth="3" NCoef="0" IVar="-1" Cut="0.0000000000000000e+00" cType="1" res="-4.4914364814758301e-02" rms="3.5072493553161621e-01" purity="7.4556422233581543e-01" nType="-99"/>
            <Node pos="r" depth="3" NCoef="0" IVar="-1" Cut="0.0000000000000000e+00" cType="1" res="1.7080726101994514e-02" rms="2.3582935333251953e-01" purity="8.9769476652145386e-01" nType="-99"/>
          </Node>
        </Node>
      </Node>
    </BinaryTree>
    <BinaryTree type="DecisionTree" boostWeight="1.0000000000000000e+00" itree="29">
      <Node pos="s" depth="0" NCoef="0" IVar="5" Cut="7.6189738512039185e-01" cType="1" res="0.0000000000000000e+00" rms="0.0000000000000000e+00" purity="5.0000000000000000e-01" nType="0">
        <Node pos="l" depth="1" NCoef="0" IVar="3" Cut="6.6667032241821289e-01" cType="1" res="1.9879513420164585e-03" rms="2.7736002206802368e-01" purity="5.0430124998092651e-01" nType="0">
          <Node pos="l" depth="2" NCoef="0" IVar="4" Cut="3.3334094285964966e-01" cType="1" res="0.0000000000000000e+00" rms="0.0000000000000000e+00" purity="7.8016573190689087e-01" nType="0">
            <Node pos="l" depth="3" NCoef="0" IVar="-1" Cut="0.0000000000000000e+00" cType="1" res="-3.2890390604734421e-02" rms="2.5803819298744202e-01" purity="8.1144392490386963e-01" nType="-99"/>
            <Node pos="r" depth="3" NCoef="0" IVar="-1" Cut="0.0000000000000000e+00" cType="1" res="-1.6997834900394082e-03" rms="2.7357381582260132e-01" purity="7.6655286550521851e-01" nType="-99"/>
          </Node>
          <Node pos="r" depth="2" NCoef="0" IVar="0" Cut="5.4136627912521362e-01" cType="1" res="4.9165063537657261e-03" rms="2.8431627154350281e-01" purity="2.6821386814117432e-01" nType="0">
            <Node pos="l" depth="3" NCoef="0" IVar="-1" Cut="0.0000000000000000e+00" cType="1" res="1.6384296119213104e-02" rms="2.4676948785781860e-01" purity="1.0747820138931274e-01" nType="-99"/>
            <Node pos="r" depth="3" NCoef="0" IVar="-1" Cut="0.0000000000000000e+00" cType="1" res="4.8496399074792862e-02" rms="3.3898100256919861e-01" purity="5.4317998886108398e-01" nType="-99"/>
          </Node>
        </Node>
        <Node pos="r" depth="1" NCoef="0" IVar="2" Cut="2.7418836951255798e-01" cType="1" res="-6.8182637915015221e-03" rms="2.6351135969161987e-01" purity="4.8693281412124634e-01" nType="0">
          <Node pos="l" depth="2" NCoef="0" IVar="-1" Cut="0.0000000000000000e+00" cType="1" res="-1.1875598132610321e-01" rms="2.2574414312839508e-01" purity="1.0549484938383102e-01" nType="-99"/>
          <Node pos="r" depth="2" NCoef="0" IVar="6" Cut="3.5319787263870239e-01" cType="1" res="0.0000000000000000e+00" rms="0.0000000000000000e+00" purity="7.5224006175994873e-01" nType="0">
            <Node pos="l" depth="3" NCoef="0" IVar="-1" Cut="0.0000000000000000e+00" cType="1" res="-2.6995245367288589e-02" rms="3.2612535357475281e-01" purity="6.7779260873794556e-01" nType="-99"/>
            <Node pos="r" depth="3" NCoef="0" IVar="-1" Cut="0.0000000000000000e+00" cType="1" res="7.4014691635966301e-03" rms="2.4371607601642609e-01" purity="8.2266730070114136e-01" nType="-99"/>
          </Node>
        </Node>
      </Node>
    </BinaryTree>
    <BinaryTree type="DecisionTree" boostWeight="1.0000000000000000e+00" itree="30">
      <Node pos="s" depth="0" NCoef="0" IVar="4" Cut="4.7619354724884033e-01" cType="1" res="0.0000000000000000e+00" rms="0.0000000000000000e+00" purity="5.0000000000000000e-01" nType="0">
        <Node pos="l" depth="1" NCoef="0" IVar="1" Cut="6.3698416948318481e-01" cType="1" res="1.9894505385309458e-03" rms="2.7835375070571899e-01" purity="5.9453547000885010e-01" nType="0">
          <Node pos="l" depth="2" NCoef="0" IVar="5" Cut="4.7619396448135376e-01" cType="1" res="0.0000000000000000e+00" rms="0.0000000000000000e+00" purity="3.6945164203643799e-01" nType="0">
            <Node pos="l" depth="3" NCoef="0" IVar="-1" Cut="0.0000000000000000e+00" cType="1" res="3.7511590868234634e-02" rms="3.3060067892074585e-01" purity="4.1040992736816406e-01" nType="-99"/>
            <Node pos="r" depth="3" NCoef="0" IVar="-1" Cut="0.0000000000000000e+00" cType="1" res="1.4788151718676090e-02" rms="2.8596156835556030e-01" purity="3.3796027302742004e-01" nType="-99"/>
          </Node>
          <Node pos="r" depth="2" NCoef="0" IVar="6" Cut="3.6047142744064331e-01" cType="1" res="0.0000000000000000e+00" rms="0.0000000000000000e+00" purity="8.5981613397598267e-01" nType="0">
            <Node pos="l" depth="3" NCoef="0" IVar="-1" Cut="0.0000000000000000e+00" cType="1" res="-5.0053703598678112e-03" rms="2.8008615970611572e-01" purity="7.8779828548431396e-01" nType="-99"/>
            <Node pos="r" depth="3" NCoef="0" IVar="-1" Cut="0.0000000000000000e+00" cType="1" res="-3.0229048803448677e-02" rms="1.9219906628131866e-01" purity="9.3610352277755737e-01" nType="-99"/>
          </Node>
        </Node>
        <Node pos="r" depth="1" NCoef="0" IVar="2" Cut="3.5487285256385803e-01" cType="1" res="-1.4026381541043520e-03" rms="2.7099785208702087e-01" purity="4.4097957015037537e-01" nType="0">
          <Node pos="l" depth="2" NCoef="0" IVar="0" Cut="7.7046453952789307e-01" cType="1" res="-4.1064643301069736e-03" rms="2.7036589384078979e-01" purity="2.0719423890113831e-01" nType="0">
            <Node pos="l" depth="3" NCoef="0" IVar="-1" Cut="0.0000000000000000e+00" cType="1" res="-1.0761787183582783e-02" rms="2.4143168330192566e-01" purity="9.9667280912399292e-02" nType="-99"/>
            <Node pos="r" depth="3" NCoef="0" IVar="-1" Cut="0.0000000000000000e+00" cType="1" res="-6.3560858368873596e-02" rms="3.6119753122329712e-01" purity="6.2483948469161987e-01" nType="-99"/>
          </Node>
          <Node pos="r" depth="2" NCoef="0" IVar="1" Cut="3.1969323754310608e-01" cType="1" res="3.3249994739890099e-03" rms="2.7203470468521118e-01" purity="8.4975290298461914e-01" nType="0">
            <Node pos="l" depth="3" NCoef="0" IVar="-1" Cut="0.0000000000000000e+00" cType="1" res="-7.4698738753795624e-03" rms="3.7552329897880554e-01" purity="6.5981703996658325e-01" nType="-99"/>
            <Node pos="r" depth="3" NCoef="0" IVar="-1" Cut="0.0000000000000000e+00" cType="1" res="4.9454499036073685e-02" rms="2.3014891147613525e-01" purity="9.0933644771575928e-01" nType="-99"/>
          </Node>
        </Node>
      </Node>
    </BinaryTree>
    <BinaryTree type="DecisionTree" boostWeight="1.0000000000000000e+00" itree="31">
      <Node pos="s" depth="0" NCoef="0" IVar="6" Cut="1.2019890546798706e-01" cType="1" res="0.0000000000000000e+00" rms="0.0000000000000000e+00" purity="5.0000000000000000e-01" nType="0">
        <Node pos="l" depth="1" NCoef="0" IVar="1" Cut="2.3043151199817657e-01" cType="1" res="0.0000000000000000e+00" rms="0.0000000000000000e+00" purity="1.4846125245094299e-01" nType="0">
          <Node pos="l" depth="2" NCoef="0" IVar="-1" Cut="0.0000000000000000e+00" cType="1" res="-1.8776819109916687e-02" rms="1.9578059017658234e-01" purity="6.8710267543792725e-02" nType="-99"/>
          <Node pos="r" depth="2" NCoef="0" IVar="-1" Cut="0.0000000000000000e+00" cType="1" res="-5.6952580809593201e-02" rms="2.6665207743644714e-01" purity="1.9224998354911804e-01" nType="-99"/>
        </Node>
        <Node pos="r" depth="1" NCoef="0" IVar="6" Cut="2.3416180908679962e-01" cType="1" res="1.0267072357237339e-03" rms="2.7901309728622437e-01" purity="5.6657558679580688e-01" nType="0">
          <Node pos="l" depth="2" NCoef="0" IVar="0" Cut="2.2062660753726959e-01" cType="1" res="4.8211072571575642e-03" rms="2.8870227932929993e-01" purity="2.9149791598320007e-01" nType="0">
            <Node pos="l" depth="3" NCoef="0" IVar="-1" Cut="0.0000000000000000e+00" cType="1" res="2.5319096166640520e-03" rms="2.2753734886646271e-01" purity="9.9330805242061615e-02" nType="-99"/>
            <Node pos="r" depth="3" NCoef="0" IVar="-1" Cut="0.0000000000000000e+00" cType="1" res="4.0312804281711578e-02" rms="3.1625196337699890e-01" purity="3.9302846789360046e-01" nType="-99"/>
          </Node>
          <Node pos="r" depth="2" NCoef="0" IVar="5" Cut="7.1427941322326660e-01" cType="1" res="0.0000000000000000e+00" rms="0.0000000000000000e+00" purity="6.7459303140640259e-01" nType="0">
            <Node pos="l" depth="3" NCoef="0" IVar="-1" Cut="0.0000000000000000e+00" cType="1" res="5.0235968083143234e-03" rms="2.7928635478019714e-01" purity="6.9709849357604980e-01" nType="-99"/>
            <Node pos="r" depth="3" NCoef="0" IVar="-1" Cut="0.0000000000000000e+00" cType="1" res="-2.1596597507596016e-02" rms="2.6593703031539917e-01" purity="6.2660300731658936e-01" nType="-99"/>
          </Node>
        </Node>
      </Node>
    </BinaryTree>
    <BinaryTree type="DecisionTree" boostWeight="1.0000000000000000e+00" itree="32">
      <Node pos="s" depth="0" NCoef="0" IVar="3" Cut="1.4286734163761139e-01" cType="1" res="0.0000000000000000e+00" rms="0.0000000000000000e+00" purity="5.0000000000000000e-01" nType="0">
        <Node pos="l" depth="1" NCoef="0" IVar="-1" Cut="0.0000000000000000e+00" cType="1" res="-5.5144000798463821e-02" rms="2.5102153420448303e-01" purity="8.2594197988510132e-01" nType="-99"/>
        <Node pos="r" depth="1" NCoef="0" IVar="4" Cut="6.6666370630264282e-01" cType="1" res="6.7134835990145802e-04" rms="2.7604168653488159e-01" purity="4.6405473351478577e-01" nType="0">
          <Node pos="l" depth="2" NCoef="0" IVar="0" Cut="3.5860264301300049e-01" cType="1" res="-1.1974583612754941e-03" rms="2.8165987133979797e-01" purity="5.3537756204605103e-01" nType="0">
            <Node pos="l" depth="3" NCoef="0" IVar="-1" Cut="0.0000000000000000e+00" cType="1" res="3.0332054942846298e-02" rms="2.7707532048225403e-01" purity="1.8747496604919434e-01" nType="-99"/>
            <Node pos="r" depth="3" NCoef="0" IVar="-1" Cut="0.0000000000000000e+00" cType="1" res="-3.1146436929702759e-02" rms="2.8414943814277649e-01" purity="7.3102241754531860e-01" nType="-99"/>
          </Node>
          <Node pos="r" depth="2" NCoef="0" IVar="0" Cut="3.5665625333786011e-01" cType="1" res="3.0489021446555853e-03" rms="2.6870554685592651e-01" purity="3.7331560254096985e-01" nType="0">
            <Node pos="l" depth="3" NCoef="0" IVar="-1" Cut="0.0000000000000000e+00" cType="1" res="-2.4990221485495567e-02" rms="2.4523468315601349e-01" purity="1.3520205020904541e-01" nType="-99"/>
            <Node pos="r" depth="3" NCoef="0" IVar="-1" Cut="0.0000000000000000e+00" cType="1" res="5.0055474042892456e-02" rms="2.8524959087371826e-01" purity="5.5521810054779053e-01" nType="-99"/>
          </Node>
        </Node>
      </Node>
    </BinaryTree>
    <BinaryTree type="DecisionTree" boostWeight="1.0000000000000000e+00" itree="33">
      <Node pos="s" depth="0" NCoef="0" IVar="0" Cut="9.5363545417785645e-01" cType="1" res="4.6454013499896973e-05" rms="2.7356046438217163e-01" purity="5.0000000000000000e-01" nType="0">
        <Node pos="l" depth="1" NCoef="0" IVar="1" Cut="2.6620292663574219e-01" cType="1" res="-8.2477799151092768e-04" rms="2.8399655222892761e-01" purity="3.9340591430664062e-01" nType="0">
          <Node pos="l" depth="2" NCoef="0" IVar="2" Cut="1.8988336622714996e-01" cType="1" res="0.0000000000000000e+00" rms="0.0000000000000000e+00" purity="1.7832991480827332e-01" nType="0">
            <Node pos="l" depth="3" NCoef="0" IVar="-1" Cut="0.0000000000000000e+00" cType="1" res="-1.5622776933014393e-02" rms="1.6144236922264099e-01" purity="2.9120342805981636e-02" nType="-99"/>
            <Node pos="r" depth="3" NCoef="0" IVar="-1" Cut="0.0000000000000000e+00" cType="1" res="-2.4683374911546707e-02" rms="3.4486079216003418e-01" purity="3.0758571624755859e-01" nType="-99"/>
          </Node>
          <Node pos="r" depth="2" NCoef="0" IVar="4" Cut="5.7143992185592651e-01" cType="1" res="0.0000000000000000e+00" rms="0.0000000000000000e+00" purity="5.0817334651947021e-01" nType="0">
            <Node pos="l" depth="3" NCoef="0" IVar="-1" Cut="0.0000000000000000e+00" cType="1" res="2.6030590757727623e-02" rms="2.9475218057632446e-01" purity="5.9217923879623413e-01" nType="-99"/>
            <Node pos="r" depth="3" NCoef="0" IVar="-1" Cut="0.0000000000000000e+00" cType="1" res="-1.6845438629388809e-02" rms="2.8284481167793274e-01" purity="4.3468490242958069e-01" nType="-99"/>
          </Node>
        </Node>
        <Node pos="r" depth="1" NCoef="0" IVar="5" Cut="2.8571307659149170e-01" cType="1" res="0.0000000000000000e+00" rms="0.0000000000000000e+00" purity="9.1922968626022339e-01" nType="0">
          <Node pos="l" depth="2" NCoef="0" IVar="-1" Cut="0.0000000000000000e+00" cType="1" res="-8.2045629620552063e-02" rms="2.2876973450183868e-01" purity="9.3008917570114136e-01" nType="-99"/>
          <Node pos="r" depth="2" NCoef="0" IVar="3" Cut="4.7622066736221313e-01" cType="1" res="0.0000000000000000e+00" rms="0.0000000000000000e+00" purity="9.1506278514862061e-01" nType="0">
            <Node pos="l" depth="3" NCoef="0" IVar="-1" Cut="0.0000000000000000e+00" cType="1" res="7.3595985770225525e-02" rms="1.5891231596469879e-01" purity="9.6861505508422852e-01" nType="-99"/>
            <Node pos="r" depth="3" NCoef="0" IVar="-1" Cut="0.0000000000000000e+00" cType="1" res="7.4660845100879669e-02" rms="2.8508949279785156e-01" purity="8.5521543025970459e-01" nType="-99"/>
          </Node>
        </Node>
      </Node>
    </BinaryTree>
    <BinaryTree type="DecisionTree" boostWeight="1.0000000000000000e+00" itree="34">
      <Node pos="s" depth="0" NCoef="0" IVar="1" Cut="1.2868605554103851e-01" cType="1" res="0.0000000000000000e+00" rms="0.0000000000000000e+00" purity="5.0000000000000000e-01" nType="0">
        <Node pos="l" depth="1" NCoef="0" IVar="-1" Cut="0.0000000000000000e+00" cType="1" res="3.6795072257518768e-02" rms="2.8887322545051575e-01" purity="2.7153545618057251e-01" nType="-99"/>
        <Node pos="r" depth="1" NCoef="0" IVar="4" Cut="9.0475142002105713e-01" cType="1" res="0.0000000000000000e+00" rms="0.0000000000000000e+00" purity="5.1753723621368408e-01" nType="0">
          <Node pos="l" depth="2" NCoef="0" IVar="2" Cut="1.4918981492519379e-01" cType="1" res="8.0913159763440490e-05" rms="2.7265235781669617e-01" purity="5.4031527042388916e-01" nType="0">
            <Node pos="l" depth="3" NCoef="0" IVar="-1" Cut="0.0000000000000000e+00" cType="1" res="4.0314935147762299e-02" rms="2.2501792013645172e-01" purity="9.6803277730941772e-02" nType="-99"/>
            <Node pos="r" depth="3" NCoef="0" IVar="-1" Cut="0.0000000000000000e+00" cType="1" res="-6.5697408281266689e-03" rms="2.8439947962760925e-01" purity="6.6284316778182983e-01" nType="-99"/>
          </Node>
          <Node pos="r" depth="2" NCoef="0" IVar="0" Cut="5.8621454238891602e-01" cType="1" res="-3.9047729223966599e-03" rms="2.6967921853065491e-01" purity="3.8282003998756409e-01" nType="0">
            <Node pos="l" depth="3" NCoef="0" IVar="-1" Cut="0.0000000000000000e+00" cType="1" res="-2.7488055638968945e-03" rms="2.6189869642257690e-01" purity="1.7441658675670624e-01" nType="-99"/>
            <Node pos="r" depth="3" NCoef="0" IVar="-1" Cut="0.0000000000000000e+00" cType="1" res="-6.1361558735370636e-02" rms="2.8075242042541504e-01" purity="6.9225811958312988e-01" nType="-99"/>
          </Node>
        </Node>
      </Node>
    </BinaryTree>
    <BinaryTree type="DecisionTree" boostWeight="1.0000000000000000e+00" itree="35">
