<?xml version="1.0"?>
<MethodSetup Method="BDT::BDT">
  <GeneralInfo>
    <Info name="TMVA Release" value="4.2.1 [262657]"/>
    <Info name="ROOT Release" value="6.06/01 [394753]"/>
    <Info name="Creator" value="rateixei"/>
    <Info name="Date" value="Wed Mar 29 16:48:45 2017"/>
    <Info name="Host" value="Linux vocms0301.cern.ch 2.6.32-642.11.1.el6.x86_64 #1 SMP Wed Nov 16 09:40:09 CET 2016 x86_64 x86_64 x86_64 GNU/Linux"/>
    <Info name="Dir" value="/afs/cern.ch/work/r/rateixei/work/DiHiggs/bbggTools_flashgg_tag-Moriond17-v10/CMSSW_8_0_26_patch1/src/flashgg/bbggTools/NonResMVA"/>
    <Info name="Training events" value="108751"/>
    <Info name="TrainingTime" value="2.39049250e+02"/>
    <Info name="AnalysisType" value="Classification"/>
  </GeneralInfo>
  <Options>
    <Option name="V" modified="No">False</Option>
    <Option name="VerbosityLevel" modified="No">Default</Option>
    <Option name="VarTransform" modified="No">None</Option>
    <Option name="H" modified="No">False</Option>
    <Option name="CreateMVAPdfs" modified="No">False</Option>
    <Option name="IgnoreNegWeightsInTraining" modified="No">False</Option>
    <Option name="NTrees" modified="Yes">1000</Option>
    <Option name="MaxDepth" modified="Yes">3</Option>
    <Option name="MinNodeSize" modified="Yes">3</Option>
    <Option name="nCuts" modified="No">20</Option>
    <Option name="BoostType" modified="Yes">Grad</Option>
    <Option name="AdaBoostR2Loss" modified="No">quadratic</Option>
    <Option name="UseBaggedBoost" modified="No">False</Option>
    <Option name="Shrinkage" modified="Yes">1.625000e-01</Option>
    <Option name="AdaBoostBeta" modified="No">5.000000e-01</Option>
    <Option name="UseRandomisedTrees" modified="Yes">True</Option>
    <Option name="UseNvars" modified="No">3</Option>
    <Option name="UsePoissonNvars" modified="No">True</Option>
    <Option name="BaggedSampleFraction" modified="No">6.000000e-01</Option>
    <Option name="UseYesNoLeaf" modified="No">True</Option>
    <Option name="NegWeightTreatment" modified="Yes">ignorenegweightsintraining</Option>
    <Option name="Css" modified="No">1.000000e+00</Option>
    <Option name="Cts_sb" modified="No">1.000000e+00</Option>
    <Option name="Ctb_ss" modified="No">1.000000e+00</Option>
    <Option name="Cbb" modified="No">1.000000e+00</Option>
    <Option name="NodePurityLimit" modified="No">5.000000e-01</Option>
    <Option name="SeparationType" modified="No">giniindex</Option>
    <Option name="DoBoostMonitor" modified="No">False</Option>
    <Option name="UseFisherCuts" modified="No">False</Option>
    <Option name="MinLinCorrForFisher" modified="No">8.000000e-01</Option>
    <Option name="UseExclusiveVars" modified="No">False</Option>
    <Option name="DoPreselection" modified="No">False</Option>
    <Option name="SigToBkgFraction" modified="No">1.000000e+00</Option>
    <Option name="PruneMethod" modified="No">nopruning</Option>
    <Option name="PruneStrength" modified="No">0.000000e+00</Option>
    <Option name="PruningValFraction" modified="No">5.000000e-01</Option>
    <Option name="nEventsMin" modified="No">0</Option>
    <Option name="UseBaggedGrad" modified="No">False</Option>
    <Option name="GradBaggingFraction" modified="No">6.000000e-01</Option>
    <Option name="UseNTrainEvents" modified="No">0</Option>
    <Option name="NNodesMax" modified="No">0</Option>
  </Options>
  <Variables NVar="7">
    <Variable VarIndex="0" Expression="leadingJet_bDis" Label="leadingJet_bDis" Title="leadingJet_bDis" Unit="" Internal="leadingJet_bDis" Type="F" Min="4.71069328e-02" Max="9.99603510e-01"/>
    <Variable VarIndex="1" Expression="subleadingJet_bDis" Label="subleadingJet_bDis" Title="subleadingJet_bDis" Unit="" Internal="subleadingJet_bDis" Type="F" Min="4.82615046e-02" Max="9.99628663e-01"/>
    <Variable VarIndex="2" Expression="diphotonCandidate.Pt()/(diHiggsCandidate.M())" Label="diphotonCandidate.Pt()/(diHiggsCandidate.M())" Title="diphotonCandidate.Pt()/(diHiggsCandidate.M())" Unit="" Internal="diphotonCandidate.Pt___D__diHiggsCandidate.M___" Type="F" Min="6.06319518e-04" Max="2.82518244e+00"/>
    <Variable VarIndex="3" Expression="fabs(CosThetaStar_CS)" Label="fabs(CosThetaStar_CS)" Title="fabs(CosThetaStar_CS)" Unit="" Internal="fabs_CosThetaStar_CS_" Type="F" Min="9.10307517e-06" Max="9.99997437e-01"/>
    <Variable VarIndex="4" Expression="fabs(CosTheta_bb)" Label="fabs(CosTheta_bb)" Title="fabs(CosTheta_bb)" Unit="" Internal="fabs_CosTheta_bb_" Type="F" Min="9.84125472e-06" Max="9.99998391e-01"/>
    <Variable VarIndex="5" Expression="fabs(CosTheta_gg)" Label="fabs(CosTheta_gg)" Title="fabs(CosTheta_gg)" Unit="" Internal="fabs_CosTheta_gg_" Type="F" Min="3.71509259e-06" Max="9.99999821e-01"/>
    <Variable VarIndex="6" Expression="dijetCandidate.Pt()/(diHiggsCandidate.M())" Label="dijetCandidate.Pt()/(diHiggsCandidate.M())" Title="dijetCandidate.Pt()/(diHiggsCandidate.M())" Unit="" Internal="dijetCandidate.Pt___D__diHiggsCandidate.M___" Type="F" Min="8.70329386e-05" Max="2.36311245e+00"/>
  </Variables>
  <Spectators NSpec="0"/>
  <Classes NClass="2">
    <Class Name="Signal" Index="0"/>
    <Class Name="Background" Index="1"/>
  </Classes>
  <Transformations NTransformations="0"/>
  <MVAPdfs/>
  <Weights NTrees="1000" AnalysisType="1">
    <BinaryTree type="DecisionTree" boostWeight="1.0000000000000000e+00" itree="0">
      <Node pos="s" depth="0" NCoef="0" IVar="0" Cut="6.8210464715957642e-01" cType="1" res="1.2745353038213451e-14" rms="5.0000000000000000e-01" purity="5.0000000000000000e-01" nType="0">
        <Node pos="l" depth="1" NCoef="0" IVar="1" Cut="8.6371904611587524e-01" cType="1" res="-2.6260909438133240e-01" rms="4.2548379302024841e-01" purity="2.3739090561866760e-01" nType="0">
          <Node pos="l" depth="2" NCoef="0" IVar="5" Cut="4.7619661688804626e-01" cType="1" res="0.0000000000000000e+00" rms="0.0000000000000000e+00" purity="1.7158904671669006e-01" nType="0">
            <Node pos="l" depth="3" NCoef="0" IVar="-1" Cut="0.0000000000000000e+00" cType="1" res="-7.9700604081153870e-02" rms="4.4327238202095032e-01" purity="2.6867857575416565e-01" nType="-99"/>
            <Node pos="r" depth="3" NCoef="0" IVar="-1" Cut="0.0000000000000000e+00" cType="1" res="-1.4675268530845642e-01" rms="3.1418231129646301e-01" purity="1.1104051768779755e-01" nType="-99"/>
          </Node>
          <Node pos="r" depth="2" NCoef="0" IVar="-1" Cut="0.0000000000000000e+00" cType="1" res="8.2348950207233429e-02" rms="3.9207193255424500e-01" purity="8.1028956174850464e-01" nType="-99"/>
        </Node>
        <Node pos="r" depth="1" NCoef="0" IVar="0" Cut="8.4842705726623535e-01" cType="1" res="3.5438767075538635e-01" rms="3.5271713137626648e-01" purity="8.5438770055770874e-01" nType="0">
          <Node pos="l" depth="2" NCoef="0" IVar="1" Cut="6.8660682439804077e-01" cType="1" res="1.3036976754665375e-01" rms="4.8270457983016968e-01" purity="6.3036978244781494e-01" nType="0">
            <Node pos="l" depth="3" NCoef="0" IVar="-1" Cut="0.0000000000000000e+00" cType="1" res="-1.8169559538364410e-02" rms="4.9665087461471558e-01" purity="4.4222548604011536e-01" nType="-99"/>
            <Node pos="r" depth="3" NCoef="0" IVar="-1" Cut="0.0000000000000000e+00" cType="1" res="9.8262242972850800e-02" rms="3.2329204678535461e-01" purity="8.8142138719558716e-01" nType="-99"/>
          </Node>
          <Node pos="r" depth="2" NCoef="0" IVar="1" Cut="5.9461390972137451e-01" cType="1" res="0.0000000000000000e+00" rms="0.0000000000000000e+00" purity="9.1939568519592285e-01" nType="0">
            <Node pos="l" depth="3" NCoef="0" IVar="-1" Cut="0.0000000000000000e+00" cType="1" res="8.8415808975696564e-02" rms="3.6944666504859924e-01" purity="8.3691120147705078e-01" nType="-99"/>
            <Node pos="r" depth="3" NCoef="0" IVar="-1" Cut="0.0000000000000000e+00" cType="1" res="1.1660811305046082e-01" rms="1.7346586287021637e-01" purity="9.6894520521163940e-01" nType="-99"/>
          </Node>
        </Node>
      </Node>
    </BinaryTree>
    <BinaryTree type="DecisionTree" boostWeight="1.0000000000000000e+00" itree="1">
      <Node pos="s" depth="0" NCoef="0" IVar="0" Cut="7.2746163606643677e-01" cType="1" res="9.6238683909177780e-03" rms="4.6197700500488281e-01" purity="5.0000000000000000e-01" nType="0">
        <Node pos="l" depth="1" NCoef="0" IVar="1" Cut="8.1841588020324707e-01" cType="1" res="-2.0457513630390167e-01" rms="4.1505801677703857e-01" purity="2.4777816236019135e-01" nType="0">
          <Node pos="l" depth="2" NCoef="0" IVar="1" Cut="5.6169390678405762e-01" cType="1" res="0.0000000000000000e+00" rms="0.0000000000000000e+00" purity="1.7056360840797424e-01" nType="0">
            <Node pos="l" depth="3" NCoef="0" IVar="-1" Cut="0.0000000000000000e+00" cType="1" res="-1.0936752706766129e-01" rms="3.5273745656013489e-01" purity="1.4886423945426941e-01" nType="-99"/>
            <Node pos="r" depth="3" NCoef="0" IVar="-1" Cut="0.0000000000000000e+00" cType="1" res="-4.6051848679780960e-02" rms="4.5676285028457642e-01" purity="3.0929246544837952e-01" nType="-99"/>
          </Node>
          <Node pos="r" depth="2" NCoef="0" IVar="5" Cut="5.2368956804275513e-01" cType="1" res="2.3921324312686920e-01" rms="4.1341608762741089e-01" purity="7.6534634828567505e-01" nType="0">
            <Node pos="l" depth="3" NCoef="0" IVar="-1" Cut="0.0000000000000000e+00" cType="1" res="8.2961782813072205e-02" rms="3.5518684983253479e-01" purity="8.4540987014770508e-01" nType="-99"/>
            <Node pos="r" depth="3" NCoef="0" IVar="-1" Cut="0.0000000000000000e+00" cType="1" res="3.8832385092973709e-02" rms="4.6212396025657654e-01" purity="6.5573251247406006e-01" nType="-99"/>
          </Node>
        </Node>
        <Node pos="r" depth="1" NCoef="0" IVar="2" Cut="1.3591918349266052e-01" cType="1" res="0.0000000000000000e+00" rms="0.0000000000000000e+00" purity="8.6886119842529297e-01" nType="0">
          <Node pos="l" depth="2" NCoef="0" IVar="0" Cut="8.9591431617736816e-01" cType="1" res="1.9914819300174713e-01" rms="4.2553371191024780e-01" purity="7.4180591106414795e-01" nType="0">
            <Node pos="l" depth="3" NCoef="0" IVar="-1" Cut="0.0000000000000000e+00" cType="1" res="-8.8807614520192146e-03" rms="4.8589393496513367e-01" purity="4.9542030692100525e-01" nType="-99"/>
            <Node pos="r" depth="3" NCoef="0" IVar="-1" Cut="0.0000000000000000e+00" cType="1" res="8.4463268518447876e-02" rms="3.2759895920753479e-01" purity="8.7611818313598633e-01" nType="-99"/>
          </Node>
          <Node pos="r" depth="2" NCoef="0" IVar="2" Cut="2.6400619745254517e-01" cType="1" res="0.0000000000000000e+00" rms="0.0000000000000000e+00" purity="9.0393143892288208e-01" nType="0">
            <Node pos="l" depth="3" NCoef="0" IVar="-1" Cut="0.0000000000000000e+00" cType="1" res="8.1562668085098267e-02" rms="3.4265732765197754e-01" purity="8.5589849948883057e-01" nType="-99"/>
            <Node pos="r" depth="3" NCoef="0" IVar="-1" Cut="0.0000000000000000e+00" cType="1" res="1.0079500824213028e-01" rms="2.2322537004947662e-01" purity="9.4510114192962646e-01" nType="-99"/>
          </Node>
        </Node>
      </Node>
    </BinaryTree>
    <BinaryTree type="DecisionTree" boostWeight="1.0000000000000000e+00" itree="2">
      <Node pos="s" depth="0" NCoef="0" IVar="3" Cut="7.6190495491027832e-01" cType="1" res="0.0000000000000000e+00" rms="0.0000000000000000e+00" purity="5.0000000000000000e-01" nType="0">
        <Node pos="l" depth="1" NCoef="0" IVar="2" Cut="2.7024894952774048e-01" cType="1" res="0.0000000000000000e+00" rms="0.0000000000000000e+00" purity="5.8738154172897339e-01" nType="0">
          <Node pos="l" depth="2" NCoef="0" IVar="2" Cut="1.5498422086238861e-01" cType="1" res="0.0000000000000000e+00" rms="0.0000000000000000e+00" purity="4.6803873777389526e-01" nType="0">
            <Node pos="l" depth="3" NCoef="0" IVar="-1" Cut="0.0000000000000000e+00" cType="1" res="-2.7890117838978767e-02" rms="4.2039459943771362e-01" purity="3.8176944851875305e-01" nType="-99"/>
            <Node pos="r" depth="3" NCoef="0" IVar="-1" Cut="0.0000000000000000e+00" cType="1" res="1.1484156362712383e-02" rms="4.3339291214942932e-01" purity="5.2739655971527100e-01" nType="-99"/>
          </Node>
          <Node pos="r" depth="2" NCoef="0" IVar="6" Cut="3.3944797515869141e-01" cType="1" res="0.0000000000000000e+00" rms="0.0000000000000000e+00" purity="7.7485811710357666e-01" nType="0">
            <Node pos="l" depth="3" NCoef="0" IVar="-1" Cut="0.0000000000000000e+00" cType="1" res="6.6794961690902710e-02" rms="3.7662491202354431e-01" purity="7.6102161407470703e-01" nType="-99"/>
            <Node pos="r" depth="3" NCoef="0" IVar="-1" Cut="0.0000000000000000e+00" cType="1" res="8.0496668815612793e-02" rms="3.1806507706642151e-01" purity="8.4436589479446411e-01" nType="-99"/>
          </Node>
        </Node>
        <Node pos="r" depth="1" NCoef="0" IVar="0" Cut="8.1822580099105835e-01" cType="1" res="-1.1456964164972305e-01" rms="4.1339173913002014e-01" purity="3.4332039952278137e-01" nType="0">
          <Node pos="l" depth="2" NCoef="0" IVar="4" Cut="5.2384233474731445e-01" cType="1" res="0.0000000000000000e+00" rms="0.0000000000000000e+00" purity="1.7407611012458801e-01" nType="0">
            <Node pos="l" depth="3" NCoef="0" IVar="-1" Cut="0.0000000000000000e+00" cType="1" res="-6.4521573483943939e-02" rms="3.9471775293350220e-01" purity="2.4539732933044434e-01" nType="-99"/>
            <Node pos="r" depth="3" NCoef="0" IVar="-1" Cut="0.0000000000000000e+00" cType="1" res="-1.0779476165771484e-01" rms="3.1922423839569092e-01" purity="1.3251362740993500e-01" nType="-99"/>
          </Node>
          <Node pos="r" depth="2" NCoef="0" IVar="5" Cut="4.7556352615356445e-01" cType="1" res="0.0000000000000000e+00" rms="0.0000000000000000e+00" purity="8.4687912464141846e-01" nType="0">
            <Node pos="l" depth="3" NCoef="0" IVar="-1" Cut="0.0000000000000000e+00" cType="1" res="8.4541410207748413e-02" rms="2.8042709827423096e-01" purity="9.0969455242156982e-01" nType="-99"/>
            <Node pos="r" depth="3" NCoef="0" IVar="-1" Cut="0.0000000000000000e+00" cType="1" res="4.8083730041980743e-02" rms="4.1805824637413025e-01" purity="7.5726211071014404e-01" nType="-99"/>
          </Node>
        </Node>
      </Node>
    </BinaryTree>
    <BinaryTree type="DecisionTree" boostWeight="1.0000000000000000e+00" itree="3">
      <Node pos="s" depth="0" NCoef="0" IVar="4" Cut="6.1905038356781006e-01" cType="1" res="0.0000000000000000e+00" rms="0.0000000000000000e+00" purity="5.0000000000000000e-01" nType="0">
        <Node pos="l" depth="1" NCoef="0" IVar="1" Cut="5.9189987182617188e-01" cType="1" res="0.0000000000000000e+00" rms="0.0000000000000000e+00" purity="6.0530084371566772e-01" nType="0">
          <Node pos="l" depth="2" NCoef="0" IVar="5" Cut="5.7143354415893555e-01" cType="1" res="0.0000000000000000e+00" rms="0.0000000000000000e+00" purity="3.7646940350532532e-01" nType="0">
            <Node pos="l" depth="3" NCoef="0" IVar="-1" Cut="0.0000000000000000e+00" cType="1" res="5.1596788689494133e-03" rms="4.4245117902755737e-01" purity="4.8352533578872681e-01" nType="-99"/>
            <Node pos="r" depth="3" NCoef="0" IVar="-1" Cut="0.0000000000000000e+00" cType="1" res="-6.3262797892093658e-02" rms="3.7203457951545715e-01" purity="2.4819834530353546e-01" nType="-99"/>
          </Node>
          <Node pos="r" depth="2" NCoef="0" IVar="3" Cut="8.0956923961639404e-01" cType="1" res="0.0000000000000000e+00" rms="0.0000000000000000e+00" purity="8.7338680028915405e-01" nType="0">
            <Node pos="l" depth="3" NCoef="0" IVar="-1" Cut="0.0000000000000000e+00" cType="1" res="8.4020636975765228e-02" rms="2.6706737279891968e-01" purity="9.0158933401107788e-01" nType="-99"/>
            <Node pos="r" depth="3" NCoef="0" IVar="-1" Cut="0.0000000000000000e+00" cType="1" res="6.2392123043537140e-02" rms="3.6060681939125061e-01" purity="7.7831655740737915e-01" nType="-99"/>
          </Node>
        </Node>
        <Node pos="r" depth="1" NCoef="0" IVar="3" Cut="6.6669839620590210e-01" cType="1" res="0.0000000000000000e+00" rms="0.0000000000000000e+00" purity="3.7802931666374207e-01" nType="0">
          <Node pos="l" depth="2" NCoef="0" IVar="0" Cut="8.1824839115142822e-01" cType="1" res="-2.0381666254252195e-03" rms="4.3349075317382812e-01" purity="4.8796597123146057e-01" nType="0">
            <Node pos="l" depth="3" NCoef="0" IVar="-1" Cut="0.0000000000000000e+00" cType="1" res="-4.9019150435924530e-02" rms="4.2009887099266052e-01" purity="2.9347452521324158e-01" nType="-99"/>
            <Node pos="r" depth="3" NCoef="0" IVar="-1" Cut="0.0000000000000000e+00" cType="1" res="7.5405113399028778e-02" rms="3.0760726332664490e-01" purity="8.8695281744003296e-01" nType="-99"/>
          </Node>
          <Node pos="r" depth="2" NCoef="0" IVar="0" Cut="8.1818354129791260e-01" cType="1" res="-1.5915162861347198e-01" rms="3.7330967187881470e-01" purity="2.5426596403121948e-01" nType="0">
            <Node pos="l" depth="3" NCoef="0" IVar="-1" Cut="0.0000000000000000e+00" cType="1" res="-9.2680357396602631e-02" rms="3.2438182830810547e-01" purity="1.3939613103866577e-01" nType="-99"/>
            <Node pos="r" depth="3" NCoef="0" IVar="-1" Cut="0.0000000000000000e+00" cType="1" res="4.4811930507421494e-02" rms="4.1166353225708008e-01" purity="7.6682430505752563e-01" nType="-99"/>
          </Node>
        </Node>
      </Node>
    </BinaryTree>
    <BinaryTree type="DecisionTree" boostWeight="1.0000000000000000e+00" itree="4">
      <Node pos="s" depth="0" NCoef="0" IVar="0" Cut="5.9139066934585571e-01" cType="1" res="1.8914682790637016e-02" rms="4.0629914402961731e-01" purity="5.0000000000000000e-01" nType="0">
        <Node pos="l" depth="1" NCoef="0" IVar="5" Cut="5.2381122112274170e-01" cType="1" res="-1.5776903927326202e-01" rms="3.7560799717903137e-01" purity="2.2020433843135834e-01" nType="0">
          <Node pos="l" depth="2" NCoef="0" IVar="1" Cut="7.7498793601989746e-01" cType="1" res="-8.8119857013225555e-02" rms="4.2999807000160217e-01" purity="3.2075428962707520e-01" nType="0">
            <Node pos="l" depth="3" NCoef="0" IVar="-1" Cut="0.0000000000000000e+00" cType="1" res="-5.7073783129453659e-02" rms="4.0995973348617554e-01" purity="2.2708950936794281e-01" nType="-99"/>
            <Node pos="r" depth="3" NCoef="0" IVar="-1" Cut="0.0000000000000000e+00" cType="1" res="6.0610961169004440e-02" rms="3.9288422465324402e-01" purity="7.7118659019470215e-01" nType="-99"/>
          </Node>
          <Node pos="r" depth="2" NCoef="0" IVar="1" Cut="7.7436900138854980e-01" cType="1" res="-2.1361170709133148e-01" rms="3.1455114483833313e-01" purity="1.3958628475666046e-01" nType="0">
            <Node pos="l" depth="3" NCoef="0" IVar="-1" Cut="0.0000000000000000e+00" cType="1" res="-1.0562461614608765e-01" rms="2.7705648541450500e-01" purity="8.8834702968597412e-02" nType="-99"/>
            <Node pos="r" depth="3" NCoef="0" IVar="-1" Cut="0.0000000000000000e+00" cType="1" res="8.2350000739097595e-03" rms="4.5504626631736755e-01" purity="5.3568446636199951e-01" nType="-99"/>
          </Node>
        </Node>
        <Node pos="r" depth="1" NCoef="0" IVar="1" Cut="7.2780203819274902e-01" cType="1" res="0.0000000000000000e+00" rms="0.0000000000000000e+00" purity="8.2198816537857056e-01" nType="0">
          <Node pos="l" depth="2" NCoef="0" IVar="4" Cut="6.1905634403228760e-01" cType="1" res="0.0000000000000000e+00" rms="0.0000000000000000e+00" purity="6.8762814998626709e-01" nType="0">
            <Node pos="l" depth="3" NCoef="0" IVar="-1" Cut="0.0000000000000000e+00" cType="1" res="5.7112369686365128e-02" rms="3.8852375745773315e-01" purity="7.6349127292633057e-01" nType="-99"/>
            <Node pos="r" depth="3" NCoef="0" IVar="-1" Cut="0.0000000000000000e+00" cType="1" res="1.3694397173821926e-02" rms="4.3964663147926331e-01" purity="5.9313416481018066e-01" nType="-99"/>
          </Node>
          <Node pos="r" depth="2" NCoef="0" IVar="1" Cut="8.8318163156509399e-01" cType="1" res="3.1090199947357178e-01" rms="2.0174248516559601e-01" purity="9.5252275466918945e-01" nType="0">
            <Node pos="l" depth="3" NCoef="0" IVar="-1" Cut="0.0000000000000000e+00" cType="1" res="7.2888888418674469e-02" rms="2.9122453927993774e-01" purity="8.9010626077651978e-01" nType="-99"/>
            <Node pos="r" depth="3" NCoef="0" IVar="-1" Cut="0.0000000000000000e+00" cType="1" res="9.0270832180976868e-02" rms="1.4811196923255920e-01" purity="9.7700655460357666e-01" nType="-99"/>
          </Node>
        </Node>
      </Node>
    </BinaryTree>
    <BinaryTree type="DecisionTree" boostWeight="1.0000000000000000e+00" itree="5">
      <Node pos="s" depth="0" NCoef="0" IVar="6" Cut="2.2513706982135773e-01" cType="1" res="0.0000000000000000e+00" rms="0.0000000000000000e+00" purity="5.0000000000000000e-01" nType="0">
        <Node pos="l" depth="1" NCoef="0" IVar="2" Cut="3.4143251180648804e-01" cType="1" res="0.0000000000000000e+00" rms="0.0000000000000000e+00" purity="4.3485942482948303e-01" nType="0">
          <Node pos="l" depth="2" NCoef="0" IVar="0" Cut="8.6360287666320801e-01" cType="1" res="-6.0876093804836273e-02" rms="3.7752771377563477e-01" purity="3.7191569805145264e-01" nType="0">
            <Node pos="l" depth="3" NCoef="0" IVar="-1" Cut="0.0000000000000000e+00" cType="1" res="-6.0690939426422119e-02" rms="3.5372731089591980e-01" purity="2.1250134706497192e-01" nType="-99"/>
            <Node pos="r" depth="3" NCoef="0" IVar="-1" Cut="0.0000000000000000e+00" cType="1" res="6.6006273031234741e-02" rms="3.0097129940986633e-01" purity="8.9247679710388184e-01" nType="-99"/>
          </Node>
          <Node pos="r" depth="2" NCoef="0" IVar="2" Cut="4.3881773948669434e-01" cType="1" res="2.4286974966526031e-01" rms="3.3762225508689880e-01" purity="8.1019204854965210e-01" nType="0">
            <Node pos="l" depth="3" NCoef="0" IVar="-1" Cut="0.0000000000000000e+00" cType="1" res="4.9515765160322189e-02" rms="3.7516751885414124e-01" purity="7.1405655145645142e-01" nType="-99"/>
            <Node pos="r" depth="3" NCoef="0" IVar="-1" Cut="0.0000000000000000e+00" cType="1" res="9.0180933475494385e-02" rms="2.8364861011505127e-01" purity="8.9156121015548706e-01" nType="-99"/>
          </Node>
        </Node>
        <Node pos="r" depth="1" NCoef="0" IVar="0" Cut="5.4603374004364014e-01" cType="1" res="8.0923661589622498e-02" rms="3.8449189066886902e-01" purity="5.9959858655929565e-01" nType="0">
          <Node pos="l" depth="2" NCoef="0" IVar="1" Cut="6.8467468023300171e-01" cType="1" res="-1.1450717598199844e-01" rms="3.8716265559196472e-01" purity="2.5462409853935242e-01" nType="0">
            <Node pos="l" depth="3" NCoef="0" IVar="-1" Cut="0.0000000000000000e+00" cType="1" res="-7.1590334177017212e-02" rms="3.5335776209831238e-01" purity="1.5701688826084137e-01" nType="-99"/>
            <Node pos="r" depth="3" NCoef="0" IVar="-1" Cut="0.0000000000000000e+00" cType="1" res="3.1535178422927856e-02" rms="4.3209975957870483e-01" purity="6.3206130266189575e-01" nType="-99"/>
          </Node>
          <Node pos="r" depth="2" NCoef="0" IVar="0" Cut="8.7002110481262207e-01" cType="1" res="2.1961437165737152e-01" rms="3.1627818942070007e-01" purity="8.4441542625427246e-01" nType="0">
            <Node pos="l" depth="3" NCoef="0" IVar="-1" Cut="0.0000000000000000e+00" cType="1" res="3.6000978201627731e-02" rms="4.2306628823280334e-01" purity="6.5065491199493408e-01" nType="-99"/>
            <Node pos="r" depth="3" NCoef="0" IVar="-1" Cut="0.0000000000000000e+00" cType="1" res="7.7485546469688416e-02" rms="2.3044148087501526e-01" purity="9.4049096107482910e-01" nType="-99"/>
          </Node>
        </Node>
      </Node>
    </BinaryTree>
    <BinaryTree type="DecisionTree" boostWeight="1.0000000000000000e+00" itree="6">
      <Node pos="s" depth="0" NCoef="0" IVar="0" Cut="7.7281862497329712e-01" cType="1" res="2.2692238911986351e-02" rms="3.7636655569076538e-01" purity="5.0000000000000000e-01" nType="0">
        <Node pos="l" depth="1" NCoef="0" IVar="1" Cut="9.0902227163314819e-01" cType="1" res="-8.9003369212150574e-02" rms="3.7870517373085022e-01" purity="2.6072591543197632e-01" nType="0">
          <Node pos="l" depth="2" NCoef="0" IVar="2" Cut="3.9972302317619324e-01" cType="1" res="0.0000000000000000e+00" rms="0.0000000000000000e+00" purity="1.9748423993587494e-01" nType="0">
            <Node pos="l" depth="3" NCoef="0" IVar="-1" Cut="0.0000000000000000e+00" cType="1" res="-6.5412253141403198e-02" rms="3.4489825367927551e-01" purity="1.6495011746883392e-01" nType="-99"/>
            <Node pos="r" depth="3" NCoef="0" IVar="-1" Cut="0.0000000000000000e+00" cType="1" res="8.1152379512786865e-02" rms="4.4130554795265198e-01" purity="7.0956325531005859e-01" nType="-99"/>
          </Node>
          <Node pos="r" depth="2" NCoef="0" IVar="-1" Cut="0.0000000000000000e+00" cType="1" res="7.2444655001163483e-02" rms="3.2092079520225525e-01" purity="8.7114953994750977e-01" nType="-99"/>
        </Node>
        <Node pos="r" depth="1" NCoef="0" IVar="2" Cut="1.3591918349266052e-01" cType="1" res="0.0000000000000000e+00" rms="0.0000000000000000e+00" purity="8.8660210371017456e-01" nType="0">
          <Node pos="l" depth="2" NCoef="0" IVar="5" Cut="4.9494758248329163e-01" cType="1" res="0.0000000000000000e+00" rms="0.0000000000000000e+00" purity="7.7703940868377686e-01" nType="0">
            <Node pos="l" depth="3" NCoef="0" IVar="-1" Cut="0.0000000000000000e+00" cType="1" res="6.5857432782649994e-02" rms="2.9423415660858154e-01" purity="8.8701033592224121e-01" nType="-99"/>
            <Node pos="r" depth="3" NCoef="0" IVar="-1" Cut="0.0000000000000000e+00" cType="1" res="-2.5021759211085737e-04" rms="4.4271624088287354e-01" purity="6.2550532817840576e-01" nType="-99"/>
          </Node>
          <Node pos="r" depth="2" NCoef="0" IVar="1" Cut="5.9465092420578003e-01" cType="1" res="0.0000000000000000e+00" rms="0.0000000000000000e+00" purity="9.1581690311431885e-01" nType="0">
            <Node pos="l" depth="3" NCoef="0" IVar="-1" Cut="0.0000000000000000e+00" cType="1" res="5.1712345331907272e-02" rms="3.6257067322731018e-01" purity="8.2748210430145264e-01" nType="-99"/>
            <Node pos="r" depth="3" NCoef="0" IVar="-1" Cut="0.0000000000000000e+00" cType="1" res="7.7846549451351166e-02" rms="1.6613696515560150e-01" purity="9.7017604112625122e-01" nType="-99"/>
          </Node>
        </Node>
      </Node>
    </BinaryTree>
    <BinaryTree type="DecisionTree" boostWeight="1.0000000000000000e+00" itree="7">
      <Node pos="s" depth="0" NCoef="0" IVar="5" Cut="5.7143008708953857e-01" cType="1" res="0.0000000000000000e+00" rms="0.0000000000000000e+00" purity="5.0000000000000000e-01" nType="0">
        <Node pos="l" depth="1" NCoef="0" IVar="0" Cut="5.4622489213943481e-01" cType="1" res="8.5867613554000854e-02" rms="3.6766752600669861e-01" purity="6.1011177301406860e-01" nType="0">
          <Node pos="l" depth="2" NCoef="0" IVar="1" Cut="7.7498793601989746e-01" cType="1" res="-5.2284345030784607e-02" rms="4.0011191368103027e-01" purity="2.9346516728401184e-01" nType="0">
            <Node pos="l" depth="3" NCoef="0" IVar="-1" Cut="0.0000000000000000e+00" cType="1" res="-4.1548062115907669e-02" rms="3.8694563508033752e-01" purity="2.0237892866134644e-01" nType="-99"/>
            <Node pos="r" depth="3" NCoef="0" IVar="-1" Cut="0.0000000000000000e+00" cType="1" res="5.0697330385446548e-02" rms="3.9069321751594543e-01" purity="7.5428193807601929e-01" nType="-99"/>
          </Node>
          <Node pos="r" depth="2" NCoef="0" IVar="1" Cut="5.9465092420578003e-01" cType="1" res="1.9097703695297241e-01" rms="3.0109485983848572e-01" purity="8.5102438926696777e-01" nType="0">
            <Node pos="l" depth="3" NCoef="0" IVar="-1" Cut="0.0000000000000000e+00" cType="1" res="4.2411256581544876e-02" rms="3.9347290992736816e-01" purity="7.1557301282882690e-01" nType="-99"/>
            <Node pos="r" depth="3" NCoef="0" IVar="-1" Cut="0.0000000000000000e+00" cType="1" res="7.4503459036350250e-02" rms="1.9829204678535461e-01" purity="9.5065069198608398e-01" nType="-99"/>
          </Node>
        </Node>
        <Node pos="r" depth="1" NCoef="0" IVar="2" Cut="2.6668414473533630e-01" cType="1" res="0.0000000000000000e+00" rms="0.0000000000000000e+00" purity="3.5389998555183411e-01" nType="0">
          <Node pos="l" depth="2" NCoef="0" IVar="4" Cut="6.1905038356781006e-01" cType="1" res="0.0000000000000000e+00" rms="0.0000000000000000e+00" purity="2.1119311451911926e-01" nType="0">
            <Node pos="l" depth="3" NCoef="0" IVar="-1" Cut="0.0000000000000000e+00" cType="1" res="-3.7028338760137558e-02" rms="3.3274328708648682e-01" purity="3.0295625329017639e-01" nType="-99"/>
            <Node pos="r" depth="3" NCoef="0" IVar="-1" Cut="0.0000000000000000e+00" cType="1" res="-8.7898083031177521e-02" rms="2.7172183990478516e-01" purity="1.3189503550529480e-01" nType="-99"/>
          </Node>
          <Node pos="r" depth="2" NCoef="0" IVar="0" Cut="5.4663234949111938e-01" cType="1" res="1.4102265238761902e-01" rms="3.4786784648895264e-01" purity="7.1548551321029663e-01" nType="0">
            <Node pos="l" depth="3" NCoef="0" IVar="-1" Cut="0.0000000000000000e+00" cType="1" res="1.2853781692683697e-02" rms="4.2937675118446350e-01" purity="4.0692913532257080e-01" nType="-99"/>
            <Node pos="r" depth="3" NCoef="0" IVar="-1" Cut="0.0000000000000000e+00" cType="1" res="6.4829960465431213e-02" rms="2.7410656213760376e-01" purity="8.9009517431259155e-01" nType="-99"/>
          </Node>
        </Node>
      </Node>
    </BinaryTree>
    <BinaryTree type="DecisionTree" boostWeight="1.0000000000000000e+00" itree="8">
      <Node pos="s" depth="0" NCoef="0" IVar="6" Cut="1.1261205375194550e-01" cType="1" res="0.0000000000000000e+00" rms="0.0000000000000000e+00" purity="5.0000000000000000e-01" nType="0">
        <Node pos="l" depth="1" NCoef="0" IVar="1" Cut="8.1991010904312134e-01" cType="1" res="-4.6179011464118958e-02" rms="3.4673365950584412e-01" purity="3.6265298724174500e-01" nType="0">
          <Node pos="l" depth="2" NCoef="0" IVar="2" Cut="1.9933344423770905e-01" cType="1" res="0.0000000000000000e+00" rms="0.0000000000000000e+00" purity="2.3309367895126343e-01" nType="0">
            <Node pos="l" depth="3" NCoef="0" IVar="-1" Cut="0.0000000000000000e+00" cType="1" res="-7.1513399481773376e-02" rms="2.9240429401397705e-01" purity="1.5152435004711151e-01" nType="-99"/>
            <Node pos="r" depth="3" NCoef="0" IVar="-1" Cut="0.0000000000000000e+00" cType="1" res="-5.3400276228785515e-03" rms="4.0321591496467590e-01" purity="4.1248318552970886e-01" nType="-99"/>
          </Node>
          <Node pos="r" depth="2" NCoef="0" IVar="-1" Cut="0.0000000000000000e+00" cType="1" res="5.7321716099977493e-02" rms="2.9215034842491150e-01" purity="8.6471390724182129e-01" nType="-99"/>
        </Node>
        <Node pos="r" depth="1" NCoef="0" IVar="1" Cut="8.1841450929641724e-01" cType="1" res="0.0000000000000000e+00" rms="0.0000000000000000e+00" purity="5.3873449563980103e-01" nType="0">
          <Node pos="l" depth="2" NCoef="0" IVar="4" Cut="7.1429252624511719e-01" cType="1" res="0.0000000000000000e+00" rms="0.0000000000000000e+00" purity="3.8897967338562012e-01" nType="0">
            <Node pos="l" depth="3" NCoef="0" IVar="-1" Cut="0.0000000000000000e+00" cType="1" res="9.8636271432042122e-03" rms="3.8190731406211853e-01" purity="4.7565060853958130e-01" nType="-99"/>
            <Node pos="r" depth="3" NCoef="0" IVar="-1" Cut="0.0000000000000000e+00" cType="1" res="-3.1973522156476974e-02" rms="3.5671436786651611e-01" purity="2.8072410821914673e-01" nType="-99"/>
          </Node>
          <Node pos="r" depth="2" NCoef="0" IVar="4" Cut="7.6184844970703125e-01" cType="1" res="0.0000000000000000e+00" rms="0.0000000000000000e+00" purity="9.2317795753479004e-01" nType="0">
            <Node pos="l" depth="3" NCoef="0" IVar="-1" Cut="0.0000000000000000e+00" cType="1" res="7.0386938750743866e-02" rms="2.0697633922100067e-01" purity="9.4437974691390991e-01" nType="-99"/>
            <Node pos="r" depth="3" NCoef="0" IVar="-1" Cut="0.0000000000000000e+00" cType="1" res="5.1636185497045517e-02" rms="3.1242042779922485e-01" purity="8.3625060319900513e-01" nType="-99"/>
          </Node>
        </Node>
      </Node>
    </BinaryTree>
    <BinaryTree type="DecisionTree" boostWeight="1.0000000000000000e+00" itree="9">
      <Node pos="s" depth="0" NCoef="0" IVar="2" Cut="2.6961356401443481e-01" cType="1" res="0.0000000000000000e+00" rms="0.0000000000000000e+00" purity="5.0000000000000000e-01" nType="0">
        <Node pos="l" depth="1" NCoef="0" IVar="6" Cut="3.1590524315834045e-01" cType="1" res="0.0000000000000000e+00" rms="0.0000000000000000e+00" purity="3.9178469777107239e-01" nType="0">
          <Node pos="l" depth="2" NCoef="0" IVar="0" Cut="8.6354124546051025e-01" cType="1" res="-3.7471365183591843e-02" rms="3.4097373485565186e-01" purity="3.6587262153625488e-01" nType="0">
            <Node pos="l" depth="3" NCoef="0" IVar="-1" Cut="0.0000000000000000e+00" cType="1" res="-4.6483512967824936e-02" rms="3.3173975348472595e-01" purity="2.0236569643020630e-01" nType="-99"/>
            <Node pos="r" depth="3" NCoef="0" IVar="-1" Cut="0.0000000000000000e+00" cType="1" res="5.3307298570871353e-02" rms="2.9281637072563171e-01" purity="8.9100652933120728e-01" nType="-99"/>
          </Node>
          <Node pos="r" depth="2" NCoef="0" IVar="0" Cut="4.5531976222991943e-01" cType="1" res="3.8193166255950928e-02" rms="3.6135706305503845e-01" purity="5.5095809698104858e-01" nType="0">
            <Node pos="l" depth="3" NCoef="0" IVar="-1" Cut="0.0000000000000000e+00" cType="1" res="-5.2907817065715790e-02" rms="3.3480900526046753e-01" purity="1.8520696461200714e-01" nType="-99"/>
            <Node pos="r" depth="3" NCoef="0" IVar="-1" Cut="0.0000000000000000e+00" cType="1" res="4.3587677180767059e-02" rms="3.4579890966415405e-01" purity="7.7306979894638062e-01" nType="-99"/>
          </Node>
        </Node>
        <Node pos="r" depth="1" NCoef="0" IVar="0" Cut="3.6551913619041443e-01" cType="1" res="1.4092300832271576e-01" rms="3.3206388354301453e-01" purity="7.6067024469375610e-01" nType="0">
          <Node pos="l" depth="2" NCoef="0" IVar="6" Cut="2.0187588036060333e-01" cType="1" res="0.0000000000000000e+00" rms="0.0000000000000000e+00" purity="4.2234173417091370e-01" nType="0">
            <Node pos="l" depth="3" NCoef="0" IVar="-1" Cut="0.0000000000000000e+00" cType="1" res="-3.0805591959506273e-03" rms="4.1956523060798645e-01" purity="3.9961326122283936e-01" nType="-99"/>
            <Node pos="r" depth="3" NCoef="0" IVar="-1" Cut="0.0000000000000000e+00" cType="1" res="1.5474205836653709e-02" rms="4.3227201700210571e-01" purity="4.4233143329620361e-01" nType="-99"/>
          </Node>
          <Node pos="r" depth="2" NCoef="0" IVar="2" Cut="3.9131110906600952e-01" cType="1" res="1.7822690308094025e-01" rms="2.8695598244667053e-01" purity="8.6363333463668823e-01" nType="0">
            <Node pos="l" depth="3" NCoef="0" IVar="-1" Cut="0.0000000000000000e+00" cType="1" res="5.2578780800104141e-02" rms="3.1930512189865112e-01" purity="8.1218171119689941e-01" nType="-99"/>
            <Node pos="r" depth="3" NCoef="0" IVar="-1" Cut="0.0000000000000000e+00" cType="1" res="7.4734449386596680e-02" rms="2.2785261273384094e-01" purity="9.3544709682464600e-01" nType="-99"/>
          </Node>
        </Node>
      </Node>
    </BinaryTree>
    <BinaryTree type="DecisionTree" boostWeight="1.0000000000000000e+00" itree="10">
      <Node pos="s" depth="0" NCoef="0" IVar="3" Cut="8.0952346324920654e-01" cType="1" res="0.0000000000000000e+00" rms="0.0000000000000000e+00" purity="5.0000000000000000e-01" nType="0">
        <Node pos="l" depth="1" NCoef="0" IVar="0" Cut="4.0996277332305908e-01" cType="1" res="5.0639446824789047e-02" rms="3.4659659862518311e-01" purity="5.7714623212814331e-01" nType="0">
          <Node pos="l" depth="2" NCoef="0" IVar="5" Cut="6.6658717393875122e-01" cType="1" res="-8.1818550825119019e-02" rms="3.4704110026359558e-01" purity="2.2948099672794342e-01" nType="0">
            <Node pos="l" depth="3" NCoef="0" IVar="-1" Cut="0.0000000000000000e+00" cType="1" res="-2.1719496697187424e-02" rms="3.7839072942733765e-01" purity="2.8587287664413452e-01" nType="-99"/>
            <Node pos="r" depth="3" NCoef="0" IVar="-1" Cut="0.0000000000000000e+00" cType="1" res="-6.8349547684192657e-02" rms="2.7891373634338379e-01" purity="1.3444133102893829e-01" nType="-99"/>
          </Node>
          <Node pos="r" depth="2" NCoef="0" IVar="0" Cut="8.8729709386825562e-01" cType="1" res="1.1962618678808212e-01" rms="3.2568639516830444e-01" purity="7.5821703672409058e-01" nType="0">
            <Node pos="l" depth="3" NCoef="0" IVar="-1" Cut="0.0000000000000000e+00" cType="1" res="2.3364031687378883e-02" rms="4.0399014949798584e-01" purity="5.5889755487442017e-01" nType="-99"/>
            <Node pos="r" depth="3" NCoef="0" IVar="-1" Cut="0.0000000000000000e+00" cType="1" res="6.3077121973037720e-02" rms="2.1550612151622772e-01" purity="9.4650685787200928e-01" nType="-99"/>
          </Node>
        </Node>
        <Node pos="r" depth="1" NCoef="0" IVar="1" Cut="8.6371761560440063e-01" cType="1" res="-4.4292308390140533e-02" rms="3.2704710960388184e-01" purity="3.2385030388832092e-01" nType="0">
          <Node pos="l" depth="2" NCoef="0" IVar="2" Cut="2.0896872878074646e-01" cType="1" res="0.0000000000000000e+00" rms="0.0000000000000000e+00" purity="2.2334770858287811e-01" nType="0">
            <Node pos="l" depth="3" NCoef="0" IVar="-1" Cut="0.0000000000000000e+00" cType="1" res="-5.5519927293062210e-02" rms="2.9798996448516846e-01" purity="1.7552751302719116e-01" nType="-99"/>
            <Node pos="r" depth="3" NCoef="0" IVar="-1" Cut="0.0000000000000000e+00" cType="1" res="8.7161427363753319e-03" rms="3.9022901654243469e-01" purity="4.4629323482513428e-01" nType="-99"/>
          </Node>
          <Node pos="r" depth="2" NCoef="0" IVar="-1" Cut="0.0000000000000000e+00" cType="1" res="5.6464985013008118e-02" rms="2.8650242090225220e-01" purity="8.7971878051757812e-01" nType="-99"/>
        </Node>
      </Node>
    </BinaryTree>
    <BinaryTree type="DecisionTree" boostWeight="1.0000000000000000e+00" itree="11">
      <Node pos="s" depth="0" NCoef="0" IVar="0" Cut="5.4603374004364014e-01" cType="1" res="2.0807093009352684e-02" rms="3.3865624666213989e-01" purity="5.0000000000000000e-01" nType="0">
        <Node pos="l" depth="1" NCoef="0" IVar="2" Cut="2.6668685674667358e-01" cType="1" res="-6.2621831893920898e-02" rms="3.3881244063377380e-01" purity="2.0820921659469604e-01" nType="0">
          <Node pos="l" depth="2" NCoef="0" IVar="1" Cut="8.1940037012100220e-01" cType="1" res="-9.3607671558856964e-02" rms="3.0125176906585693e-01" purity="1.4165699481964111e-01" nType="0">
            <Node pos="l" depth="3" NCoef="0" IVar="-1" Cut="0.0000000000000000e+00" cType="1" res="-6.5483465790748596e-02" rms="2.7988952398300171e-01" purity="9.2356882989406586e-02" nType="-99"/>
            <Node pos="r" depth="3" NCoef="0" IVar="-1" Cut="0.0000000000000000e+00" cType="1" res="2.1618332713842392e-02" rms="4.3219181895256042e-01" purity="6.3969224691390991e-01" nType="-99"/>
          </Node>
          <Node pos="r" depth="2" NCoef="0" IVar="5" Cut="7.1428662538528442e-01" cType="1" res="0.0000000000000000e+00" rms="0.0000000000000000e+00" purity="4.6006441116333008e-01" nType="0">
            <Node pos="l" depth="3" NCoef="0" IVar="-1" Cut="0.0000000000000000e+00" cType="1" res="2.7524596080183983e-02" rms="4.3957519531250000e-01" purity="4.9805322289466858e-01" nType="-99"/>
            <Node pos="r" depth="3" NCoef="0" IVar="-1" Cut="0.0000000000000000e+00" cType="1" res="2.1287058189045638e-04" rms="4.1586592793464661e-01" purity="3.7157779932022095e-01" nType="-99"/>
          </Node>
        </Node>
        <Node pos="r" depth="1" NCoef="0" IVar="0" Cut="9.3480980396270752e-01" cType="1" res="1.0273702442646027e-01" rms="3.1786206364631653e-01" purity="7.8654807806015015e-01" nType="0">
          <Node pos="l" depth="2" NCoef="0" IVar="5" Cut="6.1883187294006348e-01" cType="1" res="5.2552118897438049e-02" rms="3.8311877846717834e-01" purity="6.4038008451461792e-01" nType="0">
            <Node pos="l" depth="3" NCoef="0" IVar="-1" Cut="0.0000000000000000e+00" cType="1" res="3.5268869251012802e-02" rms="3.7334236502647400e-01" purity="7.2141110897064209e-01" nType="-99"/>
            <Node pos="r" depth="3" NCoef="0" IVar="-1" Cut="0.0000000000000000e+00" cType="1" res="-1.5218727290630341e-02" rms="3.8545703887939453e-01" purity="4.8256865143775940e-01" nType="-99"/>
          </Node>
          <Node pos="r" depth="2" NCoef="0" IVar="3" Cut="7.6181417703628540e-01" cType="1" res="0.0000000000000000e+00" rms="0.0000000000000000e+00" purity="9.4854909181594849e-01" nType="0">
            <Node pos="l" depth="3" NCoef="0" IVar="-1" Cut="0.0000000000000000e+00" cType="1" res="6.3554272055625916e-02" rms="1.9329811632633209e-01" purity="9.5834875106811523e-01" nType="-99"/>
            <Node pos="r" depth="3" NCoef="0" IVar="-1" Cut="0.0000000000000000e+00" cType="1" res="5.4703176021575928e-02" rms="2.5675508379936218e-01" purity="9.1862195730209351e-01" nType="-99"/>
          </Node>
        </Node>
      </Node>
    </BinaryTree>
    <BinaryTree type="DecisionTree" boostWeight="1.0000000000000000e+00" itree="12">
      <Node pos="s" depth="0" NCoef="0" IVar="1" Cut="6.8250626325607300e-01" cType="1" res="2.0240986719727516e-02" rms="3.3370596170425415e-01" purity="5.0000000000000000e-01" nType="0">
        <Node pos="l" depth="1" NCoef="0" IVar="4" Cut="3.3335134387016296e-01" cType="1" res="0.0000000000000000e+00" rms="0.0000000000000000e+00" purity="3.2032617926597595e-01" nType="0">
          <Node pos="l" depth="2" NCoef="0" IVar="0" Cut="4.0997949242591858e-01" cType="1" res="1.3239230029284954e-02" rms="3.6580443382263184e-01" purity="4.3094527721405029e-01" nType="0">
            <Node pos="l" depth="3" NCoef="0" IVar="-1" Cut="0.0000000000000000e+00" cType="1" res="-4.9707625061273575e-02" rms="3.2156345248222351e-01" purity="1.3380402326583862e-01" nType="-99"/>
            <Node pos="r" depth="3" NCoef="0" IVar="-1" Cut="0.0000000000000000e+00" cType="1" res="3.4515373408794403e-02" rms="3.7714284658432007e-01" purity="6.6084587574005127e-01" nType="-99"/>
          </Node>
          <Node pos="r" depth="2" NCoef="0" IVar="3" Cut="4.7620835900306702e-01" cType="1" res="0.0000000000000000e+00" rms="0.0000000000000000e+00" purity="2.8797048330307007e-01" nType="0">
            <Node pos="l" depth="3" NCoef="0" IVar="-1" Cut="0.0000000000000000e+00" cType="1" res="-2.5393171235918999e-03" rms="3.7436896562576294e-01" purity="4.0954959392547607e-01" nType="-99"/>
            <Node pos="r" depth="3" NCoef="0" IVar="-1" Cut="0.0000000000000000e+00" cType="1" res="-3.5635519772768021e-02" rms="3.2322543859481812e-01" purity="2.2757264971733093e-01" nType="-99"/>
          </Node>
        </Node>
        <Node pos="r" depth="1" NCoef="0" IVar="2" Cut="1.3511282205581665e-01" cType="1" res="0.0000000000000000e+00" rms="0.0000000000000000e+00" purity="8.4238404035568237e-01" nType="0">
          <Node pos="l" depth="2" NCoef="0" IVar="0" Cut="6.8343341350555420e-01" cType="1" res="7.6121255755424500e-02" rms="3.3587840199470520e-01" purity="7.0085006952285767e-01" nType="0">
            <Node pos="l" depth="3" NCoef="0" IVar="-1" Cut="0.0000000000000000e+00" cType="1" res="-8.8755842298269272e-03" rms="4.0523457527160645e-01" purity="3.9433342218399048e-01" nType="-99"/>
            <Node pos="r" depth="3" NCoef="0" IVar="-1" Cut="0.0000000000000000e+00" cType="1" res="5.4339062422513962e-02" rms="2.5805017352104187e-01" purity="9.0937882661819458e-01" nType="-99"/>
          </Node>
          <Node pos="r" depth="2" NCoef="0" IVar="6" Cut="1.1547796428203583e-01" cType="1" res="0.0000000000000000e+00" rms="0.0000000000000000e+00" purity="8.8346624374389648e-01" nType="0">
            <Node pos="l" depth="3" NCoef="0" IVar="-1" Cut="0.0000000000000000e+00" cType="1" res="4.5450527220964432e-02" rms="3.0000105500221252e-01" purity="8.2340669631958008e-01" nType="-99"/>
            <Node pos="r" depth="3" NCoef="0" IVar="-1" Cut="0.0000000000000000e+00" cType="1" res="5.6174300611019135e-02" rms="2.4531112611293793e-01" purity="8.9427351951599121e-01" nType="-99"/>
          </Node>
        </Node>
      </Node>
    </BinaryTree>
    <BinaryTree type="DecisionTree" boostWeight="1.0000000000000000e+00" itree="13">
      <Node pos="s" depth="0" NCoef="0" IVar="0" Cut="8.1817561388015747e-01" cType="1" res="1.8903043121099472e-02" rms="3.3058148622512817e-01" purity="5.0000000000000000e-01" nType="0">
        <Node pos="l" depth="1" NCoef="0" IVar="4" Cut="3.3335134387016296e-01" cType="1" res="0.0000000000000000e+00" rms="0.0000000000000000e+00" purity="2.7748596668243408e-01" nType="0">
          <Node pos="l" depth="2" NCoef="0" IVar="0" Cut="3.0411833524703979e-01" cType="1" res="1.0923441499471664e-02" rms="3.7624752521514893e-01" purity="3.8976940512657166e-01" nType="0">
            <Node pos="l" depth="3" NCoef="0" IVar="-1" Cut="0.0000000000000000e+00" cType="1" res="-2.4682484567165375e-02" rms="3.3881109952926636e-01" purity="2.3870590329170227e-01" nType="-99"/>
            <Node pos="r" depth="3" NCoef="0" IVar="-1" Cut="0.0000000000000000e+00" cType="1" res="2.5272825732827187e-02" rms="3.9969006180763245e-01" purity="5.2864736318588257e-01" nType="-99"/>
          </Node>
          <Node pos="r" depth="2" NCoef="0" IVar="5" Cut="4.2857435345649719e-01" cType="1" res="-4.1805885732173920e-02" rms="3.4514096379280090e-01" purity="2.4503305554389954e-01" nType="0">
            <Node pos="l" depth="3" NCoef="0" IVar="-1" Cut="0.0000000000000000e+00" cType="1" res="8.5875354707241058e-03" rms="4.0185078978538513e-01" purity="3.7386506795883179e-01" nType="-99"/>
            <Node pos="r" depth="3" NCoef="0" IVar="-1" Cut="0.0000000000000000e+00" cType="1" res="-4.2021807283163071e-02" rms="3.0484920740127563e-01" purity="1.7516754567623138e-01" nType="-99"/>
          </Node>
        </Node>
        <Node pos="r" depth="1" NCoef="0" IVar="4" Cut="8.0951929092407227e-01" cType="1" res="0.0000000000000000e+00" rms="0.0000000000000000e+00" purity="9.0672683715820312e-01" nType="0">
          <Node pos="l" depth="2" NCoef="0" IVar="0" Cut="9.3049430847167969e-01" cType="1" res="1.2074393779039383e-01" rms="2.3942871391773224e-01" purity="9.2575246095657349e-01" nType="0">
            <Node pos="l" depth="3" NCoef="0" IVar="-1" Cut="0.0000000000000000e+00" cType="1" res="3.3111307770013809e-02" rms="3.1829258799552917e-01" purity="8.5202211141586304e-01" nType="-99"/>
            <Node pos="r" depth="3" NCoef="0" IVar="-1" Cut="0.0000000000000000e+00" cType="1" res="5.9484168887138367e-02" rms="1.9431608915328979e-01" purity="9.5720034837722778e-01" nType="-99"/>
          </Node>
          <Node pos="r" depth="2" NCoef="0" IVar="-1" Cut="0.0000000000000000e+00" cType="1" res="1.7059940844774246e-02" rms="3.5228845477104187e-01" purity="8.0730646848678589e-01" nType="-99"/>
        </Node>
      </Node>
    </BinaryTree>
    <BinaryTree type="DecisionTree" boostWeight="1.0000000000000000e+00" itree="14">
      <Node pos="s" depth="0" NCoef="0" IVar="1" Cut="5.9189987182617188e-01" cType="1" res="0.0000000000000000e+00" rms="0.0000000000000000e+00" purity="5.0000000000000000e-01" nType="0">
        <Node pos="l" depth="1" NCoef="0" IVar="2" Cut="3.4143251180648804e-01" cType="1" res="0.0000000000000000e+00" rms="0.0000000000000000e+00" purity="3.0743440985679626e-01" nType="0">
          <Node pos="l" depth="2" NCoef="0" IVar="0" Cut="9.5419126749038696e-01" cType="1" res="-5.5830635130405426e-02" rms="3.3114972710609436e-01" purity="2.4672149121761322e-01" nType="0">
            <Node pos="l" depth="3" NCoef="0" IVar="-1" Cut="0.0000000000000000e+00" cType="1" res="-4.2482472956180573e-02" rms="3.2728821039199829e-01" purity="1.7499616742134094e-01" nType="-99"/>
            <Node pos="r" depth="3" NCoef="0" IVar="-1" Cut="0.0000000000000000e+00" cType="1" res="4.2548492550849915e-02" rms="3.1414332985877991e-01" purity="8.8067293167114258e-01" nType="-99"/>
          </Node>
          <Node pos="r" depth="2" NCoef="0" IVar="6" Cut="1.8709446489810944e-01" cType="1" res="1.4618383347988129e-01" rms="3.7794762849807739e-01" purity="7.3570692539215088e-01" nType="0">
            <Node pos="l" depth="3" NCoef="0" IVar="-1" Cut="0.0000000000000000e+00" cType="1" res="3.7965096533298492e-02" rms="4.0015399456024170e-01" purity="6.7609339952468872e-01" nType="-99"/>
            <Node pos="r" depth="3" NCoef="0" IVar="-1" Cut="0.0000000000000000e+00" cType="1" res="6.2517315149307251e-02" rms="3.5603561997413635e-01" purity="7.8439587354660034e-01" nType="-99"/>
          </Node>
        </Node>
        <Node pos="r" depth="1" NCoef="0" IVar="3" Cut="9.0475690364837646e-01" cType="1" res="0.0000000000000000e+00" rms="0.0000000000000000e+00" purity="8.0945128202438354e-01" nType="0">
          <Node pos="l" depth="2" NCoef="0" IVar="1" Cut="9.2196655273437500e-01" cType="1" res="0.0000000000000000e+00" rms="0.0000000000000000e+00" purity="8.3652150630950928e-01" nType="0">
            <Node pos="l" depth="3" NCoef="0" IVar="-1" Cut="0.0000000000000000e+00" cType="1" res="2.7544038370251656e-02" rms="3.3568486571311951e-01" purity="7.1690231561660767e-01" nType="-99"/>
            <Node pos="r" depth="3" NCoef="0" IVar="-1" Cut="0.0000000000000000e+00" cType="1" res="6.3509680330753326e-02" rms="1.8440613150596619e-01" purity="9.6076220273971558e-01" nType="-99"/>
          </Node>
          <Node pos="r" depth="2" NCoef="0" IVar="-1" Cut="0.0000000000000000e+00" cType="1" res="1.8783975392580032e-02" rms="3.3671155571937561e-01" purity="6.2846565246582031e-01" nType="-99"/>
        </Node>
      </Node>
    </BinaryTree>
    <BinaryTree type="DecisionTree" boostWeight="1.0000000000000000e+00" itree="15">
      <Node pos="s" depth="0" NCoef="0" IVar="0" Cut="3.6460578441619873e-01" cType="1" res="1.7012920230627060e-02" rms="3.2446128129959106e-01" purity="5.0000000000000000e-01" nType="0">
        <Node pos="l" depth="1" NCoef="0" IVar="1" Cut="8.1947767734527588e-01" cType="1" res="-5.7571347802877426e-02" rms="3.0862686038017273e-01" purity="1.7901359498500824e-01" nType="0">
          <Node pos="l" depth="2" NCoef="0" IVar="2" Cut="2.6716986298561096e-01" cType="1" res="-7.3770932853221893e-02" rms="2.9167795181274414e-01" purity="1.1155318468809128e-01" nType="0">
            <Node pos="l" depth="3" NCoef="0" IVar="-1" Cut="0.0000000000000000e+00" cType="1" res="-6.4692601561546326e-02" rms="2.4717620015144348e-01" purity="6.9685146212577820e-02" nType="-99"/>
            <Node pos="r" depth="3" NCoef="0" IVar="-1" Cut="0.0000000000000000e+00" cType="1" res="-4.2379810474812984e-03" rms="4.3479010462760925e-01" purity="3.0161446332931519e-01" nType="-99"/>
          </Node>
          <Node pos="r" depth="2" NCoef="0" IVar="-1" Cut="0.0000000000000000e+00" cType="1" res="2.3489944636821747e-02" rms="3.9702042937278748e-01" purity="7.1720349788665771e-01" nType="-99"/>
        </Node>
        <Node pos="r" depth="1" NCoef="0" IVar="5" Cut="6.6667491197586060e-01" cType="1" res="0.0000000000000000e+00" rms="0.0000000000000000e+00" purity="6.7305994033813477e-01" nType="0">
          <Node pos="l" depth="2" NCoef="0" IVar="1" Cut="3.6967256665229797e-01" cType="1" res="0.0000000000000000e+00" rms="0.0000000000000000e+00" purity="7.3746716976165771e-01" nType="0">
            <Node pos="l" depth="3" NCoef="0" IVar="-1" Cut="0.0000000000000000e+00" cType="1" res="1.5357003547251225e-02" rms="3.7164965271949768e-01" purity="5.7515132427215576e-01" nType="-99"/>
            <Node pos="r" depth="3" NCoef="0" IVar="-1" Cut="0.0000000000000000e+00" cType="1" res="4.5665539801120758e-02" rms="2.9994457960128784e-01" purity="7.8844946622848511e-01" nType="-99"/>
          </Node>
          <Node pos="r" depth="2" NCoef="0" IVar="1" Cut="8.6363923549652100e-01" cType="1" res="0.0000000000000000e+00" rms="0.0000000000000000e+00" purity="5.0638526678085327e-01" nType="0">
            <Node pos="l" depth="3" NCoef="0" IVar="-1" Cut="0.0000000000000000e+00" cType="1" res="-2.6634674519300461e-02" rms="3.4576797485351562e-01" purity="3.7322559952735901e-01" nType="-99"/>
            <Node pos="r" depth="3" NCoef="0" IVar="-1" Cut="0.0000000000000000e+00" cType="1" res="4.8613153398036957e-02" rms="2.3345209658145905e-01" purity="9.2522287368774414e-01" nType="-99"/>
          </Node>
        </Node>
      </Node>
    </BinaryTree>
    <BinaryTree type="DecisionTree" boostWeight="1.0000000000000000e+00" itree="16">
      <Node pos="s" depth="0" NCoef="0" IVar="0" Cut="9.0888953208923340e-01" cType="1" res="1.6025563701987267e-02" rms="3.2163107395172119e-01" purity="5.0000000000000000e-01" nType="0">
        <Node pos="l" depth="1" NCoef="0" IVar="1" Cut="9.0902227163314819e-01" cType="1" res="-1.3081238605082035e-02" rms="3.4721785783767700e-01" purity="3.3642491698265076e-01" nType="0">
          <Node pos="l" depth="2" NCoef="0" IVar="2" Cut="3.9972302317619324e-01" cType="1" res="-3.3631063997745514e-02" rms="3.5236522555351257e-01" purity="2.5486147403717041e-01" nType="0">
            <Node pos="l" depth="3" NCoef="0" IVar="-1" Cut="0.0000000000000000e+00" cType="1" res="-2.7247514575719833e-02" rms="3.4363403916358948e-01" purity="2.1628980338573456e-01" nType="-99"/>
            <Node pos="r" depth="3" NCoef="0" IVar="-1" Cut="0.0000000000000000e+00" cType="1" res="5.7163208723068237e-02" rms="3.9772686362266541e-01" purity="7.6672059297561646e-01" nType="-99"/>
          </Node>
          <Node pos="r" depth="2" NCoef="0" IVar="1" Cut="9.7375154495239258e-01" cType="1" res="0.0000000000000000e+00" rms="0.0000000000000000e+00" purity="9.0806800127029419e-01" nType="0">
            <Node pos="l" depth="3" NCoef="0" IVar="-1" Cut="0.0000000000000000e+00" cType="1" res="3.6575984209775925e-02" rms="3.1432035565376282e-01" purity="8.6298859119415283e-01" nType="-99"/>
            <Node pos="r" depth="3" NCoef="0" IVar="-1" Cut="0.0000000000000000e+00" cType="1" res="6.2509588897228241e-02" rms="2.2123539447784424e-01" purity="9.4239813089370728e-01" nType="-99"/>
          </Node>
        </Node>
        <Node pos="r" depth="1" NCoef="0" IVar="0" Cut="9.5209264755249023e-01" cType="1" res="9.4497673213481903e-02" rms="2.2105646133422852e-01" purity="9.4099938869476318e-01" nType="0">
          <Node pos="l" depth="2" NCoef="0" IVar="-1" Cut="0.0000000000000000e+00" cType="1" res="3.1357087194919586e-02" rms="2.8373384475708008e-01" purity="8.9331346750259399e-01" nType="-99"/>
          <Node pos="r" depth="2" NCoef="0" IVar="1" Cut="5.0462734699249268e-01" cType="1" res="0.0000000000000000e+00" rms="0.0000000000000000e+00" purity="9.5351523160934448e-01" nType="0">
            <Node pos="l" depth="3" NCoef="0" IVar="-1" Cut="0.0000000000000000e+00" cType="1" res="4.6592436730861664e-02" rms="2.7296093106269836e-01" purity="9.1191649436950684e-01" nType="-99"/>
            <Node pos="r" depth="3" NCoef="0" IVar="-1" Cut="0.0000000000000000e+00" cType="1" res="5.4893463850021362e-02" rms="1.6720968484878540e-01" purity="9.6836626529693604e-01" nType="-99"/>
          </Node>
        </Node>
      </Node>
    </BinaryTree>
    <BinaryTree type="DecisionTree" boostWeight="1.0000000000000000e+00" itree="17">
      <Node pos="s" depth="0" NCoef="0" IVar="1" Cut="5.9189987182617188e-01" cType="1" res="0.0000000000000000e+00" rms="0.0000000000000000e+00" purity="5.0000000000000000e-01" nType="0">
        <Node pos="l" depth="1" NCoef="0" IVar="6" Cut="1.0002370923757553e-01" cType="1" res="0.0000000000000000e+00" rms="0.0000000000000000e+00" purity="3.0743440985679626e-01" nType="0">
          <Node pos="l" depth="2" NCoef="0" IVar="6" Cut="5.7192418724298477e-02" cType="1" res="0.0000000000000000e+00" rms="0.0000000000000000e+00" purity="1.8737351894378662e-01" nType="0">
            <Node pos="l" depth="3" NCoef="0" IVar="-1" Cut="0.0000000000000000e+00" cType="1" res="-4.9160696566104889e-02" rms="2.8366899490356445e-01" purity="1.5060785412788391e-01" nType="-99"/>
            <Node pos="r" depth="3" NCoef="0" IVar="-1" Cut="0.0000000000000000e+00" cType="1" res="-3.0346602201461792e-02" rms="3.1156510114669800e-01" purity="2.1148124337196350e-01" nType="-99"/>
          </Node>
          <Node pos="r" depth="2" NCoef="0" IVar="3" Cut="6.1904382705688477e-01" cType="1" res="0.0000000000000000e+00" rms="0.0000000000000000e+00" purity="3.3811181783676147e-01" nType="0">
            <Node pos="l" depth="3" NCoef="0" IVar="-1" Cut="0.0000000000000000e+00" cType="1" res="3.5908501595258713e-03" rms="3.5968062281608582e-01" purity="4.1355216503143311e-01" nType="-99"/>
            <Node pos="r" depth="3" NCoef="0" IVar="-1" Cut="0.0000000000000000e+00" cType="1" res="-1.4583233743906021e-02" rms="3.2685169577598572e-01" purity="2.5720271468162537e-01" nType="-99"/>
          </Node>
        </Node>
        <Node pos="r" depth="1" NCoef="0" IVar="5" Cut="6.6656708717346191e-01" cType="1" res="0.0000000000000000e+00" rms="0.0000000000000000e+00" purity="8.0945128202438354e-01" nType="0">
          <Node pos="l" depth="2" NCoef="0" IVar="6" Cut="1.5922717750072479e-01" cType="1" res="0.0000000000000000e+00" rms="0.0000000000000000e+00" purity="8.5387581586837769e-01" nType="0">
            <Node pos="l" depth="3" NCoef="0" IVar="-1" Cut="0.0000000000000000e+00" cType="1" res="3.7240646779537201e-02" rms="2.9214844107627869e-01" purity="8.0318039655685425e-01" nType="-99"/>
            <Node pos="r" depth="3" NCoef="0" IVar="-1" Cut="0.0000000000000000e+00" cType="1" res="4.5212250202894211e-02" rms="2.5227916240692139e-01" purity="8.7856334447860718e-01" nType="-99"/>
          </Node>
          <Node pos="r" depth="2" NCoef="0" IVar="1" Cut="9.2190551757812500e-01" cType="1" res="0.0000000000000000e+00" rms="0.0000000000000000e+00" purity="6.7768168449401855e-01" nType="0">
            <Node pos="l" depth="3" NCoef="0" IVar="-1" Cut="0.0000000000000000e+00" cType="1" res="-1.2923216447234154e-02" rms="3.4325042366981506e-01" purity="5.0889992713928223e-01" nType="-99"/>
            <Node pos="r" depth="3" NCoef="0" IVar="-1" Cut="0.0000000000000000e+00" cType="1" res="4.1775770485401154e-02" rms="2.4894601106643677e-01" purity="9.1187852621078491e-01" nType="-99"/>
          </Node>
        </Node>
      </Node>
    </BinaryTree>
    <BinaryTree type="DecisionTree" boostWeight="1.0000000000000000e+00" itree="18">
      <Node pos="s" depth="0" NCoef="0" IVar="3" Cut="8.5714197158813477e-01" cType="1" res="0.0000000000000000e+00" rms="0.0000000000000000e+00" purity="5.0000000000000000e-01" nType="0">
        <Node pos="l" depth="1" NCoef="0" IVar="0" Cut="4.0996277332305908e-01" cType="1" res="2.7050143107771873e-02" rms="3.2225546240806580e-01" purity="5.6353372335433960e-01" nType="0">
          <Node pos="l" depth="2" NCoef="0" IVar="4" Cut="3.3335134387016296e-01" cType="1" res="0.0000000000000000e+00" rms="0.0000000000000000e+00" purity="2.2067490220069885e-01" nType="0">
            <Node pos="l" depth="3" NCoef="0" IVar="-1" Cut="0.0000000000000000e+00" cType="1" res="-4.8425607383251190e-03" rms="3.5256430506706238e-01" purity="2.9899182915687561e-01" nType="-99"/>
            <Node pos="r" depth="3" NCoef="0" IVar="-1" Cut="0.0000000000000000e+00" cType="1" res="-2.4763895198702812e-02" rms="3.1984215974807739e-01" purity="1.9782772660255432e-01" nType="-99"/>
          </Node>
          <Node pos="r" depth="2" NCoef="0" IVar="4" Cut="8.0952388048171997e-01" cType="1" res="0.0000000000000000e+00" rms="0.0000000000000000e+00" purity="7.4684613943099976e-01" nType="0">
            <Node pos="l" depth="3" NCoef="0" IVar="-1" Cut="0.0000000000000000e+00" cType="1" res="3.7345513701438904e-02" rms="2.9572850465774536e-01" purity="8.0713176727294922e-01" nType="-99"/>
            <Node pos="r" depth="3" NCoef="0" IVar="-1" Cut="0.0000000000000000e+00" cType="1" res="4.1733207763172686e-04" rms="3.6421024799346924e-01" purity="5.4350578784942627e-01" nType="-99"/>
          </Node>
        </Node>
        <Node pos="r" depth="1" NCoef="0" IVar="5" Cut="4.7619661688804626e-01" cType="1" res="0.0000000000000000e+00" rms="0.0000000000000000e+00" purity="3.0683785676956177e-01" nType="0">
          <Node pos="l" depth="2" NCoef="0" IVar="4" Cut="4.7652575373649597e-01" cType="1" res="0.0000000000000000e+00" rms="0.0000000000000000e+00" purity="4.6721148490905762e-01" nType="0">
            <Node pos="l" depth="3" NCoef="0" IVar="-1" Cut="0.0000000000000000e+00" cType="1" res="2.8288846835494041e-02" rms="3.3072075247764587e-01" purity="6.0335355997085571e-01" nType="-99"/>
            <Node pos="r" depth="3" NCoef="0" IVar="-1" Cut="0.0000000000000000e+00" cType="1" res="-2.3589737247675657e-03" rms="3.4345087409019470e-01" purity="3.6646491289138794e-01" nType="-99"/>
          </Node>
          <Node pos="r" depth="2" NCoef="0" IVar="4" Cut="7.1428287029266357e-01" cType="1" res="0.0000000000000000e+00" rms="0.0000000000000000e+00" purity="1.9219598174095154e-01" nType="0">
            <Node pos="l" depth="3" NCoef="0" IVar="-1" Cut="0.0000000000000000e+00" cType="1" res="-3.1947545707225800e-02" rms="2.8191131353378296e-01" purity="2.5368070602416992e-01" nType="-99"/>
            <Node pos="r" depth="3" NCoef="0" IVar="-1" Cut="0.0000000000000000e+00" cType="1" res="-6.4915992319583893e-02" rms="2.3688267171382904e-01" purity="1.0317370295524597e-01" nType="-99"/>
          </Node>
        </Node>
      </Node>
    </BinaryTree>
    <BinaryTree type="DecisionTree" boostWeight="1.0000000000000000e+00" itree="19">
      <Node pos="s" depth="0" NCoef="0" IVar="5" Cut="6.1904895305633545e-01" cType="1" res="0.0000000000000000e+00" rms="0.0000000000000000e+00" purity="5.0000000000000000e-01" nType="0">
        <Node pos="l" depth="1" NCoef="0" IVar="0" Cut="3.6487346887588501e-01" cType="1" res="4.0270309895277023e-02" rms="3.2737010717391968e-01" purity="5.9464144706726074e-01" nType="0">
          <Node pos="l" depth="2" NCoef="0" IVar="1" Cut="6.3939541578292847e-01" cType="1" res="0.0000000000000000e+00" rms="0.0000000000000000e+00" purity="2.4289654195308685e-01" nType="0">
            <Node pos="l" depth="3" NCoef="0" IVar="-1" Cut="0.0000000000000000e+00" cType="1" res="-2.4813845753669739e-02" rms="3.2636895775794983e-01" purity="1.3711005449295044e-01" nType="-99"/>
            <Node pos="r" depth="3" NCoef="0" IVar="-1" Cut="0.0000000000000000e+00" cType="1" res="2.1155035123229027e-02" rms="3.9861395955085754e-01" purity="6.1586576700210571e-01" nType="-99"/>
          </Node>
          <Node pos="r" depth="2" NCoef="0" IVar="3" Cut="9.0475928783416748e-01" cType="1" res="0.0000000000000000e+00" rms="0.0000000000000000e+00" purity="7.5188827514648438e-01" nType="0">
            <Node pos="l" depth="3" NCoef="0" IVar="-1" Cut="0.0000000000000000e+00" cType="1" res="3.5821352154016495e-02" rms="3.0929869413375854e-01" purity="7.8891962766647339e-01" nType="-99"/>
            <Node pos="r" depth="3" NCoef="0" IVar="-1" Cut="0.0000000000000000e+00" cType="1" res="1.1135903187096119e-02" rms="3.4475398063659668e-01" purity="5.4468566179275513e-01" nType="-99"/>
          </Node>
        </Node>
        <Node pos="r" depth="1" NCoef="0" IVar="2" Cut="2.6668414473533630e-01" cType="1" res="0.0000000000000000e+00" rms="0.0000000000000000e+00" purity="3.4180527925491333e-01" nType="0">
          <Node pos="l" depth="2" NCoef="0" IVar="4" Cut="8.0952930450439453e-01" cType="1" res="0.0000000000000000e+00" rms="0.0000000000000000e+00" purity="1.9291234016418457e-01" nType="0">
            <Node pos="l" depth="3" NCoef="0" IVar="-1" Cut="0.0000000000000000e+00" cType="1" res="-3.8436308503150940e-02" rms="2.8221443295478821e-01" purity="2.4064490199089050e-01" nType="-99"/>
            <Node pos="r" depth="3" NCoef="0" IVar="-1" Cut="0.0000000000000000e+00" cType="1" res="-7.7310763299465179e-02" rms="2.3447492718696594e-01" purity="9.4665564596652985e-02" nType="-99"/>
          </Node>
          <Node pos="r" depth="2" NCoef="0" IVar="4" Cut="4.2863702774047852e-01" cType="1" res="0.0000000000000000e+00" rms="0.0000000000000000e+00" purity="7.0605093240737915e-01" nType="0">
            <Node pos="l" depth="3" NCoef="0" IVar="-1" Cut="0.0000000000000000e+00" cType="1" res="3.2035630196332932e-02" rms="2.8941237926483154e-01" purity="7.8092181682586670e-01" nType="-99"/>
            <Node pos="r" depth="3" NCoef="0" IVar="-1" Cut="0.0000000000000000e+00" cType="1" res="2.4531939998269081e-02" rms="3.4809336066246033e-01" purity="6.5567439794540405e-01" nType="-99"/>
          </Node>
        </Node>
      </Node>
    </BinaryTree>
    <BinaryTree type="DecisionTree" boostWeight="1.0000000000000000e+00" itree="20">
      <Node pos="s" depth="0" NCoef="0" IVar="2" Cut="4.0411719679832458e-01" cType="1" res="1.1752492748200893e-02" rms="3.1479182839393616e-01" purity="5.0000000000000000e-01" nType="0">
        <Node pos="l" depth="1" NCoef="0" IVar="1" Cut="8.6371904611587524e-01" cType="1" res="0.0000000000000000e+00" rms="0.0000000000000000e+00" purity="4.5357978343963623e-01" nType="0">
          <Node pos="l" depth="2" NCoef="0" IVar="5" Cut="4.7619661688804626e-01" cType="1" res="0.0000000000000000e+00" rms="0.0000000000000000e+00" purity="3.2354879379272461e-01" nType="0">
            <Node pos="l" depth="3" NCoef="0" IVar="-1" Cut="0.0000000000000000e+00" cType="1" res="9.6150748431682587e-03" rms="3.7323784828186035e-01" purity="4.6531882882118225e-01" nType="-99"/>
            <Node pos="r" depth="3" NCoef="0" IVar="-1" Cut="0.0000000000000000e+00" cType="1" res="-3.4092079848051071e-02" rms="2.9789200425148010e-01" purity="2.1694785356521606e-01" nType="-99"/>
          </Node>
          <Node pos="r" depth="2" NCoef="0" IVar="1" Cut="9.5434015989303589e-01" cType="1" res="0.0000000000000000e+00" rms="0.0000000000000000e+00" purity="9.2396318912506104e-01" nType="0">
            <Node pos="l" depth="3" NCoef="0" IVar="-1" Cut="0.0000000000000000e+00" cType="1" res="2.1454155445098877e-02" rms="2.8735789656639099e-01" purity="8.6733871698379517e-01" nType="-99"/>
            <Node pos="r" depth="3" NCoef="0" IVar="-1" Cut="0.0000000000000000e+00" cType="1" res="5.2828572690486908e-02" rms="1.9202153384685516e-01" purity="9.5602655410766602e-01" nType="-99"/>
          </Node>
        </Node>
        <Node pos="r" depth="1" NCoef="0" IVar="2" Cut="5.1941412687301636e-01" cType="1" res="1.1754693835973740e-01" rms="2.6942768692970276e-01" purity="8.9907270669937134e-01" nType="0">
          <Node pos="l" depth="2" NCoef="0" IVar="-1" Cut="0.0000000000000000e+00" cType="1" res="3.8369618356227875e-02" rms="2.9517757892608643e-01" purity="8.5421246290206909e-01" nType="-99"/>
          <Node pos="r" depth="2" NCoef="0" IVar="-1" Cut="0.0000000000000000e+00" cType="1" res="7.2371125221252441e-02" rms="2.3535628616809845e-01" purity="9.4352036714553833e-01" nType="-99"/>
        </Node>
      </Node>
    </BinaryTree>
    <BinaryTree type="DecisionTree" boostWeight="1.0000000000000000e+00" itree="21">
      <Node pos="s" depth="0" NCoef="0" IVar="5" Cut="6.6666775941848755e-01" cType="1" res="0.0000000000000000e+00" rms="0.0000000000000000e+00" purity="5.0000000000000000e-01" nType="0">
        <Node pos="l" depth="1" NCoef="0" IVar="0" Cut="2.7389183640480042e-01" cType="1" res="2.9793297871947289e-02" rms="3.2330873608589172e-01" purity="5.7718598842620850e-01" nType="0">
          <Node pos="l" depth="2" NCoef="0" IVar="2" Cut="2.6731950044631958e-01" cType="1" res="0.0000000000000000e+00" rms="0.0000000000000000e+00" purity="2.1660132706165314e-01" nType="0">
            <Node pos="l" depth="3" NCoef="0" IVar="-1" Cut="0.0000000000000000e+00" cType="1" res="-2.7011541649699211e-02" rms="3.0151501297950745e-01" purity="1.5847633779048920e-01" nType="-99"/>
            <Node pos="r" depth="3" NCoef="0" IVar="-1" Cut="0.0000000000000000e+00" cType="1" res="8.8331503793597221e-03" rms="4.1482287645339966e-01" purity="4.3587026000022888e-01" nType="-99"/>
          </Node>
          <Node pos="r" depth="2" NCoef="0" IVar="0" Cut="9.3049198389053345e-01" cType="1" res="4.8830512911081314e-02" rms="3.1897014379501343e-01" purity="7.0118588209152222e-01" nType="0">
            <Node pos="l" depth="3" NCoef="0" IVar="-1" Cut="0.0000000000000000e+00" cType="1" res="1.5146254561841488e-02" rms="3.7518477439880371e-01" purity="5.4726773500442505e-01" nType="-99"/>
            <Node pos="r" depth="3" NCoef="0" IVar="-1" Cut="0.0000000000000000e+00" cType="1" res="4.8677183687686920e-02" rms="1.8571634590625763e-01" purity="9.6177828311920166e-01" nType="-99"/>
          </Node>
        </Node>
        <Node pos="r" depth="1" NCoef="0" IVar="0" Cut="9.5418739318847656e-01" cType="1" res="-2.9849449172616005e-02" rms="2.8528496623039246e-01" purity="3.3207643032073975e-01" nType="0">
          <Node pos="l" depth="2" NCoef="0" IVar="1" Cut="8.1826663017272949e-01" cType="1" res="0.0000000000000000e+00" rms="0.0000000000000000e+00" purity="2.3034201562404633e-01" nType="0">
            <Node pos="l" depth="3" NCoef="0" IVar="-1" Cut="0.0000000000000000e+00" cType="1" res="-4.0971226990222931e-02" rms="2.7572834491729736e-01" purity="1.4607748389244080e-01" nType="-99"/>
            <Node pos="r" depth="3" NCoef="0" IVar="-1" Cut="0.0000000000000000e+00" cType="1" res="8.0186454579234123e-03" rms="3.3880537748336792e-01" purity="7.5034618377685547e-01" nType="-99"/>
          </Node>
          <Node pos="r" depth="2" NCoef="0" IVar="-1" Cut="0.0000000000000000e+00" cType="1" res="3.3706437796354294e-02" rms="2.5949749350547791e-01" purity="9.1194695234298706e-01" nType="-99"/>
        </Node>
      </Node>
    </BinaryTree>
    <BinaryTree type="DecisionTree" boostWeight="1.0000000000000000e+00" itree="22">
      <Node pos="s" depth="0" NCoef="0" IVar="1" Cut="9.0902227163314819e-01" cType="1" res="0.0000000000000000e+00" rms="0.0000000000000000e+00" purity="5.0000000000000000e-01" nType="0">
        <Node pos="l" depth="1" NCoef="0" IVar="5" Cut="3.3334121108055115e-01" cType="1" res="0.0000000000000000e+00" rms="0.0000000000000000e+00" purity="3.9081177115440369e-01" nType="0">
          <Node pos="l" depth="2" NCoef="0" IVar="6" Cut="1.3228008151054382e-01" cType="1" res="0.0000000000000000e+00" rms="0.0000000000000000e+00" purity="5.5024170875549316e-01" nType="0">
            <Node pos="l" depth="3" NCoef="0" IVar="-1" Cut="0.0000000000000000e+00" cType="1" res="-1.7901932005770504e-04" rms="3.7144064903259277e-01" purity="4.2916297912597656e-01" nType="-99"/>
            <Node pos="r" depth="3" NCoef="0" IVar="-1" Cut="0.0000000000000000e+00" cType="1" res="2.3033907637000084e-02" rms="3.5831132531166077e-01" purity="5.9716594219207764e-01" nType="-99"/>
          </Node>
          <Node pos="r" depth="2" NCoef="0" IVar="0" Cut="9.5422917604446411e-01" cType="1" res="-2.0432652905583382e-02" rms="3.1707763671875000e-01" purity="3.2341837882995605e-01" nType="0">
            <Node pos="l" depth="3" NCoef="0" IVar="-1" Cut="0.0000000000000000e+00" cType="1" res="-2.0897174254059792e-02" rms="3.2166555523872375e-01" purity="2.3200637102127075e-01" nType="-99"/>
            <Node pos="r" depth="3" NCoef="0" IVar="-1" Cut="0.0000000000000000e+00" cType="1" res="3.2195605337619781e-02" rms="2.7180248498916626e-01" purity="9.0853619575500488e-01" nType="-99"/>
          </Node>
        </Node>
        <Node pos="r" depth="1" NCoef="0" IVar="1" Cut="9.6512007713317871e-01" cType="1" res="6.9374918937683105e-02" rms="1.9833992421627045e-01" purity="9.5031446218490601e-01" nType="0">
          <Node pos="l" depth="2" NCoef="0" IVar="-1" Cut="0.0000000000000000e+00" cType="1" res="3.0393887311220169e-02" rms="2.4404977262020111e-01" purity="9.1790688037872314e-01" nType="-99"/>
          <Node pos="r" depth="2" NCoef="0" IVar="1" Cut="9.9141359329223633e-01" cType="1" res="0.0000000000000000e+00" rms="0.0000000000000000e+00" purity="9.6629768610000610e-01" nType="0">
            <Node pos="l" depth="3" NCoef="0" IVar="-1" Cut="0.0000000000000000e+00" cType="1" res="4.9448482692241669e-02" rms="1.8273450434207916e-01" purity="9.5953571796417236e-01" nType="-99"/>
            <Node pos="r" depth="3" NCoef="0" IVar="-1" Cut="0.0000000000000000e+00" cType="1" res="5.6037995964288712e-02" rms="1.5882638096809387e-01" purity="9.7221654653549194e-01" nType="-99"/>
          </Node>
        </Node>
      </Node>
    </BinaryTree>
    <BinaryTree type="DecisionTree" boostWeight="1.0000000000000000e+00" itree="23">
      <Node pos="s" depth="0" NCoef="0" IVar="1" Cut="5.4659670591354370e-01" cType="1" res="0.0000000000000000e+00" rms="0.0000000000000000e+00" purity="5.0000000000000000e-01" nType="0">
        <Node pos="l" depth="1" NCoef="0" IVar="2" Cut="3.4143251180648804e-01" cType="1" res="-1.4012768864631653e-02" rms="3.2762566208839417e-01" purity="3.0258047580718994e-01" nType="0">
          <Node pos="l" depth="2" NCoef="0" IVar="2" Cut="1.1421140283346176e-01" cType="1" res="0.0000000000000000e+00" rms="0.0000000000000000e+00" purity="2.4249427020549774e-01" nType="0">
            <Node pos="l" depth="3" NCoef="0" IVar="-1" Cut="0.0000000000000000e+00" cType="1" res="-4.8316128551959991e-02" rms="2.5545218586921692e-01" purity="1.3107109069824219e-01" nType="-99"/>
            <Node pos="r" depth="3" NCoef="0" IVar="-1" Cut="0.0000000000000000e+00" cType="1" res="-8.0686816945672035e-03" rms="3.4394419193267822e-01" purity="2.9702964425086975e-01" nType="-99"/>
          </Node>
          <Node pos="r" depth="2" NCoef="0" IVar="-1" Cut="0.0000000000000000e+00" cType="1" res="3.6393400281667709e-02" rms="3.7118148803710938e-01" purity="7.3229157924652100e-01" nType="-99"/>
        </Node>
        <Node pos="r" depth="1" NCoef="0" IVar="2" Cut="1.3511282205581665e-01" cType="1" res="3.9536412805318832e-02" rms="2.8608435392379761e-01" purity="7.5183480978012085e-01" nType="0">
          <Node pos="l" depth="2" NCoef="0" IVar="4" Cut="7.1424818038940430e-01" cType="1" res="0.0000000000000000e+00" rms="0.0000000000000000e+00" purity="5.5883532762527466e-01" nType="0">
            <Node pos="l" depth="3" NCoef="0" IVar="-1" Cut="0.0000000000000000e+00" cType="1" res="1.8961817026138306e-02" rms="3.0475103855133057e-01" purity="6.9124919176101685e-01" nType="-99"/>
            <Node pos="r" depth="3" NCoef="0" IVar="-1" Cut="0.0000000000000000e+00" cType="1" res="-4.3225068598985672e-02" rms="3.1560140848159790e-01" purity="3.0899554491043091e-01" nType="-99"/>
          </Node>
          <Node pos="r" depth="2" NCoef="0" IVar="2" Cut="3.9131265878677368e-01" cType="1" res="5.3123857825994492e-02" rms="2.7535632252693176e-01" purity="8.1594634056091309e-01" nType="0">
            <Node pos="l" depth="3" NCoef="0" IVar="-1" Cut="0.0000000000000000e+00" cType="1" res="2.5823868811130524e-02" rms="2.9239934682846069e-01" purity="7.8039151430130005e-01" nType="-99"/>
            <Node pos="r" depth="3" NCoef="0" IVar="-1" Cut="0.0000000000000000e+00" cType="1" res="5.5752810090780258e-02" rms="1.9145879149436951e-01" purity="9.5517396926879883e-01" nType="-99"/>
          </Node>
        </Node>
      </Node>
    </BinaryTree>
    <BinaryTree type="DecisionTree" boostWeight="1.0000000000000000e+00" itree="24">
      <Node pos="s" depth="0" NCoef="0" IVar="2" Cut="4.0411719679832458e-01" cType="1" res="0.0000000000000000e+00" rms="0.0000000000000000e+00" purity="5.0000000000000000e-01" nType="0">
        <Node pos="l" depth="1" NCoef="0" IVar="5" Cut="7.1428662538528442e-01" cType="1" res="0.0000000000000000e+00" rms="0.0000000000000000e+00" purity="4.5357978343963623e-01" nType="0">
          <Node pos="l" depth="2" NCoef="0" IVar="0" Cut="4.0996277332305908e-01" cType="1" res="1.4642581343650818e-02" rms="3.2384657859802246e-01" purity="5.1751935482025146e-01" nType="0">
            <Node pos="l" depth="3" NCoef="0" IVar="-1" Cut="0.0000000000000000e+00" cType="1" res="-1.6232335940003395e-02" rms="3.2089215517044067e-01" purity="1.9449248909950256e-01" nType="-99"/>
            <Node pos="r" depth="3" NCoef="0" IVar="-1" Cut="0.0000000000000000e+00" cType="1" res="1.9691500812768936e-02" rms="3.2346522808074951e-01" purity="7.0388746261596680e-01" nType="-99"/>
          </Node>
          <Node pos="r" depth="2" NCoef="0" IVar="2" Cut="2.3113925755023956e-01" cType="1" res="0.0000000000000000e+00" rms="0.0000000000000000e+00" purity="2.5231742858886719e-01" nType="0">
            <Node pos="l" depth="3" NCoef="0" IVar="-1" Cut="0.0000000000000000e+00" cType="1" res="-6.1531789600849152e-02" rms="2.3721076548099518e-01" purity="1.3167408108711243e-01" nType="-99"/>
            <Node pos="r" depth="3" NCoef="0" IVar="-1" Cut="0.0000000000000000e+00" cType="1" res="-1.2266574194654822e-03" rms="3.2879295945167542e-01" purity="5.0057822465896606e-01" nType="-99"/>
          </Node>
        </Node>
        <Node pos="r" depth="1" NCoef="0" IVar="2" Cut="5.1941412687301636e-01" cType="1" res="8.8310644030570984e-02" rms="2.6708954572677612e-01" purity="8.9907270669937134e-01" nType="0">
          <Node pos="l" depth="2" NCoef="0" IVar="-1" Cut="0.0000000000000000e+00" cType="1" res="2.9379256069660187e-02" rms="2.9415410757064819e-01" purity="8.5421246290206909e-01" nType="-99"/>
          <Node pos="r" depth="2" NCoef="0" IVar="-1" Cut="0.0000000000000000e+00" cType="1" res="6.5989769995212555e-02" rms="2.3245759308338165e-01" purity="9.4352036714553833e-01" nType="-99"/>
        </Node>
      </Node>
    </BinaryTree>
    <BinaryTree type="DecisionTree" boostWeight="1.0000000000000000e+00" itree="25">
      <Node pos="s" depth="0" NCoef="0" IVar="0" Cut="9.0888953208923340e-01" cType="1" res="8.1886332482099533e-03" rms="3.0886775255203247e-01" purity="5.0000000000000000e-01" nType="0">
        <Node pos="l" depth="1" NCoef="0" IVar="2" Cut="3.9972302317619324e-01" cType="1" res="0.0000000000000000e+00" rms="0.0000000000000000e+00" purity="3.3642491698265076e-01" nType="0">
          <Node pos="l" depth="2" NCoef="0" IVar="2" Cut="1.7165282368659973e-01" cType="1" res="0.0000000000000000e+00" rms="0.0000000000000000e+00" purity="2.9337203502655029e-01" nType="0">
            <Node pos="l" depth="3" NCoef="0" IVar="-1" Cut="0.0000000000000000e+00" cType="1" res="-2.6026096194982529e-02" rms="2.9327893257141113e-01" purity="1.8971787393093109e-01" nType="-99"/>
            <Node pos="r" depth="3" NCoef="0" IVar="-1" Cut="0.0000000000000000e+00" cType="1" res="2.7214086148887873e-03" rms="3.7063148617744446e-01" purity="4.0794947743415833e-01" nType="-99"/>
          </Node>
          <Node pos="r" depth="2" NCoef="0" IVar="-1" Cut="0.0000000000000000e+00" cType="1" res="3.7362735718488693e-02" rms="3.4724122285842896e-01" purity="8.2040762901306152e-01" nType="-99"/>
        </Node>
        <Node pos="r" depth="1" NCoef="0" IVar="1" Cut="5.0462734699249268e-01" cType="1" res="0.0000000000000000e+00" rms="0.0000000000000000e+00" purity="9.4099938869476318e-01" nType="0">
          <Node pos="l" depth="2" NCoef="0" IVar="-1" Cut="0.0000000000000000e+00" cType="1" res="3.0087359249591827e-02" rms="2.9218879342079163e-01" purity="8.8898801803588867e-01" nType="-99"/>
          <Node pos="r" depth="2" NCoef="0" IVar="4" Cut="6.1905723810195923e-01" cType="1" res="4.6385794878005981e-02" rms="1.8218119442462921e-01" purity="9.5956295728683472e-01" nType="0">
            <Node pos="l" depth="3" NCoef="0" IVar="-1" Cut="0.0000000000000000e+00" cType="1" res="4.6838462352752686e-02" rms="1.5070001780986786e-01" purity="9.7406005859375000e-01" nType="-99"/>
            <Node pos="r" depth="3" NCoef="0" IVar="-1" Cut="0.0000000000000000e+00" cType="1" res="2.4042496457695961e-02" rms="2.3722591996192932e-01" purity="9.2727512121200562e-01" nType="-99"/>
          </Node>
        </Node>
      </Node>
    </BinaryTree>
    <BinaryTree type="DecisionTree" boostWeight="1.0000000000000000e+00" itree="26">
      <Node pos="s" depth="0" NCoef="0" IVar="0" Cut="9.0888953208923340e-01" cType="1" res="7.6439427211880684e-03" rms="3.0820745229721069e-01" purity="5.0000000000000000e-01" nType="0">
        <Node pos="l" depth="1" NCoef="0" IVar="1" Cut="9.5432543754577637e-01" cType="1" res="-6.0536991804838181e-03" rms="3.3479186892509460e-01" purity="3.3642491698265076e-01" nType="0">
          <Node pos="l" depth="2" NCoef="0" IVar="5" Cut="7.1428900957107544e-01" cType="1" res="-1.5019217506051064e-02" rms="3.4227117896080017e-01" purity="2.7499487996101379e-01" nType="0">
            <Node pos="l" depth="3" NCoef="0" IVar="-1" Cut="0.0000000000000000e+00" cType="1" res="-1.9095599418506026e-03" rms="3.6578470468521118e-01" purity="3.2279148697853088e-01" nType="-99"/>
            <Node pos="r" depth="3" NCoef="0" IVar="-1" Cut="0.0000000000000000e+00" cType="1" res="-3.4584417939186096e-02" rms="2.7221548557281494e-01" purity="1.5478517115116119e-01" nType="-99"/>
          </Node>
          <Node pos="r" depth="2" NCoef="0" IVar="-1" Cut="0.0000000000000000e+00" cType="1" res="4.3643694370985031e-02" rms="2.3393151164054871e-01" purity="9.3136596679687500e-01" nType="-99"/>
        </Node>
        <Node pos="r" depth="1" NCoef="0" IVar="5" Cut="3.3331456780433655e-01" cType="1" res="0.0000000000000000e+00" rms="0.0000000000000000e+00" purity="9.4099938869476318e-01" nType="0">
          <Node pos="l" depth="2" NCoef="0" IVar="2" Cut="2.7328631281852722e-01" cType="1" res="0.0000000000000000e+00" rms="0.0000000000000000e+00" purity="9.6945160627365112e-01" nType="0">
            <Node pos="l" depth="3" NCoef="0" IVar="-1" Cut="0.0000000000000000e+00" cType="1" res="4.3741568922996521e-02" rms="1.8306078016757965e-01" purity="9.6373134851455688e-01" nType="-99"/>
            <Node pos="r" depth="3" NCoef="0" IVar="-1" Cut="0.0000000000000000e+00" cType="1" res="4.8107955604791641e-02" rms="1.4097110927104950e-01" purity="9.7924381494522095e-01" nType="-99"/>
          </Node>
          <Node pos="r" depth="2" NCoef="0" IVar="2" Cut="2.0435670018196106e-01" cType="1" res="0.0000000000000000e+00" rms="0.0000000000000000e+00" purity="9.2148423194885254e-01" nType="0">
            <Node pos="l" depth="3" NCoef="0" IVar="-1" Cut="0.0000000000000000e+00" cType="1" res="8.2220062613487244e-03" rms="3.1184729933738708e-01" purity="8.6018180847167969e-01" nType="-99"/>
            <Node pos="r" depth="3" NCoef="0" IVar="-1" Cut="0.0000000000000000e+00" cType="1" res="3.9945248514413834e-02" rms="1.9133682548999786e-01" purity="9.5818418264389038e-01" nType="-99"/>
          </Node>
        </Node>
      </Node>
    </BinaryTree>
    <BinaryTree type="DecisionTree" boostWeight="1.0000000000000000e+00" itree="27">
      <Node pos="s" depth="0" NCoef="0" IVar="0" Cut="2.7389183640480042e-01" cType="1" res="7.1692904457449913e-03" rms="3.0764678120613098e-01" purity="5.0000000000000000e-01" nType="0">
        <Node pos="l" depth="1" NCoef="0" IVar="1" Cut="5.9522271156311035e-01" cType="1" res="0.0000000000000000e+00" rms="0.0000000000000000e+00" purity="1.6741344332695007e-01" nType="0">
          <Node pos="l" depth="2" NCoef="0" IVar="2" Cut="1.0048118233680725e-01" cType="1" res="0.0000000000000000e+00" rms="0.0000000000000000e+00" purity="8.9625343680381775e-02" nType="0">
            <Node pos="l" depth="3" NCoef="0" IVar="-1" Cut="0.0000000000000000e+00" cType="1" res="-6.4254753291606903e-02" rms="1.6440092027187347e-01" purity="2.8773935511708260e-02" nType="-99"/>
            <Node pos="r" depth="3" NCoef="0" IVar="-1" Cut="0.0000000000000000e+00" cType="1" res="-2.4297192692756653e-02" rms="2.9378002882003784e-01" purity="1.1277040094137192e-01" nType="-99"/>
          </Node>
          <Node pos="r" depth="2" NCoef="0" IVar="-1" Cut="0.0000000000000000e+00" cType="1" res="-1.3417079753708094e-04" rms="3.8231387734413147e-01" purity="4.7552841901779175e-01" nType="-99"/>
        </Node>
        <Node pos="r" depth="1" NCoef="0" IVar="2" Cut="1.3510994613170624e-01" cType="1" res="2.0613811910152435e-02" rms="3.1246429681777954e-01" purity="6.3220977783203125e-01" nType="0">
          <Node pos="l" depth="2" NCoef="0" IVar="5" Cut="5.5651450157165527e-01" cType="1" res="0.0000000000000000e+00" rms="0.0000000000000000e+00" purity="4.0773695707321167e-01" nType="0">
            <Node pos="l" depth="3" NCoef="0" IVar="-1" Cut="0.0000000000000000e+00" cType="1" res="1.0671443305909634e-02" rms="3.3389341831207275e-01" purity="5.9134441614151001e-01" nType="-99"/>
            <Node pos="r" depth="3" NCoef="0" IVar="-1" Cut="0.0000000000000000e+00" cType="1" res="-3.9533477276563644e-02" rms="2.7482974529266357e-01" purity="2.1122179925441742e-01" nType="-99"/>
          </Node>
          <Node pos="r" depth="2" NCoef="0" IVar="1" Cut="2.7924713492393494e-01" cType="1" res="3.4679722040891647e-02" rms="3.1274801492691040e-01" purity="7.2036606073379517e-01" nType="0">
            <Node pos="l" depth="3" NCoef="0" IVar="-1" Cut="0.0000000000000000e+00" cType="1" res="-1.4073983948037494e-05" rms="3.5966396331787109e-01" purity="5.2505403757095337e-01" nType="-99"/>
            <Node pos="r" depth="3" NCoef="0" IVar="-1" Cut="0.0000000000000000e+00" cType="1" res="2.5816034525632858e-02" rms="3.0068889260292053e-01" purity="7.6412028074264526e-01" nType="-99"/>
          </Node>
        </Node>
      </Node>
    </BinaryTree>
    <BinaryTree type="DecisionTree" boostWeight="1.0000000000000000e+00" itree="28">
      <Node pos="s" depth="0" NCoef="0" IVar="2" Cut="5.3862082958221436e-01" cType="1" res="6.6043129190802574e-03" rms="3.0703821778297424e-01" purity="5.0000000000000000e-01" nType="0">
        <Node pos="l" depth="1" NCoef="0" IVar="1" Cut="9.0902227163314819e-01" cType="1" res="2.0037875510752201e-03" rms="3.0988433957099915e-01" purity="4.7771203517913818e-01" nType="0">
          <Node pos="l" depth="2" NCoef="0" IVar="2" Cut="3.0794328451156616e-01" cType="1" res="0.0000000000000000e+00" rms="0.0000000000000000e+00" purity="3.6839604377746582e-01" nType="0">
            <Node pos="l" depth="3" NCoef="0" IVar="-1" Cut="0.0000000000000000e+00" cType="1" res="-1.0473931208252907e-02" rms="3.2169815897941589e-01" purity="3.0809155106544495e-01" nType="-99"/>
            <Node pos="r" depth="3" NCoef="0" IVar="-1" Cut="0.0000000000000000e+00" cType="1" res="1.5088804066181183e-02" rms="3.6311927437782288e-01" purity="6.9195985794067383e-01" nType="-99"/>
          </Node>
          <Node pos="r" depth="2" NCoef="0" IVar="1" Cut="9.6512007713317871e-01" cType="1" res="4.6576440334320068e-02" rms="2.0295019447803497e-01" purity="9.4661861658096313e-01" nType="0">
            <Node pos="l" depth="3" NCoef="0" IVar="-1" Cut="0.0000000000000000e+00" cType="1" res="2.0782751962542534e-02" rms="2.4949836730957031e-01" purity="9.1210907697677612e-01" nType="-99"/>
            <Node pos="r" depth="3" NCoef="0" IVar="-1" Cut="0.0000000000000000e+00" cType="1" res="4.5074105262756348e-02" rms="1.7465329170227051e-01" purity="9.6376413106918335e-01" nType="-99"/>
          </Node>
        </Node>
        <Node pos="r" depth="1" NCoef="0" IVar="-1" Cut="0.0000000000000000e+00" cType="1" res="6.1997067183256149e-02" rms="2.2329799830913544e-01" purity="9.4919043779373169e-01" nType="-99"/>
      </Node>
    </BinaryTree>
    <BinaryTree type="DecisionTree" boostWeight="1.0000000000000000e+00" itree="29">
      <Node pos="s" depth="0" NCoef="0" IVar="2" Cut="5.3862082958221436e-01" cType="1" res="0.0000000000000000e+00" rms="0.0000000000000000e+00" purity="5.0000000000000000e-01" nType="0">
        <Node pos="l" depth="1" NCoef="0" IVar="0" Cut="9.0888953208923340e-01" cType="1" res="2.0962324924767017e-03" rms="3.0958884954452515e-01" purity="4.7771203517913818e-01" nType="0">
          <Node pos="l" depth="2" NCoef="0" IVar="1" Cut="9.5432543754577637e-01" cType="1" res="-9.7179180011153221e-03" rms="3.3377099037170410e-01" purity="3.1550669670104980e-01" nType="0">
            <Node pos="l" depth="3" NCoef="0" IVar="-1" Cut="0.0000000000000000e+00" cType="1" res="-1.0373094119131565e-02" rms="3.4075739979743958e-01" purity="2.5536063313484192e-01" nType="-99"/>
            <Node pos="r" depth="3" NCoef="0" IVar="-1" Cut="0.0000000000000000e+00" cType="1" res="3.5597514361143112e-02" rms="2.4128301441669464e-01" purity="9.2652940750122070e-01" nType="-99"/>
          </Node>
          <Node pos="r" depth="2" NCoef="0" IVar="5" Cut="7.1419125795364380e-01" cType="1" res="0.0000000000000000e+00" rms="0.0000000000000000e+00" purity="9.3631714582443237e-01" nType="0">
            <Node pos="l" depth="3" NCoef="0" IVar="-1" Cut="0.0000000000000000e+00" cType="1" res="3.2540846616029739e-02" rms="2.0739804208278656e-01" purity="9.4946509599685669e-01" nType="-99"/>
            <Node pos="r" depth="3" NCoef="0" IVar="-1" Cut="0.0000000000000000e+00" cType="1" res="7.7250795438885689e-03" rms="2.9432052373886108e-01" purity="8.7014460563659668e-01" nType="-99"/>
          </Node>
        </Node>
        <Node pos="r" depth="1" NCoef="0" IVar="-1" Cut="0.0000000000000000e+00" cType="1" res="5.7780571281909943e-02" rms="2.2005340456962585e-01" purity="9.4919043779373169e-01" nType="-99"/>
      </Node>
    </BinaryTree>
    <BinaryTree type="DecisionTree" boostWeight="1.0000000000000000e+00" itree="30">
      <Node pos="s" depth="0" NCoef="0" IVar="2" Cut="1.3510994613170624e-01" cType="1" res="0.0000000000000000e+00" rms="0.0000000000000000e+00" purity="5.0000000000000000e-01" nType="0">
        <Node pos="l" depth="1" NCoef="0" IVar="4" Cut="7.1430039405822754e-01" cType="1" res="-1.9144011661410332e-02" rms="2.7872100472450256e-01" purity="2.8916361927986145e-01" nType="0">
          <Node pos="l" depth="2" NCoef="0" IVar="5" Cut="5.9593427181243896e-01" cType="1" res="0.0000000000000000e+00" rms="0.0000000000000000e+00" purity="3.8467097282409668e-01" nType="0">
            <Node pos="l" depth="3" NCoef="0" IVar="-1" Cut="0.0000000000000000e+00" cType="1" res="1.8498471006751060e-02" rms="3.1594046950340271e-01" purity="5.5084723234176636e-01" nType="-99"/>
            <Node pos="r" depth="3" NCoef="0" IVar="-1" Cut="0.0000000000000000e+00" cType="1" res="-3.3721864223480225e-02" rms="2.4460346996784210e-01" purity="1.7715084552764893e-01" nType="-99"/>
          </Node>
          <Node pos="r" depth="2" NCoef="0" IVar="2" Cut="7.7460817992687225e-02" cType="1" res="0.0000000000000000e+00" rms="0.0000000000000000e+00" purity="1.5892921388149261e-01" nType="0">
            <Node pos="l" depth="3" NCoef="0" IVar="-1" Cut="0.0000000000000000e+00" cType="1" res="-5.5086310952901840e-02" rms="2.4293242394924164e-01" purity="1.2520366907119751e-01" nType="-99"/>
            <Node pos="r" depth="3" NCoef="0" IVar="-1" Cut="0.0000000000000000e+00" cType="1" res="-3.0087193474173546e-02" rms="2.7763181924819946e-01" purity="1.8638308346271515e-01" nType="-99"/>
          </Node>
        </Node>
        <Node pos="r" depth="1" NCoef="0" IVar="0" Cut="2.2853484749794006e-01" cType="1" res="1.7174156382679939e-02" rms="3.1704354286193848e-01" purity="5.9639567136764526e-01" nType="0">
          <Node pos="l" depth="2" NCoef="0" IVar="1" Cut="5.9581816196441650e-01" cType="1" res="-1.9171655178070068e-02" rms="3.2522773742675781e-01" purity="2.1735820174217224e-01" nType="0">
            <Node pos="l" depth="3" NCoef="0" IVar="-1" Cut="0.0000000000000000e+00" cType="1" res="-2.0726576447486877e-02" rms="3.0359977483749390e-01" purity="1.2200188636779785e-01" nType="-99"/>
            <Node pos="r" depth="3" NCoef="0" IVar="-1" Cut="0.0000000000000000e+00" cType="1" res="2.2112848237156868e-03" rms="3.9033260941505432e-01" purity="5.4926973581314087e-01" nType="-99"/>
          </Node>
          <Node pos="r" depth="2" NCoef="0" IVar="1" Cut="2.7924713492393494e-01" cType="1" res="2.6894845068454742e-02" rms="3.1410661339759827e-01" purity="6.9776922464370728e-01" nType="0">
            <Node pos="l" depth="3" NCoef="0" IVar="-1" Cut="0.0000000000000000e+00" cType="1" res="1.3809886877425015e-04" rms="3.5686871409416199e-01" purity="4.9039268493652344e-01" nType="-99"/>
            <Node pos="r" depth="3" NCoef="0" IVar="-1" Cut="0.0000000000000000e+00" cType="1" res="2.1241977810859680e-02" rms="3.0272570252418518e-01" purity="7.4700188636779785e-01" nType="-99"/>
          </Node>
        </Node>
      </Node>
    </BinaryTree>
    <BinaryTree type="DecisionTree" boostWeight="1.0000000000000000e+00" itree="31">
      <Node pos="s" depth="0" NCoef="0" IVar="6" Cut="1.1261205375194550e-01" cType="1" res="0.0000000000000000e+00" rms="0.0000000000000000e+00" purity="5.0000000000000000e-01" nType="0">
        <Node pos="l" depth="1" NCoef="0" IVar="1" Cut="8.6483979225158691e-01" cType="1" res="0.0000000000000000e+00" rms="0.0000000000000000e+00" purity="3.6265298724174500e-01" nType="0">
          <Node pos="l" depth="2" NCoef="0" IVar="1" Cut="4.0268197655677795e-01" cType="1" res="0.0000000000000000e+00" rms="0.0000000000000000e+00" purity="2.4793046712875366e-01" nType="0">
            <Node pos="l" depth="3" NCoef="0" IVar="-1" Cut="0.0000000000000000e+00" cType="1" res="-3.5150066018104553e-02" rms="2.7430394291877747e-01" purity="1.7501385509967804e-01" nType="-99"/>
            <Node pos="r" depth="3" NCoef="0" IVar="-1" Cut="0.0000000000000000e+00" cType="1" res="-9.5834257081151009e-03" rms="3.3771935105323792e-01" purity="3.1233659386634827e-01" nType="-99"/>
          </Node>
          <Node pos="r" depth="2" NCoef="0" IVar="-1" Cut="0.0000000000000000e+00" cType="1" res="1.7026295885443687e-02" rms="2.5736185908317566e-01" purity="8.9747399091720581e-01" nType="-99"/>
        </Node>
        <Node pos="r" depth="1" NCoef="0" IVar="2" Cut="2.6961630582809448e-01" cType="1" res="1.1978466995060444e-02" rms="3.0611050128936768e-01" purity="5.3873449563980103e-01" nType="0">
          <Node pos="l" depth="2" NCoef="0" IVar="5" Cut="6.6632604598999023e-01" cType="1" res="1.8549447122495621e-04" rms="3.0804207921028137e-01" purity="4.2609283328056335e-01" nType="0">
            <Node pos="l" depth="3" NCoef="0" IVar="-1" Cut="0.0000000000000000e+00" cType="1" res="9.9401744082570076e-03" rms="3.2526051998138428e-01" purity="5.2887654304504395e-01" nType="-99"/>
            <Node pos="r" depth="3" NCoef="0" IVar="-1" Cut="0.0000000000000000e+00" cType="1" res="-3.0548503622412682e-02" rms="2.6237154006958008e-01" purity="1.9703741371631622e-01" nType="-99"/>
          </Node>
          <Node pos="r" depth="2" NCoef="0" IVar="5" Cut="8.5703963041305542e-01" cType="1" res="0.0000000000000000e+00" rms="0.0000000000000000e+00" purity="7.8131550550460815e-01" nType="0">
            <Node pos="l" depth="3" NCoef="0" IVar="-1" Cut="0.0000000000000000e+00" cType="1" res="2.7570668607950211e-02" rms="2.9545632004737854e-01" purity="8.0400973558425903e-01" nType="-99"/>
            <Node pos="r" depth="3" NCoef="0" IVar="-1" Cut="0.0000000000000000e+00" cType="1" res="-2.9410468414425850e-03" rms="3.2419717311859131e-01" purity="6.4869642257690430e-01" nType="-99"/>
          </Node>
        </Node>
      </Node>
    </BinaryTree>
    <BinaryTree type="DecisionTree" boostWeight="1.0000000000000000e+00" itree="32">
      <Node pos="s" depth="0" NCoef="0" IVar="2" Cut="5.3862082958221436e-01" cType="1" res="0.0000000000000000e+00" rms="0.0000000000000000e+00" purity="5.0000000000000000e-01" nType="0">
        <Node pos="l" depth="1" NCoef="0" IVar="0" Cut="9.5424652099609375e-01" cType="1" res="1.4559093397110701e-03" rms="3.0831789970397949e-01" purity="4.7771203517913818e-01" nType="0">
          <Node pos="l" depth="2" NCoef="0" IVar="1" Cut="9.5432543754577637e-01" cType="1" res="-7.1866703219711781e-03" rms="3.2908183336257935e-01" purity="3.5702231526374817e-01" nType="0">
            <Node pos="l" depth="3" NCoef="0" IVar="-1" Cut="0.0000000000000000e+00" cType="1" res="-8.4878327324986458e-03" rms="3.3867767453193665e-01" purity="2.9026940464973450e-01" nType="-99"/>
            <Node pos="r" depth="3" NCoef="0" IVar="-1" Cut="0.0000000000000000e+00" cType="1" res="3.3162046223878860e-02" rms="2.2211800515651703e-01" purity="9.3809276819229126e-01" nType="-99"/>
          </Node>
          <Node pos="r" depth="2" NCoef="0" IVar="0" Cut="9.8448783159255981e-01" cType="1" res="3.5283695906400681e-02" rms="2.0450095832347870e-01" purity="9.5010191202163696e-01" nType="0">
            <Node pos="l" depth="3" NCoef="0" IVar="-1" Cut="0.0000000000000000e+00" cType="1" res="2.0334059372544289e-02" rms="2.2708544135093689e-01" purity="9.3613302707672119e-01" nType="-99"/>
            <Node pos="r" depth="3" NCoef="0" IVar="-1" Cut="0.0000000000000000e+00" cType="1" res="3.6072358489036560e-02" rms="1.9154195487499237e-01" purity="9.5730465650558472e-01" nType="-99"/>
          </Node>
        </Node>
        <Node pos="r" depth="1" NCoef="0" IVar="-1" Cut="0.0000000000000000e+00" cType="1" res="5.2586548030376434e-02" rms="2.1655489504337311e-01" purity="9.4919043779373169e-01" nType="-99"/>
      </Node>
    </BinaryTree>
    <BinaryTree type="DecisionTree" boostWeight="1.0000000000000000e+00" itree="33">
      <Node pos="s" depth="0" NCoef="0" IVar="0" Cut="3.1924882531166077e-01" cType="1" res="4.5488290488719940e-03" rms="3.0460962653160095e-01" purity="5.0000000000000000e-01" nType="0">
        <Node pos="l" depth="1" NCoef="0" IVar="5" Cut="6.6666775941848755e-01" cType="1" res="0.0000000000000000e+00" rms="0.0000000000000000e+00" purity="1.7367564141750336e-01" nType="0">
          <Node pos="l" depth="2" NCoef="0" IVar="6" Cut="2.6687467098236084e-01" cType="1" res="-7.6480163261294365e-03" rms="3.2838219404220581e-01" purity="2.2465328872203827e-01" nType="0">
            <Node pos="l" depth="3" NCoef="0" IVar="-1" Cut="0.0000000000000000e+00" cType="1" res="-1.0231743566691875e-02" rms="3.1718859076499939e-01" purity="2.0617929100990295e-01" nType="-99"/>
            <Node pos="r" depth="3" NCoef="0" IVar="-1" Cut="0.0000000000000000e+00" cType="1" res="9.0493718162178993e-03" rms="3.6374753713607788e-01" purity="2.8886181116104126e-01" nType="-99"/>
          </Node>
          <Node pos="r" depth="2" NCoef="0" IVar="2" Cut="1.9269390404224396e-01" cType="1" res="0.0000000000000000e+00" rms="0.0000000000000000e+00" purity="9.1611221432685852e-02" nType="0">
            <Node pos="l" depth="3" NCoef="0" IVar="-1" Cut="0.0000000000000000e+00" cType="1" res="-6.7583553493022919e-02" rms="1.6098408401012421e-01" purity="3.0462030321359634e-02" nType="-99"/>
            <Node pos="r" depth="3" NCoef="0" IVar="-1" Cut="0.0000000000000000e+00" cType="1" res="-1.3592524453997612e-02" rms="3.1324452161788940e-01" purity="2.0650172233581543e-01" nType="-99"/>
          </Node>
        </Node>
        <Node pos="r" depth="1" NCoef="0" IVar="5" Cut="7.6190805435180664e-01" cType="1" res="0.0000000000000000e+00" rms="0.0000000000000000e+00" purity="6.5204066038131714e-01" nType="0">
          <Node pos="l" depth="2" NCoef="0" IVar="1" Cut="3.2008069753646851e-01" cType="1" res="2.0873911678791046e-02" rms="3.1024271249771118e-01" purity="6.7978125810623169e-01" nType="0">
            <Node pos="l" depth="3" NCoef="0" IVar="-1" Cut="0.0000000000000000e+00" cType="1" res="-2.3048117291182280e-03" rms="3.4910157322883606e-01" purity="4.9251481890678406e-01" nType="-99"/>
