<?xml version="1.0"?>
<MethodSetup Method="BDT::BDTG">
  <GeneralInfo>
    <Info name="TMVA Release" value="4.2.0 [262656]"/>
    <Info name="ROOT Release" value="6.02/05 [393733]"/>
    <Info name="Creator" value="cyeh"/>
    <Info name="Date" value="Thu Jul 14 18:51:01 2016"/>
    <Info name="Host" value="Linux cmsbuild13.cern.ch 2.6.32-504.8.1.el6.x86_64 #1 SMP Wed Jan 28 08:50:46 CET 2015 x86_64 x86_64 x86_64 GNU/Linux"/>
    <Info name="Dir" value="/afs/cern.ch/user/c/cyeh/bjetregression2016/TMVA_jetGenJet_nu"/>
    <Info name="Training events" value="4936920"/>
    <Info name="TrainingTime" value="9.84635678e+03"/>
    <Info name="AnalysisType" value="Regression"/>
  </GeneralInfo>
  <Options>
    <Option name="V" modified="No">False</Option>
    <Option name="VerbosityLevel" modified="No">Default</Option>
    <Option name="VarTransform" modified="No">None</Option>
    <Option name="H" modified="No">False</Option>
    <Option name="CreateMVAPdfs" modified="No">False</Option>
    <Option name="IgnoreNegWeightsInTraining" modified="No">False</Option>
    <Option name="NTrees" modified="Yes">500</Option>
    <Option name="MaxDepth" modified="Yes">5</Option>
    <Option name="MinNodeSize" modified="Yes">1</Option>
    <Option name="nCuts" modified="Yes">500</Option>
    <Option name="BoostType" modified="Yes">Grad</Option>
    <Option name="AdaBoostR2Loss" modified="No">quadratic</Option>
    <Option name="UseBaggedBoost" modified="No">False</Option>
    <Option name="Shrinkage" modified="Yes">1.000000e-01</Option>
    <Option name="AdaBoostBeta" modified="No">5.000000e-01</Option>
    <Option name="UseRandomisedTrees" modified="No">False</Option>
    <Option name="UseNvars" modified="No">4</Option>
    <Option name="UsePoissonNvars" modified="No">True</Option>
    <Option name="BaggedSampleFraction" modified="No">6.000000e-01</Option>
    <Option name="UseYesNoLeaf" modified="No">False</Option>
    <Option name="NegWeightTreatment" modified="Yes">ignorenegweightsintraining</Option>
    <Option name="Css" modified="No">1.000000e+00</Option>
    <Option name="Cts_sb" modified="No">1.000000e+00</Option>
    <Option name="Ctb_ss" modified="No">1.000000e+00</Option>
    <Option name="Cbb" modified="No">1.000000e+00</Option>
    <Option name="NodePurityLimit" modified="No">5.000000e-01</Option>
    <Option name="SeparationType" modified="No">regressionvariance</Option>
    <Option name="DoBoostMonitor" modified="No">False</Option>
    <Option name="UseFisherCuts" modified="No">False</Option>
    <Option name="MinLinCorrForFisher" modified="No">8.000000e-01</Option>
    <Option name="UseExclusiveVars" modified="No">False</Option>
    <Option name="DoPreselection" modified="No">False</Option>
    <Option name="SigToBkgFraction" modified="No">1.000000e+00</Option>
    <Option name="PruneMethod" modified="Yes">costcomplexity</Option>
    <Option name="PruneStrength" modified="Yes">5.000000e+00</Option>
    <Option name="PruningValFraction" modified="No">5.000000e-01</Option>
    <Option name="nEventsMin" modified="No">0</Option>
    <Option name="UseBaggedGrad" modified="Yes">False</Option>
    <Option name="GradBaggingFraction" modified="No">6.000000e-01</Option>
    <Option name="UseNTrainEvents" modified="No">0</Option>
    <Option name="NNodesMax" modified="No">0</Option>
  </Options>
  <Variables NVar="18">
    <Variable VarIndex="0" Expression="Jet_pt" Label="Jet_pt" Title="Jet_pt" Unit="" Internal="Jet_pt" Type="F" Min="7.20417643e+00" Max="1.64755200e+03"/>
    <Variable VarIndex="1" Expression="Jet_corr" Label="Jet_corr" Title="Jet_corr" Unit="" Internal="Jet_corr" Type="F" Min="4.65190321e-01" Max="1.36874652e+00"/>
    <Variable VarIndex="2" Expression="Jet_eta" Label="Jet_eta" Title="Jet_eta" Unit="" Internal="Jet_eta" Type="F" Min="-2.39998627e+00" Max="2.39999795e+00"/>
    <Variable VarIndex="3" Expression="Jet_mt" Label="Jet_mt" Title="Jet_mt" Unit="" Internal="Jet_mt" Type="F" Min="7.37129688e+00" Max="1.65049939e+03"/>
    <Variable VarIndex="4" Expression="Jet_leadTrackPt" Label="Jet_leadTrackPt" Title="Jet_leadTrackPt" Unit="" Internal="Jet_leadTrackPt" Type="F" Min="0.00000000e+00" Max="1.12600000e+03"/>
    <Variable VarIndex="5" Expression="Jet_leptonPtRel" Label="Jet_leptonPtRel" Title="Jet_leptonPtRel" Unit="" Internal="Jet_leptonPtRel" Type="F" Min="0.00000000e+00" Max="1.15900230e+00"/>
    <Variable VarIndex="6" Expression="Jet_leptonPt" Label="Jet_leptonPt" Title="Jet_leptonPt" Unit="" Internal="Jet_leptonPt" Type="F" Min="0.00000000e+00" Max="7.34000000e+02"/>
    <Variable VarIndex="7" Expression="Jet_leptonDeltaR" Label="Jet_leptonDeltaR" Title="Jet_leptonDeltaR" Unit="" Internal="Jet_leptonDeltaR" Type="F" Min="0.00000000e+00" Max="5.27178705e-01"/>
    <Variable VarIndex="8" Expression="Jet_totHEF" Label="Jet_totHEF" Title="Jet_totHEF" Unit="" Internal="Jet_totHEF" Type="F" Min="0.00000000e+00" Max="1.00000036e+00"/>
    <Variable VarIndex="9" Expression="Jet_neEmEF" Label="Jet_neEmEF" Title="Jet_neEmEF" Unit="" Internal="Jet_neEmEF" Type="F" Min="0.00000000e+00" Max="1.00000024e+00"/>
    <Variable VarIndex="10" Expression="Jet_vtxPt" Label="Jet_vtxPt" Title="Jet_vtxPt" Unit="" Internal="Jet_vtxPt" Type="F" Min="0.00000000e+00" Max="7.44094116e+02"/>
    <Variable VarIndex="11" Expression="Jet_vtxMass" Label="Jet_vtxMass" Title="Jet_vtxMass" Unit="" Internal="Jet_vtxMass" Type="F" Min="0.00000000e+00" Max="6.49954700e+00"/>
    <Variable VarIndex="12" Expression="Jet_vtx3dL" Label="Jet_vtx3dL" Title="Jet_vtx3dL" Unit="" Internal="Jet_vtx3dL" Type="F" Min="0.00000000e+00" Max="1.40989542e+01"/>
    <Variable VarIndex="13" Expression="Jet_vtxNtrk" Label="Jet_vtxNtrk" Title="Jet_vtxNtrk" Unit="" Internal="Jet_vtxNtrk" Type="F" Min="0.00000000e+00" Max="1.40000000e+01"/>
    <Variable VarIndex="14" Expression="Jet_vtx3deL" Label="Jet_vtx3deL" Title="Jet_vtx3deL" Unit="" Internal="Jet_vtx3deL" Type="F" Min="0.00000000e+00" Max="3.77342560e+02"/>
    <Variable VarIndex="15" Expression="nPVs" Label="nPVs" Title="nPVs" Unit="" Internal="nPVs" Type="F" Min="1.00000000e+00" Max="5.00000000e+01"/>
    <Variable VarIndex="16" Expression="Jet_pfMET_T1JERUp" Label="Jet_pfMET_T1JERUp" Title="Jet_pfMET_T1JERUp" Unit="" Internal="Jet_pfMET_T1JERUp" Type="F" Min="2.70318687e-02" Max="7.48310242e+02"/>
    <Variable VarIndex="17" Expression="Jet_METDPhi" Label="Jet_METDPhi" Title="Jet_METDPhi" Unit="" Internal="Jet_METDPhi" Type="F" Min="-3.14159250e+00" Max="3.14158487e+00"/>
  </Variables>
  <Spectators NSpec="0"/>
  <Classes NClass="1">
    <Class Name="Regression" Index="0"/>
  </Classes>
  <Targets NTrgt="1">
    <Target TargetIndex="0" Expression="Jet_genjetPt/Jet_pt" Label="Jet_genjetPt/Jet_pt" Title="Jet_genjetPt/Jet_pt" Unit="" Internal="Jet_genjetPt_D_Jet_pt" Type="F" Min="1.11152627e-01" Max="2.34906368e+01"/>
  </Targets>
  <Transformations NTransformations="0"/>
  <MVAPdfs/>
  <Weights NTrees="500" AnalysisType="1">
    <BinaryTree type="DecisionTree" boostWeight="1.0502001047134399e+00" itree="0">
      <Node pos="s" depth="0" NCoef="0" IVar="5" Cut="7.6341472566127777e-02" cType="1" res="1.1014685966074467e-02" rms="1.1519039422273636e-01" purity="1.0000000000000000e+00" nType="0">
        <Node pos="l" depth="1" NCoef="0" IVar="3" Cut="2.7049478530883789e+01" cType="1" res="-6.8924808874726295e-03" rms="1.1152382194995880e-01" purity="1.0000000000000000e+00" nType="0">
          <Node pos="l" depth="2" NCoef="0" IVar="3" Cut="2.1275602340698242e+01" cType="1" res="9.9466547369956970e-02" rms="9.9644944071769714e-02" purity="1.0000000000000000e+00" nType="0">
            <Node pos="l" depth="3" NCoef="0" IVar="0" Cut="1.7992338180541992e+01" cType="1" res="1.4767624437808990e-01" rms="4.5528475195169449e-02" purity="1.0000000000000000e+00" nType="0">
              <Node pos="l" depth="4" NCoef="0" IVar="-1" Cut="0.0000000000000000e+00" cType="1" res="6.2560193240642548e-02" rms="8.9515335857868195e-03" purity="1.0000000000000000e+00" nType="-99"/>
              <Node pos="r" depth="4" NCoef="0" IVar="-1" Cut="0.0000000000000000e+00" cType="1" res="2.5093255564570427e-02" rms="6.1111871153116226e-02" purity="1.0000000000000000e+00" nType="-99"/>
            </Node>
            <Node pos="r" depth="3" NCoef="0" IVar="3" Cut="2.3626634597778320e+01" cType="1" res="6.3472367823123932e-02" rms="1.1297739297151566e-01" purity="1.0000000000000000e+00" nType="0">
              <Node pos="l" depth="4" NCoef="0" IVar="-1" Cut="0.0000000000000000e+00" cType="1" res="1.4732469804584980e-02" rms="9.9384419620037079e-02" purity="1.0000000000000000e+00" nType="-99"/>
              <Node pos="r" depth="4" NCoef="0" IVar="-1" Cut="0.0000000000000000e+00" cType="1" res="9.1203553602099419e-03" rms="1.1865411698818207e-01" purity="1.0000000000000000e+00" nType="-99"/>
            </Node>
          </Node>
          <Node pos="r" depth="2" NCoef="0" IVar="17" Cut="-1.8373001813888550e+00" cType="1" res="-1.4731861650943756e-02" rms="1.0829223692417145e-01" purity="1.0000000000000000e+00" nType="0">
            <Node pos="l" depth="3" NCoef="0" IVar="3" Cut="5.7138175964355469e+01" cType="1" res="-4.7308567911386490e-02" rms="9.7868919372558594e-02" purity="1.0000000000000000e+00" nType="0">
              <Node pos="l" depth="4" NCoef="0" IVar="8" Cut="7.1457099914550781e-01" cType="1" res="-1.6974976286292076e-02" rms="1.1668260395526886e-01" purity="1.0000000000000000e+00" nType="0">
                <Node pos="l" depth="5" NCoef="0" IVar="-1" Cut="0.0000000000000000e+00" cType="1" res="1.0031094279838726e-04" rms="1.1526581645011902e-01" purity="1.0000000000000000e+00" nType="-99"/>
                <Node pos="r" depth="5" NCoef="0" IVar="-1" Cut="0.0000000000000000e+00" cType="1" res="-4.7064078971743584e-03" rms="1.1559588462114334e-01" purity="1.0000000000000000e+00" nType="-99"/>
              </Node>
              <Node pos="r" depth="4" NCoef="0" IVar="11" Cut="2.1662540435791016e+00" cType="1" res="-5.7604655623435974e-02" rms="8.8260374963283539e-02" purity="1.0000000000000000e+00" nType="0">
                <Node pos="l" depth="5" NCoef="0" IVar="-1" Cut="0.0000000000000000e+00" cType="1" res="-6.1487532220780849e-03" rms="8.9507199823856354e-02" purity="1.0000000000000000e+00" nType="-99"/>
                <Node pos="r" depth="5" NCoef="0" IVar="-1" Cut="0.0000000000000000e+00" cType="1" res="-8.4055224433541298e-03" rms="8.1666149199008942e-02" purity="1.0000000000000000e+00" nType="-99"/>
              </Node>
            </Node>
            <Node pos="r" depth="3" NCoef="0" IVar="17" Cut="1.4123913049697876e+00" cType="1" res="-5.0828279927372932e-03" rms="1.0934467613697052e-01" purity="1.0000000000000000e+00" nType="0">
              <Node pos="l" depth="4" NCoef="0" IVar="16" Cut="3.8860092163085938e+01" cType="1" res="1.6254097223281860e-02" rms="1.0894939303398132e-01" purity="1.0000000000000000e+00" nType="0">
                <Node pos="l" depth="5" NCoef="0" IVar="-1" Cut="0.0000000000000000e+00" cType="1" res="3.8657660479657352e-04" rms="1.0652334988117218e-01" purity="1.0000000000000000e+00" nType="-99"/>
                <Node pos="r" depth="5" NCoef="0" IVar="-1" Cut="0.0000000000000000e+00" cType="1" res="4.9765934236347675e-03" rms="1.1031098663806915e-01" purity="1.0000000000000000e+00" nType="-99"/>
              </Node>
              <Node pos="r" depth="4" NCoef="0" IVar="3" Cut="5.2717220306396484e+01" cType="1" res="-4.1972178965806961e-02" rms="9.9787332117557526e-02" purity="1.0000000000000000e+00" nType="0">
                <Node pos="l" depth="5" NCoef="0" IVar="-1" Cut="0.0000000000000000e+00" cType="1" res="-1.5979652525857091e-03" rms="1.1837195605039597e-01" purity="1.0000000000000000e+00" nType="-99"/>
                <Node pos="r" depth="5" NCoef="0" IVar="-1" Cut="0.0000000000000000e+00" cType="1" res="-6.0556107200682163e-03" rms="9.1289371252059937e-02" purity="1.0000000000000000e+00" nType="-99"/>
              </Node>
            </Node>
          </Node>
        </Node>
        <Node pos="r" depth="1" NCoef="0" IVar="3" Cut="4.3563724517822266e+01" cType="1" res="6.3421100378036499e-02" rms="1.0962064564228058e-01" purity="1.0000000000000000e+00" nType="0">
          <Node pos="l" depth="2" NCoef="0" IVar="3" Cut="2.2418340682983398e+01" cType="1" res="9.8512679338455200e-02" rms="1.0240308940410614e-01" purity="1.0000000000000000e+00" nType="0">
            <Node pos="l" depth="3" NCoef="0" IVar="-1" Cut="0.0000000000000000e+00" cType="1" res="5.6461136788129807e-02" rms="4.7036964446306229e-02" purity="1.0000000000000000e+00" nType="-99"/>
            <Node pos="r" depth="3" NCoef="0" IVar="8" Cut="5.6497925519943237e-01" cType="1" res="8.8990889489650726e-02" rms="1.0696432739496231e-01" purity="1.0000000000000000e+00" nType="0">
              <Node pos="l" depth="4" NCoef="0" IVar="17" Cut="9.7190076112747192e-01" cType="1" res="1.0008943080902100e-01" rms="1.0000643879175186e-01" purity="1.0000000000000000e+00" nType="0">
                <Node pos="l" depth="5" NCoef="0" IVar="-1" Cut="0.0000000000000000e+00" cType="1" res="2.6056608185172081e-02" rms="9.5954596996307373e-02" purity="1.0000000000000000e+00" nType="-99"/>
                <Node pos="r" depth="5" NCoef="0" IVar="-1" Cut="0.0000000000000000e+00" cType="1" res="1.5919782221317291e-02" rms="1.0796777158975601e-01" purity="1.0000000000000000e+00" nType="-99"/>
              </Node>
              <Node pos="r" depth="4" NCoef="0" IVar="5" Cut="1.5563227236270905e-01" cType="1" res="6.9395542144775391e-02" rms="1.1568268388509750e-01" purity="1.0000000000000000e+00" nType="0">
                <Node pos="l" depth="5" NCoef="0" IVar="-1" Cut="0.0000000000000000e+00" cType="1" res="1.0766620747745037e-02" rms="1.1811040341854095e-01" purity="1.0000000000000000e+00" nType="-99"/>
                <Node pos="r" depth="5" NCoef="0" IVar="-1" Cut="0.0000000000000000e+00" cType="1" res="1.6932066529989243e-02" rms="1.1248353868722916e-01" purity="1.0000000000000000e+00" nType="-99"/>
              </Node>
            </Node>
          </Node>
          <Node pos="r" depth="2" NCoef="0" IVar="17" Cut="1.5739263296127319e+00" cType="1" res="5.0484765321016312e-02" rms="1.0935957729816437e-01" purity="1.0000000000000000e+00" nType="0">
            <Node pos="l" depth="3" NCoef="0" IVar="17" Cut="-1.2026704549789429e+00" cType="1" res="6.1863005161285400e-02" rms="1.0663484036922455e-01" purity="1.0000000000000000e+00" nType="0">
              <Node pos="l" depth="4" NCoef="0" IVar="17" Cut="-2.0618340969085693e+00" cType="1" res="9.9699227139353752e-03" rms="1.0847216099500656e-01" purity="1.0000000000000000e+00" nType="0">
                <Node pos="l" depth="5" NCoef="0" IVar="-1" Cut="0.0000000000000000e+00" cType="1" res="-7.7519292244687676e-04" rms="1.0712349414825439e-01" purity="1.0000000000000000e+00" nType="-99"/>
                <Node pos="r" depth="5" NCoef="0" IVar="-1" Cut="0.0000000000000000e+00" cType="1" res="3.8203231524676085e-03" rms="1.0710224509239197e-01" purity="1.0000000000000000e+00" nType="-99"/>
              </Node>
              <Node pos="r" depth="4" NCoef="0" IVar="16" Cut="3.7391468048095703e+01" cType="1" res="8.3244033157825470e-02" rms="9.8191015422344208e-02" purity="1.0000000000000000e+00" nType="0">
                <Node pos="l" depth="5" NCoef="0" IVar="-1" Cut="0.0000000000000000e+00" cType="1" res="8.6262980476021767e-03" rms="1.0191177576780319e-01" purity="1.0000000000000000e+00" nType="-99"/>
                <Node pos="r" depth="5" NCoef="0" IVar="-1" Cut="0.0000000000000000e+00" cType="1" res="2.1280076354742050e-02" rms="8.8020838797092438e-02" purity="1.0000000000000000e+00" nType="-99"/>
              </Node>
            </Node>
            <Node pos="r" depth="3" NCoef="0" IVar="3" Cut="7.5719421386718750e+01" cType="1" res="2.4777820799499750e-03" rms="1.0766484588384628e-01" purity="1.0000000000000000e+00" nType="0">
              <Node pos="l" depth="4" NCoef="0" IVar="-1" Cut="0.0000000000000000e+00" cType="1" res="2.6392920408397913e-03" rms="1.1333324760198593e-01" purity="1.0000000000000000e+00" nType="-99"/>
              <Node pos="r" depth="4" NCoef="0" IVar="-1" Cut="0.0000000000000000e+00" cType="1" res="-1.5374840004369617e-03" rms="1.0079454630613327e-01" purity="1.0000000000000000e+00" nType="-99"/>
            </Node>
          </Node>
        </Node>
      </Node>
    </BinaryTree>
    <BinaryTree type="DecisionTree" boostWeight="1.0000000000000000e+00" itree="1">
      <Node pos="s" depth="0" NCoef="0" IVar="5" Cut="6.9401338696479797e-02" cType="1" res="9.8913628607988358e-03" rms="1.1279474198818207e-01" purity="1.0000000000000000e+00" nType="0">
        <Node pos="l" depth="1" NCoef="0" IVar="3" Cut="3.0329174041748047e+01" cType="1" res="-6.4796046353876591e-03" rms="1.0921453684568405e-01" purity="1.0000000000000000e+00" nType="0">
          <Node pos="l" depth="2" NCoef="0" IVar="3" Cut="2.1118513107299805e+01" cType="1" res="7.5403615832328796e-02" rms="1.1056113988161087e-01" purity="1.0000000000000000e+00" nType="0">
            <Node pos="l" depth="3" NCoef="0" IVar="3" Cut="1.8072710037231445e+01" cType="1" res="1.3957738876342773e-01" rms="5.1384132355451584e-02" purity="1.0000000000000000e+00" nType="0">
              <Node pos="l" depth="4" NCoef="0" IVar="-1" Cut="0.0000000000000000e+00" cType="1" res="5.8783046901226044e-02" rms="1.6144081950187683e-02" purity="1.0000000000000000e+00" nType="-99"/>
              <Node pos="r" depth="4" NCoef="0" IVar="-1" Cut="0.0000000000000000e+00" cType="1" res="2.3226505145430565e-02" rms="6.6359803080558777e-02" purity="1.0000000000000000e+00" nType="-99"/>
            </Node>
            <Node pos="r" depth="3" NCoef="0" IVar="8" Cut="7.5249516963958740e-01" cType="1" res="4.7895614057779312e-02" rms="1.1751472949981689e-01" purity="1.0000000000000000e+00" nType="0">
              <Node pos="l" depth="4" NCoef="0" IVar="3" Cut="2.5107948303222656e+01" cType="1" res="6.2230721116065979e-02" rms="1.1283560097217560e-01" purity="1.0000000000000000e+00" nType="0">
                <Node pos="l" depth="5" NCoef="0" IVar="-1" Cut="0.0000000000000000e+00" cType="1" res="1.4823040924966335e-02" rms="1.0429615527391434e-01" purity="1.0000000000000000e+00" nType="-99"/>
                <Node pos="r" depth="5" NCoef="0" IVar="-1" Cut="0.0000000000000000e+00" cType="1" res="9.4804959371685982e-03" rms="1.1685539036989212e-01" purity="1.0000000000000000e+00" nType="-99"/>
              </Node>
              <Node pos="r" depth="4" NCoef="0" IVar="3" Cut="2.5512479782104492e+01" cType="1" res="3.2057460397481918e-02" rms="1.2051005661487579e-01" purity="1.0000000000000000e+00" nType="0">
                <Node pos="l" depth="5" NCoef="0" IVar="-1" Cut="0.0000000000000000e+00" cType="1" res="8.3277458325028419e-03" rms="1.1350176483392715e-01" purity="1.0000000000000000e+00" nType="-99"/>
                <Node pos="r" depth="5" NCoef="0" IVar="-1" Cut="0.0000000000000000e+00" cType="1" res="2.8008834924548864e-03" rms="1.2371087819337845e-01" purity="1.0000000000000000e+00" nType="-99"/>
              </Node>
            </Node>
          </Node>
          <Node pos="r" depth="2" NCoef="0" IVar="17" Cut="1.8749164342880249e+00" cType="1" res="-1.5146645717322826e-02" rms="1.0541199147701263e-01" purity="1.0000000000000000e+00" nType="0">
            <Node pos="l" depth="3" NCoef="0" IVar="17" Cut="-1.3592801094055176e+00" cType="1" res="-6.4924000762403011e-03" rms="1.0659167915582657e-01" purity="1.0000000000000000e+00" nType="0">
              <Node pos="l" depth="4" NCoef="0" IVar="3" Cut="6.0352241516113281e+01" cType="1" res="-3.9508897811174393e-02" rms="9.7366556525230408e-02" purity="1.0000000000000000e+00" nType="0">
                <Node pos="l" depth="5" NCoef="0" IVar="-1" Cut="0.0000000000000000e+00" cType="1" res="-2.4362637195736170e-03" rms="1.1384997516870499e-01" purity="1.0000000000000000e+00" nType="-99"/>
                <Node pos="r" depth="5" NCoef="0" IVar="-1" Cut="0.0000000000000000e+00" cType="1" res="-5.6674382649362087e-03" rms="8.8363237679004669e-02" purity="1.0000000000000000e+00" nType="-99"/>
              </Node>
              <Node pos="r" depth="4" NCoef="0" IVar="11" Cut="1.7383302450180054e+00" cType="1" res="1.3243068940937519e-02" rms="1.0698309540748596e-01" purity="1.0000000000000000e+00" nType="0">
                <Node pos="l" depth="5" NCoef="0" IVar="-1" Cut="0.0000000000000000e+00" cType="1" res="2.6523277629166842e-03" rms="1.0744015127420425e-01" purity="1.0000000000000000e+00" nType="-99"/>
                <Node pos="r" depth="5" NCoef="0" IVar="-1" Cut="0.0000000000000000e+00" cType="1" res="-1.6506277024745941e-03" rms="1.0157444328069687e-01" purity="1.0000000000000000e+00" nType="-99"/>
              </Node>
            </Node>
            <Node pos="r" depth="3" NCoef="0" IVar="3" Cut="5.8491924285888672e+01" cType="1" res="-4.4848043471574783e-02" rms="9.5467969775199890e-02" purity="1.0000000000000000e+00" nType="0">
              <Node pos="l" depth="4" NCoef="0" IVar="8" Cut="7.3652714490890503e-01" cType="1" res="-1.9793793559074402e-02" rms="1.1362431198358536e-01" purity="1.0000000000000000e+00" nType="0">
                <Node pos="l" depth="5" NCoef="0" IVar="-1" Cut="0.0000000000000000e+00" cType="1" res="-6.0336012393236160e-04" rms="1.1277610808610916e-01" purity="1.0000000000000000e+00" nType="-99"/>
                <Node pos="r" depth="5" NCoef="0" IVar="-1" Cut="0.0000000000000000e+00" cType="1" res="-5.2675059996545315e-03" rms="1.1206205189228058e-01" purity="1.0000000000000000e+00" nType="-99"/>
              </Node>
              <Node pos="r" depth="4" NCoef="0" IVar="11" Cut="2.1665155887603760e+00" cType="1" res="-5.2960962057113647e-02" rms="8.7268196046352386e-02" purity="1.0000000000000000e+00" nType="0">
                <Node pos="l" depth="5" NCoef="0" IVar="-1" Cut="0.0000000000000000e+00" cType="1" res="-5.6225964799523354e-03" rms="8.8447928428649902e-02" purity="1.0000000000000000e+00" nType="-99"/>
                <Node pos="r" depth="5" NCoef="0" IVar="-1" Cut="0.0000000000000000e+00" cType="1" res="-7.8595401719212532e-03" rms="8.0989547073841095e-02" purity="1.0000000000000000e+00" nType="-99"/>
              </Node>
            </Node>
          </Node>
        </Node>
        <Node pos="r" depth="1" NCoef="0" IVar="3" Cut="5.0207015991210938e+01" cType="1" res="5.5910561233758926e-02" rms="1.0993550717830658e-01" purity="1.0000000000000000e+00" nType="0">
          <Node pos="l" depth="2" NCoef="0" IVar="3" Cut="2.1989538192749023e+01" cType="1" res="8.2711108028888702e-02" rms="1.0791559517383575e-01" purity="1.0000000000000000e+00" nType="0">
            <Node pos="l" depth="3" NCoef="0" IVar="-1" Cut="0.0000000000000000e+00" cType="1" res="5.2456092089414597e-02" rms="5.8215692639350891e-02" purity="1.0000000000000000e+00" nType="-99"/>
            <Node pos="r" depth="3" NCoef="0" IVar="17" Cut="-1.5488432645797729e+00" cType="1" res="7.5493454933166504e-02" rms="1.1051763594150543e-01" purity="1.0000000000000000e+00" nType="0">
              <Node pos="l" depth="4" NCoef="0" IVar="-1" Cut="0.0000000000000000e+00" cType="1" res="7.3440535925328732e-03" rms="1.1729366332292557e-01" purity="1.0000000000000000e+00" nType="-99"/>
              <Node pos="r" depth="4" NCoef="0" IVar="17" Cut="1.3346982002258301e+00" cType="1" res="8.2933187484741211e-02" rms="1.0751846432685852e-01" purity="1.0000000000000000e+00" nType="0">
                <Node pos="l" depth="5" NCoef="0" IVar="-1" Cut="0.0000000000000000e+00" cType="1" res="2.2950986400246620e-02" rms="1.0072929412126541e-01" purity="1.0000000000000000e+00" nType="-99"/>
                <Node pos="r" depth="5" NCoef="0" IVar="-1" Cut="0.0000000000000000e+00" cType="1" res="8.3911130204796791e-03" rms="1.1673035472631454e-01" purity="1.0000000000000000e+00" nType="-99"/>
              </Node>
            </Node>
          </Node>
          <Node pos="r" depth="2" NCoef="0" IVar="17" Cut="1.3983502388000488e+00" cType="1" res="4.1940253227949142e-02" rms="1.0837718099355698e-01" purity="1.0000000000000000e+00" nType="0">
            <Node pos="l" depth="3" NCoef="0" IVar="17" Cut="-1.1117548942565918e+00" cType="1" res="5.3177062422037125e-02" rms="1.0649188607931137e-01" purity="1.0000000000000000e+00" nType="0">
              <Node pos="l" depth="4" NCoef="0" IVar="17" Cut="-2.1692106723785400e+00" cType="1" res="5.9947711415588856e-03" rms="1.0589196532964706e-01" purity="1.0000000000000000e+00" nType="0">
                <Node pos="l" depth="5" NCoef="0" IVar="-1" Cut="0.0000000000000000e+00" cType="1" res="-1.3933938462287188e-03" rms="1.0405109077692032e-01" purity="1.0000000000000000e+00" nType="-99"/>
                <Node pos="r" depth="5" NCoef="0" IVar="-1" Cut="0.0000000000000000e+00" cType="1" res="2.7591944672167301e-03" rms="1.0533238947391510e-01" purity="1.0000000000000000e+00" nType="-99"/>
              </Node>
              <Node pos="r" depth="4" NCoef="0" IVar="16" Cut="4.4906936645507812e+01" cType="1" res="7.4805825948715210e-02" rms="9.9552154541015625e-02" purity="1.0000000000000000e+00" nType="0">
                <Node pos="l" depth="5" NCoef="0" IVar="-1" Cut="0.0000000000000000e+00" cType="1" res="7.9745566472411156e-03" rms="1.0150035470724106e-01" purity="1.0000000000000000e+00" nType="-99"/>
                <Node pos="r" depth="5" NCoef="0" IVar="-1" Cut="0.0000000000000000e+00" cType="1" res="2.1521154791116714e-02" rms="8.9468158781528473e-02" purity="1.0000000000000000e+00" nType="-99"/>
              </Node>
            </Node>
            <Node pos="r" depth="3" NCoef="0" IVar="8" Cut="5.5098879337310791e-01" cType="1" res="2.6475838967598975e-04" rms="1.0508512705564499e-01" purity="1.0000000000000000e+00" nType="0">
              <Node pos="l" depth="4" NCoef="0" IVar="-1" Cut="0.0000000000000000e+00" cType="1" res="1.3771607773378491e-03" rms="1.0378611087799072e-01" purity="1.0000000000000000e+00" nType="-99"/>
              <Node pos="r" depth="4" NCoef="0" IVar="-1" Cut="0.0000000000000000e+00" cType="1" res="-1.9548886921256781e-03" rms="1.0479138046503067e-01" purity="1.0000000000000000e+00" nType="-99"/>
            </Node>
          </Node>
        </Node>
      </Node>
    </BinaryTree>
    <BinaryTree type="DecisionTree" boostWeight="1.0000000000000000e+00" itree="2">
      <Node pos="s" depth="0" NCoef="0" IVar="5" Cut="9.0221732854843140e-02" cType="1" res="8.8716885074973106e-03" rms="1.1076049506664276e-01" purity="1.0000000000000000e+00" nType="0">
        <Node pos="l" depth="1" NCoef="0" IVar="3" Cut="2.3769781112670898e+01" cType="1" res="-4.9546882510185242e-03" rms="1.0746162384748459e-01" purity="1.0000000000000000e+00" nType="0">
          <Node pos="l" depth="2" NCoef="0" IVar="3" Cut="1.9678339004516602e+01" cType="1" res="1.0677789151668549e-01" rms="8.5320807993412018e-02" purity="1.0000000000000000e+00" nType="0">
            <Node pos="l" depth="3" NCoef="0" IVar="-1" Cut="0.0000000000000000e+00" cType="1" res="4.3358501046895981e-02" rms="4.1986867785453796e-02" purity="1.0000000000000000e+00" nType="-99"/>
            <Node pos="r" depth="3" NCoef="0" IVar="-1" Cut="0.0000000000000000e+00" cType="1" res="1.3748843222856522e-02" rms="1.0081832855939865e-01" purity="1.0000000000000000e+00" nType="-99"/>
          </Node>
          <Node pos="r" depth="2" NCoef="0" IVar="3" Cut="4.6498561859130859e+01" cType="1" res="-1.0093439370393753e-02" rms="1.0556390136480331e-01" purity="1.0000000000000000e+00" nType="0">
            <Node pos="l" depth="3" NCoef="0" IVar="8" Cut="7.3852324485778809e-01" cType="1" res="1.9357722252607346e-02" rms="1.1877710372209549e-01" purity="1.0000000000000000e+00" nType="0">
              <Node pos="l" depth="4" NCoef="0" IVar="17" Cut="1.6240922212600708e+00" cType="1" res="3.5079680383205414e-02" rms="1.1545519530773163e-01" purity="1.0000000000000000e+00" nType="0">
                <Node pos="l" depth="5" NCoef="0" IVar="-1" Cut="0.0000000000000000e+00" cType="1" res="6.6689983941614628e-03" rms="1.1479323357343674e-01" purity="1.0000000000000000e+00" nType="-99"/>
                <Node pos="r" depth="5" NCoef="0" IVar="-1" Cut="0.0000000000000000e+00" cType="1" res="2.0031947642564774e-03" rms="1.1548637598752975e-01" purity="1.0000000000000000e+00" nType="-99"/>
              </Node>
              <Node pos="r" depth="4" NCoef="0" IVar="12" Cut="6.2837558984756470e-01" cType="1" res="3.5000301431864500e-03" rms="1.1996681243181229e-01" purity="1.0000000000000000e+00" nType="0">
                <Node pos="l" depth="5" NCoef="0" IVar="-1" Cut="0.0000000000000000e+00" cType="1" res="-9.0791366528719664e-04" rms="1.1935994029045105e-01" purity="1.0000000000000000e+00" nType="-99"/>
                <Node pos="r" depth="5" NCoef="0" IVar="-1" Cut="0.0000000000000000e+00" cType="1" res="4.0771234780550003e-03" rms="1.1915377527475357e-01" purity="1.0000000000000000e+00" nType="-99"/>
              </Node>
            </Node>
            <Node pos="r" depth="3" NCoef="0" IVar="17" Cut="-1.6491811275482178e+00" cType="1" res="-1.7549367621541023e-02" rms="1.0058886557817459e-01" purity="1.0000000000000000e+00" nType="0">
              <Node pos="l" depth="4" NCoef="0" IVar="8" Cut="7.2055906057357788e-01" cType="1" res="-4.2961567640304565e-02" rms="9.0830318629741669e-02" purity="1.0000000000000000e+00" nType="0">
                <Node pos="l" depth="5" NCoef="0" IVar="-1" Cut="0.0000000000000000e+00" cType="1" res="-4.0780697017908096e-03" rms="8.9864388108253479e-02" purity="1.0000000000000000e+00" nType="-99"/>
                <Node pos="r" depth="5" NCoef="0" IVar="-1" Cut="0.0000000000000000e+00" cType="1" res="-6.3154632225632668e-03" rms="9.1005124151706696e-02" purity="1.0000000000000000e+00" nType="-99"/>
              </Node>
              <Node pos="r" depth="4" NCoef="0" IVar="17" Cut="1.1143581867218018e+00" cType="1" res="-8.7841572239995003e-03" rms="1.0228808224201202e-01" purity="1.0000000000000000e+00" nType="0">
                <Node pos="l" depth="5" NCoef="0" IVar="-1" Cut="0.0000000000000000e+00" cType="1" res="1.4722486957907677e-03" rms="1.0358957201242447e-01" purity="1.0000000000000000e+00" nType="-99"/>
                <Node pos="r" depth="5" NCoef="0" IVar="-1" Cut="0.0000000000000000e+00" cType="1" res="-4.5996597036719322e-03" rms="9.2773675918579102e-02" purity="1.0000000000000000e+00" nType="-99"/>
              </Node>
            </Node>
          </Node>
        </Node>
        <Node pos="r" depth="1" NCoef="0" IVar="3" Cut="3.4706008911132812e+01" cType="1" res="5.2732225507497787e-02" rms="1.0964195430278778e-01" purity="1.0000000000000000e+00" nType="0">
          <Node pos="l" depth="2" NCoef="0" IVar="3" Cut="2.2082429885864258e+01" cType="1" res="9.2437535524368286e-02" rms="1.0375666618347168e-01" purity="1.0000000000000000e+00" nType="0">
            <Node pos="l" depth="3" NCoef="0" IVar="-1" Cut="0.0000000000000000e+00" cType="1" res="4.7131169587373734e-02" rms="7.3709502816200256e-02" purity="1.0000000000000000e+00" nType="-99"/>
            <Node pos="r" depth="3" NCoef="0" IVar="8" Cut="4.9371048808097839e-01" cType="1" res="8.1082835793495178e-02" rms="1.0946322977542877e-01" purity="1.0000000000000000e+00" nType="0">
              <Node pos="l" depth="4" NCoef="0" IVar="-1" Cut="0.0000000000000000e+00" cType="1" res="2.3722238838672638e-02" rms="1.0330300778150558e-01" purity="1.0000000000000000e+00" nType="-99"/>
              <Node pos="r" depth="4" NCoef="0" IVar="-1" Cut="0.0000000000000000e+00" cType="1" res="1.5958018600940704e-02" rms="1.1480076611042023e-01" purity="1.0000000000000000e+00" nType="-99"/>
            </Node>
          </Node>
          <Node pos="r" depth="2" NCoef="0" IVar="17" Cut="1.7620451450347900e+00" cType="1" res="4.4612545520067215e-02" rms="1.0904067009687424e-01" purity="1.0000000000000000e+00" nType="0">
            <Node pos="l" depth="3" NCoef="0" IVar="17" Cut="-1.3797994852066040e+00" cType="1" res="5.2873902022838593e-02" rms="1.0753531754016876e-01" purity="1.0000000000000000e+00" nType="0">
              <Node pos="l" depth="4" NCoef="0" IVar="3" Cut="7.3825752258300781e+01" cType="1" res="9.6545899286866188e-03" rms="1.0782858729362488e-01" purity="1.0000000000000000e+00" nType="0">
                <Node pos="l" depth="5" NCoef="0" IVar="-1" Cut="0.0000000000000000e+00" cType="1" res="3.7852744571864605e-03" rms="1.1307226866483688e-01" purity="1.0000000000000000e+00" nType="-99"/>
                <Node pos="r" depth="5" NCoef="0" IVar="-1" Cut="0.0000000000000000e+00" cType="1" res="-1.0469084372743964e-03" rms="9.9456310272216797e-02" purity="1.0000000000000000e+00" nType="-99"/>
              </Node>
              <Node pos="r" depth="4" NCoef="0" IVar="16" Cut="3.2910888671875000e+01" cType="1" res="6.7710377275943756e-02" rms="1.0334804654121399e-01" purity="1.0000000000000000e+00" nType="0">
                <Node pos="l" depth="5" NCoef="0" IVar="-1" Cut="0.0000000000000000e+00" cType="1" res="7.0271231234073639e-03" rms="1.0521164536476135e-01" purity="1.0000000000000000e+00" nType="-99"/>
                <Node pos="r" depth="5" NCoef="0" IVar="-1" Cut="0.0000000000000000e+00" cType="1" res="1.6710054129362106e-02" rms="9.8578125238418579e-02" purity="1.0000000000000000e+00" nType="-99"/>
              </Node>
            </Node>
            <Node pos="r" depth="3" NCoef="0" IVar="3" Cut="7.3611534118652344e+01" cType="1" res="3.7544146180152893e-03" rms="1.0721636563539505e-01" purity="1.0000000000000000e+00" nType="0">
              <Node pos="l" depth="4" NCoef="0" IVar="-1" Cut="0.0000000000000000e+00" cType="1" res="2.7422038838267326e-03" rms="1.1314994841814041e-01" purity="1.0000000000000000e+00" nType="-99"/>
              <Node pos="r" depth="4" NCoef="0" IVar="-1" Cut="0.0000000000000000e+00" cType="1" res="-1.5385441947728395e-03" rms="9.9014841020107269e-02" purity="1.0000000000000000e+00" nType="-99"/>
            </Node>
          </Node>
        </Node>
      </Node>
    </BinaryTree>
    <BinaryTree type="DecisionTree" boostWeight="1.0000000000000000e+00" itree="3">
      <Node pos="s" depth="0" NCoef="0" IVar="5" Cut="5.5521067231893539e-02" cType="1" res="7.9505592584609985e-03" rms="1.0921049863100052e-01" purity="1.0000000000000000e+00" nType="0">
        <Node pos="l" depth="1" NCoef="0" IVar="3" Cut="3.3608871459960938e+01" cType="1" res="-5.8518657460808754e-03" rms="1.0560126602649689e-01" purity="1.0000000000000000e+00" nType="0">
          <Node pos="l" depth="2" NCoef="0" IVar="3" Cut="2.0620975494384766e+01" cType="1" res="5.3997613489627838e-02" rms="1.1432775110006332e-01" purity="1.0000000000000000e+00" nType="0">
            <Node pos="l" depth="3" NCoef="0" IVar="-1" Cut="0.0000000000000000e+00" cType="1" res="3.4529298543930054e-02" rms="6.3589341938495636e-02" purity="1.0000000000000000e+00" nType="-99"/>
            <Node pos="r" depth="3" NCoef="0" IVar="8" Cut="7.8243541717529297e-01" cType="1" res="3.5366456955671310e-02" rms="1.1764314025640488e-01" purity="1.0000000000000000e+00" nType="0">
              <Node pos="l" depth="4" NCoef="0" IVar="3" Cut="2.4716941833496094e+01" cType="1" res="4.6313811093568802e-02" rms="1.1486982554197311e-01" purity="1.0000000000000000e+00" nType="0">
                <Node pos="l" depth="5" NCoef="0" IVar="-1" Cut="0.0000000000000000e+00" cType="1" res="1.2654149904847145e-02" rms="1.0771177709102631e-01" purity="1.0000000000000000e+00" nType="-99"/>
                <Node pos="r" depth="5" NCoef="0" IVar="-1" Cut="0.0000000000000000e+00" cType="1" res="6.9541465491056442e-03" rms="1.1658496409654617e-01" purity="1.0000000000000000e+00" nType="-99"/>
              </Node>
              <Node pos="r" depth="4" NCoef="0" IVar="3" Cut="2.5935377120971680e+01" cType="1" res="1.9144684076309204e-02" rms="1.1981105804443359e-01" purity="1.0000000000000000e+00" nType="0">
                <Node pos="l" depth="5" NCoef="0" IVar="-1" Cut="0.0000000000000000e+00" cType="1" res="6.2274634838104248e-03" rms="1.1532603949308395e-01" purity="1.0000000000000000e+00" nType="-99"/>
                <Node pos="r" depth="5" NCoef="0" IVar="-1" Cut="0.0000000000000000e+00" cType="1" res="1.2048133648931980e-03" rms="1.2099959701299667e-01" purity="1.0000000000000000e+00" nType="-99"/>
              </Node>
            </Node>
          </Node>
          <Node pos="r" depth="2" NCoef="0" IVar="17" Cut="2.0254116058349609e+00" cType="1" res="-1.4463327825069427e-02" rms="1.0141959041357040e-01" purity="1.0000000000000000e+00" nType="0">
            <Node pos="l" depth="3" NCoef="0" IVar="17" Cut="-1.1511110067367554e+00" cType="1" res="-7.7143991366028786e-03" rms="1.0266894102096558e-01" purity="1.0000000000000000e+00" nType="0">
              <Node pos="l" depth="4" NCoef="0" IVar="3" Cut="6.3566528320312500e+01" cType="1" res="-3.2748807221651077e-02" rms="9.4924800097942352e-02" purity="1.0000000000000000e+00" nType="0">
                <Node pos="l" depth="5" NCoef="0" IVar="-1" Cut="0.0000000000000000e+00" cType="1" res="-2.4235190358012915e-03" rms="1.0994084179401398e-01" purity="1.0000000000000000e+00" nType="-99"/>
                <Node pos="r" depth="5" NCoef="0" IVar="-1" Cut="0.0000000000000000e+00" cType="1" res="-4.6461508609354496e-03" rms="8.6934275925159454e-02" purity="1.0000000000000000e+00" nType="-99"/>
              </Node>
              <Node pos="r" depth="4" NCoef="0" IVar="17" Cut="7.6367759704589844e-01" cType="1" res="8.9841224253177643e-03" rms="1.0423390567302704e-01" purity="1.0000000000000000e+00" nType="0">
                <Node pos="l" depth="5" NCoef="0" IVar="-1" Cut="0.0000000000000000e+00" cType="1" res="2.4348523002117872e-03" rms="1.0463174432516098e-01" purity="1.0000000000000000e+00" nType="-99"/>
                <Node pos="r" depth="5" NCoef="0" IVar="-1" Cut="0.0000000000000000e+00" cType="1" res="-1.7576973186805844e-03" rms="1.0001727193593979e-01" purity="1.0000000000000000e+00" nType="-99"/>
              </Node>
            </Node>
            <Node pos="r" depth="3" NCoef="0" IVar="3" Cut="6.4252998352050781e+01" cType="1" res="-4.0227945894002914e-02" rms="9.2058859765529633e-02" purity="1.0000000000000000e+00" nType="0">
              <Node pos="l" depth="4" NCoef="0" IVar="8" Cut="7.7844327688217163e-01" cType="1" res="-2.3035744205117226e-02" rms="1.0836461186408997e-01" purity="1.0000000000000000e+00" nType="0">
                <Node pos="l" depth="5" NCoef="0" IVar="-1" Cut="0.0000000000000000e+00" cType="1" res="-1.7363720107823610e-03" rms="1.0812301188707352e-01" purity="1.0000000000000000e+00" nType="-99"/>
                <Node pos="r" depth="5" NCoef="0" IVar="-1" Cut="0.0000000000000000e+00" cType="1" res="-5.7645938359200954e-03" rms="1.0643076151609421e-01" purity="1.0000000000000000e+00" nType="-99"/>
              </Node>
              <Node pos="r" depth="4" NCoef="0" IVar="16" Cut="2.5118885040283203e+01" cType="1" res="-4.6465169638395309e-02" rms="8.4516674280166626e-02" purity="1.0000000000000000e+00" nType="0">
                <Node pos="l" depth="5" NCoef="0" IVar="-1" Cut="0.0000000000000000e+00" cType="1" res="-4.0509738028049469e-03" rms="8.5831396281719208e-02" purity="1.0000000000000000e+00" nType="-99"/>
                <Node pos="r" depth="5" NCoef="0" IVar="-1" Cut="0.0000000000000000e+00" cType="1" res="-5.9586088173091412e-03" rms="8.3370506763458252e-02" purity="1.0000000000000000e+00" nType="-99"/>
              </Node>
            </Node>
          </Node>
        </Node>
        <Node pos="r" depth="1" NCoef="0" IVar="3" Cut="4.0683311462402344e+01" cType="1" res="4.3747588992118835e-02" rms="1.1028236150741577e-01" purity="1.0000000000000000e+00" nType="0">
          <Node pos="l" depth="2" NCoef="0" IVar="3" Cut="2.1971664428710938e+01" cType="1" res="7.4349008500576019e-02" rms="1.1117328703403473e-01" purity="1.0000000000000000e+00" nType="0">
            <Node pos="l" depth="3" NCoef="0" IVar="-1" Cut="0.0000000000000000e+00" cType="1" res="4.2377009987831116e-02" rms="8.5390463471412659e-02" purity="1.0000000000000000e+00" nType="-99"/>
            <Node pos="r" depth="3" NCoef="0" IVar="17" Cut="-1.3732525110244751e+00" cType="1" res="6.6317074000835419e-02" rms="1.1381481587886810e-01" purity="1.0000000000000000e+00" nType="0">
              <Node pos="l" depth="4" NCoef="0" IVar="-1" Cut="0.0000000000000000e+00" cType="1" res="7.5879069045186043e-03" rms="1.1866433173418045e-01" purity="1.0000000000000000e+00" nType="-99"/>
              <Node pos="r" depth="4" NCoef="0" IVar="17" Cut="1.2131023406982422e+00" cType="1" res="7.3300927877426147e-02" rms="1.1143815517425537e-01" purity="1.0000000000000000e+00" nType="0">
                <Node pos="l" depth="5" NCoef="0" IVar="-1" Cut="0.0000000000000000e+00" cType="1" res="2.2798277437686920e-02" rms="1.0611958056688309e-01" purity="1.0000000000000000e+00" nType="-99"/>
                <Node pos="r" depth="5" NCoef="0" IVar="-1" Cut="0.0000000000000000e+00" cType="1" res="8.8131939992308617e-03" rms="1.1791916191577911e-01" purity="1.0000000000000000e+00" nType="-99"/>
              </Node>
            </Node>
          </Node>
          <Node pos="r" depth="2" NCoef="0" IVar="17" Cut="1.1976890563964844e+00" cType="1" res="3.5008512437343597e-02" rms="1.0845300555229187e-01" purity="1.0000000000000000e+00" nType="0">
            <Node pos="l" depth="3" NCoef="0" IVar="17" Cut="-8.8966649770736694e-01" cType="1" res="4.4787496328353882e-02" rms="1.0755040496587753e-01" purity="1.0000000000000000e+00" nType="0">
              <Node pos="l" depth="4" NCoef="0" IVar="17" Cut="-1.9639351367950439e+00" cType="1" res="9.8521532490849495e-03" rms="1.0622744262218475e-01" purity="1.0000000000000000e+00" nType="0">
                <Node pos="l" depth="5" NCoef="0" IVar="-1" Cut="0.0000000000000000e+00" cType="1" res="-7.1164034307003021e-04" rms="1.0414364933967590e-01" purity="1.0000000000000000e+00" nType="-99"/>
                <Node pos="r" depth="5" NCoef="0" IVar="-1" Cut="0.0000000000000000e+00" cType="1" res="3.3269294071942568e-03" rms="1.0643519461154938e-01" purity="1.0000000000000000e+00" nType="-99"/>
              </Node>
              <Node pos="r" depth="4" NCoef="0" IVar="16" Cut="4.9339683532714844e+01" cType="1" res="6.5672822296619415e-02" rms="1.0281213372945786e-01" purity="1.0000000000000000e+00" nType="0">
                <Node pos="l" depth="5" NCoef="0" IVar="-1" Cut="0.0000000000000000e+00" cType="1" res="7.8107658773660660e-03" rms="1.0389608889818192e-01" purity="1.0000000000000000e+00" nType="-99"/>
                <Node pos="r" depth="5" NCoef="0" IVar="-1" Cut="0.0000000000000000e+00" cType="1" res="2.1097250282764435e-02" rms="9.4980895519256592e-02" purity="1.0000000000000000e+00" nType="-99"/>
              </Node>
            </Node>
            <Node pos="r" depth="3" NCoef="0" IVar="3" Cut="8.8979705810546875e+01" cType="1" res="4.0751439519226551e-03" rms="1.0544860363006592e-01" purity="1.0000000000000000e+00" nType="0">
              <Node pos="l" depth="4" NCoef="0" IVar="8" Cut="5.7028019428253174e-01" cType="1" res="1.4921373687684536e-02" rms="1.1041224002838135e-01" purity="1.0000000000000000e+00" nType="0">
                <Node pos="l" depth="5" NCoef="0" IVar="-1" Cut="0.0000000000000000e+00" cType="1" res="3.9887498132884502e-03" rms="1.0797689110040665e-01" purity="1.0000000000000000e+00" nType="-99"/>
                <Node pos="r" depth="5" NCoef="0" IVar="-1" Cut="0.0000000000000000e+00" cType="1" res="-5.4741086205467582e-04" rms="1.1096612364053726e-01" purity="1.0000000000000000e+00" nType="-99"/>
              </Node>
              <Node pos="r" depth="4" NCoef="0" IVar="17" Cut="2.3539443016052246e+00" cType="1" res="-1.1342845857143402e-02" rms="9.5871701836585999e-02" purity="1.0000000000000000e+00" nType="0">
                <Node pos="l" depth="5" NCoef="0" IVar="-1" Cut="0.0000000000000000e+00" cType="1" res="-2.2553521557711065e-04" rms="9.6633262932300568e-02" purity="1.0000000000000000e+00" nType="-99"/>
                <Node pos="r" depth="5" NCoef="0" IVar="-1" Cut="0.0000000000000000e+00" cType="1" res="-2.7481873985379934e-03" rms="9.3865960836410522e-02" purity="1.0000000000000000e+00" nType="-99"/>
              </Node>
            </Node>
          </Node>
        </Node>
      </Node>
    </BinaryTree>
    <BinaryTree type="DecisionTree" boostWeight="1.0000000000000000e+00" itree="4">
      <Node pos="s" depth="0" NCoef="0" IVar="5" Cut="1.1335551738739014e-01" cType="1" res="7.1154753677546978e-03" rms="1.0788407176733017e-01" purity="1.0000000000000000e+00" nType="0">
        <Node pos="l" depth="1" NCoef="0" IVar="3" Cut="2.7049478530883789e+01" cType="1" res="-3.3869806211441755e-03" rms="1.0485567897558212e-01" purity="1.0000000000000000e+00" nType="0">
          <Node pos="l" depth="2" NCoef="0" IVar="3" Cut="1.8958217620849609e+01" cType="1" res="6.8650491535663605e-02" rms="1.0777714848518372e-01" purity="1.0000000000000000e+00" nType="0">
            <Node pos="l" depth="3" NCoef="0" IVar="-1" Cut="0.0000000000000000e+00" cType="1" res="3.9547581225633621e-02" rms="5.9888146817684174e-02" purity="1.0000000000000000e+00" nType="-99"/>
            <Node pos="r" depth="3" NCoef="0" IVar="3" Cut="2.2511327743530273e+01" cType="1" res="4.7873746603727341e-02" rms="1.1333788931369781e-01" purity="1.0000000000000000e+00" nType="0">
              <Node pos="l" depth="4" NCoef="0" IVar="-1" Cut="0.0000000000000000e+00" cType="1" res="1.2774978764355183e-02" rms="1.0132736712694168e-01" purity="1.0000000000000000e+00" nType="-99"/>
              <Node pos="r" depth="4" NCoef="0" IVar="8" Cut="7.2654706239700317e-01" cType="1" res="3.6446489393711090e-02" rms="1.1807093024253845e-01" purity="1.0000000000000000e+00" nType="0">
                <Node pos="l" depth="5" NCoef="0" IVar="-1" Cut="0.0000000000000000e+00" cType="1" res="9.5669124275445938e-03" rms="1.1545412987470627e-01" purity="1.0000000000000000e+00" nType="-99"/>
                <Node pos="r" depth="5" NCoef="0" IVar="-1" Cut="0.0000000000000000e+00" cType="1" res="4.3096099980175495e-03" rms="1.1929819732904434e-01" purity="1.0000000000000000e+00" nType="-99"/>
              </Node>
            </Node>
          </Node>
          <Node pos="r" depth="2" NCoef="0" IVar="17" Cut="-2.0128779411315918e+00" cType="1" res="-8.5298046469688416e-03" rms="1.0272993892431259e-01" purity="1.0000000000000000e+00" nType="0">
            <Node pos="l" depth="3" NCoef="0" IVar="3" Cut="6.0147022247314453e+01" cType="1" res="-3.3245984464883804e-02" rms="9.4057135283946991e-02" purity="1.0000000000000000e+00" nType="0">
              <Node pos="l" depth="4" NCoef="0" IVar="8" Cut="6.6666680574417114e-01" cType="1" res="-1.5297018922865391e-02" rms="1.1069647222757339e-01" purity="1.0000000000000000e+00" nType="0">
                <Node pos="l" depth="5" NCoef="0" IVar="-1" Cut="0.0000000000000000e+00" cType="1" res="3.0271831201389432e-04" rms="1.0955323278903961e-01" purity="1.0000000000000000e+00" nType="-99"/>
                <Node pos="r" depth="5" NCoef="0" IVar="-1" Cut="0.0000000000000000e+00" cType="1" res="-3.8207219913601875e-03" rms="1.1002773046493530e-01" purity="1.0000000000000000e+00" nType="-99"/>
              </Node>
              <Node pos="r" depth="4" NCoef="0" IVar="16" Cut="2.2314531326293945e+01" cType="1" res="-4.0003307163715363e-02" rms="8.6006753146648407e-02" purity="1.0000000000000000e+00" nType="0">
                <Node pos="l" depth="5" NCoef="0" IVar="-1" Cut="0.0000000000000000e+00" cType="1" res="-3.2263456378132105e-03" rms="8.7560690939426422e-02" purity="1.0000000000000000e+00" nType="-99"/>
                <Node pos="r" depth="5" NCoef="0" IVar="-1" Cut="0.0000000000000000e+00" cType="1" res="-5.2076936699450016e-03" rms="8.4938779473304749e-02" purity="1.0000000000000000e+00" nType="-99"/>
              </Node>
            </Node>
            <Node pos="r" depth="3" NCoef="0" IVar="17" Cut="1.4748727083206177e+00" cType="1" res="-2.2415143903344870e-03" rms="1.0388789325952530e-01" purity="1.0000000000000000e+00" nType="0">
              <Node pos="l" depth="4" NCoef="0" IVar="17" Cut="-7.6675546169281006e-01" cType="1" res="1.1210740543901920e-02" rms="1.0529612004756927e-01" purity="1.0000000000000000e+00" nType="0">
                <Node pos="l" depth="5" NCoef="0" IVar="-1" Cut="0.0000000000000000e+00" cType="1" res="-1.2803807621821761e-03" rms="1.0195769369602203e-01" purity="1.0000000000000000e+00" nType="-99"/>
                <Node pos="r" depth="5" NCoef="0" IVar="-1" Cut="0.0000000000000000e+00" cType="1" res="2.4584296625107527e-03" rms="1.0561573505401611e-01" purity="1.0000000000000000e+00" nType="-99"/>
              </Node>
              <Node pos="r" depth="4" NCoef="0" IVar="3" Cut="6.2984287261962891e+01" cType="1" res="-2.8130894526839256e-02" rms="9.5954336225986481e-02" purity="1.0000000000000000e+00" nType="0">
                <Node pos="l" depth="5" NCoef="0" IVar="-1" Cut="0.0000000000000000e+00" cType="1" res="-1.7894101329147816e-03" rms="1.1081704497337341e-01" purity="1.0000000000000000e+00" nType="-99"/>
                <Node pos="r" depth="5" NCoef="0" IVar="-1" Cut="0.0000000000000000e+00" cType="1" res="-4.2720586061477661e-03" rms="8.6821280419826508e-02" purity="1.0000000000000000e+00" nType="-99"/>
              </Node>
            </Node>
          </Node>
        </Node>
        <Node pos="r" depth="1" NCoef="0" IVar="3" Cut="6.3493591308593750e+01" cType="1" res="4.5089837163686752e-02" rms="1.1012531816959381e-01" purity="1.0000000000000000e+00" nType="0">
          <Node pos="l" depth="2" NCoef="0" IVar="3" Cut="2.5149894714355469e+01" cType="1" res="6.1591595411300659e-02" rms="1.1173777282238007e-01" purity="1.0000000000000000e+00" nType="0">
            <Node pos="l" depth="3" NCoef="0" IVar="-1" Cut="0.0000000000000000e+00" cType="1" res="3.2156508415937424e-02" rms="1.0104305297136307e-01" purity="1.0000000000000000e+00" nType="-99"/>
            <Node pos="r" depth="3" NCoef="0" IVar="17" Cut="1.7871271371841431e+00" cType="1" res="5.5798608809709549e-02" rms="1.1243057996034622e-01" purity="1.0000000000000000e+00" nType="0">
              <Node pos="l" depth="4" NCoef="0" IVar="17" Cut="-1.0363175868988037e+00" cType="1" res="6.1592176556587219e-02" rms="1.1099182814359665e-01" purity="1.0000000000000000e+00" nType="0">
                <Node pos="l" depth="5" NCoef="0" IVar="-1" Cut="0.0000000000000000e+00" cType="1" res="5.8009959757328033e-03" rms="1.1446236819028854e-01" purity="1.0000000000000000e+00" nType="-99"/>
                <Node pos="r" depth="5" NCoef="0" IVar="-1" Cut="0.0000000000000000e+00" cType="1" res="1.6675971448421478e-02" rms="1.0711760073900223e-01" purity="1.0000000000000000e+00" nType="-99"/>
              </Node>
              <Node pos="r" depth="4" NCoef="0" IVar="-1" Cut="0.0000000000000000e+00" cType="1" res="3.8948173169046640e-03" rms="1.1498209834098816e-01" purity="1.0000000000000000e+00" nType="-99"/>
            </Node>
          </Node>
          <Node pos="r" depth="2" NCoef="0" IVar="16" Cut="6.3605491638183594e+01" cType="1" res="2.8815791010856628e-02" rms="1.0602539032697678e-01" purity="1.0000000000000000e+00" nType="0">
            <Node pos="l" depth="3" NCoef="0" IVar="3" Cut="1.3354489135742188e+02" cType="1" res="2.0534755662083626e-02" rms="1.0407995432615280e-01" purity="1.0000000000000000e+00" nType="0">
              <Node pos="l" depth="4" NCoef="0" IVar="17" Cut="1.0848193168640137e+00" cType="1" res="2.8804343193769455e-02" rms="1.0612780600786209e-01" purity="1.0000000000000000e+00" nType="0">
                <Node pos="l" depth="5" NCoef="0" IVar="-1" Cut="0.0000000000000000e+00" cType="1" res="5.3410432301461697e-03" rms="1.0583646595478058e-01" purity="1.0000000000000000e+00" nType="-99"/>
                <Node pos="r" depth="5" NCoef="0" IVar="-1" Cut="0.0000000000000000e+00" cType="1" res="5.1876303041353822e-04" rms="1.0334774106740952e-01" purity="1.0000000000000000e+00" nType="-99"/>
              </Node>
              <Node pos="r" depth="4" NCoef="0" IVar="3" Cut="1.8567100524902344e+02" cType="1" res="-2.6228826027363539e-03" rms="9.4336539506912231e-02" purity="1.0000000000000000e+00" nType="0">
                <Node pos="l" depth="5" NCoef="0" IVar="-1" Cut="0.0000000000000000e+00" cType="1" res="7.3987408541142941e-04" rms="9.7986593842506409e-02" purity="1.0000000000000000e+00" nType="-99"/>
                <Node pos="r" depth="5" NCoef="0" IVar="-1" Cut="0.0000000000000000e+00" cType="1" res="-1.9065705128014088e-03" rms="8.7453790009021759e-02" purity="1.0000000000000000e+00" nType="-99"/>
              </Node>
            </Node>
            <Node pos="r" depth="3" NCoef="0" IVar="-1" Cut="0.0000000000000000e+00" cType="1" res="1.3689154759049416e-02" rms="1.0661082714796066e-01" purity="1.0000000000000000e+00" nType="-99"/>
          </Node>
        </Node>
      </Node>
    </BinaryTree>
    <BinaryTree type="DecisionTree" boostWeight="1.0000000000000000e+00" itree="5">
      <Node pos="s" depth="0" NCoef="0" IVar="5" Cut="4.1640799492597580e-02" cType="1" res="6.4212349243462086e-03" rms="1.0696119815111160e-01" purity="1.0000000000000000e+00" nType="0">
        <Node pos="l" depth="1" NCoef="0" IVar="3" Cut="3.6888568878173828e+01" cType="1" res="-5.3432760760188103e-03" rms="1.0324197262525558e-01" purity="1.0000000000000000e+00" nType="0">
          <Node pos="l" depth="2" NCoef="0" IVar="3" Cut="1.7740619659423828e+01" cType="1" res="3.9231099188327789e-02" rms="1.1578942090272903e-01" purity="1.0000000000000000e+00" nType="0">
            <Node pos="l" depth="3" NCoef="0" IVar="-1" Cut="0.0000000000000000e+00" cType="1" res="4.3567012995481491e-02" rms="5.6344378739595413e-02" purity="1.0000000000000000e+00" nType="-99"/>
            <Node pos="r" depth="3" NCoef="0" IVar="3" Cut="2.2632743835449219e+01" cType="1" res="3.0192593112587929e-02" rms="1.1631380021572113e-01" purity="1.0000000000000000e+00" nType="0">
              <Node pos="l" depth="4" NCoef="0" IVar="-1" Cut="0.0000000000000000e+00" cType="1" res="1.1861054226756096e-02" rms="1.0404524207115173e-01" purity="1.0000000000000000e+00" nType="-99"/>
              <Node pos="r" depth="4" NCoef="0" IVar="8" Cut="6.8463099002838135e-01" cType="1" res="2.3467903956770897e-02" rms="1.1759977787733078e-01" purity="1.0000000000000000e+00" nType="0">
                <Node pos="l" depth="5" NCoef="0" IVar="-1" Cut="0.0000000000000000e+00" cType="1" res="7.0740426890552044e-03" rms="1.1451911181211472e-01" purity="1.0000000000000000e+00" nType="-99"/>
                <Node pos="r" depth="5" NCoef="0" IVar="-1" Cut="0.0000000000000000e+00" cType="1" res="2.0614655222743750e-03" rms="1.1834645271301270e-01" purity="1.0000000000000000e+00" nType="-99"/>
              </Node>
            </Node>
          </Node>
          <Node pos="r" depth="2" NCoef="0" IVar="11" Cut="1.9200258255004883e+00" cType="1" res="-1.3683270663022995e-02" rms="9.8505772650241852e-02" purity="1.0000000000000000e+00" nType="0">
            <Node pos="l" depth="3" NCoef="0" IVar="17" Cut="-2.1257500648498535e+00" cType="1" res="-7.3203900828957558e-03" rms="9.9879279732704163e-02" purity="1.0000000000000000e+00" nType="0">
              <Node pos="l" depth="4" NCoef="0" IVar="16" Cut="2.6492692947387695e+01" cType="1" res="-3.0730810016393661e-02" rms="9.1203078627586365e-02" purity="1.0000000000000000e+00" nType="0">
                <Node pos="l" depth="5" NCoef="0" IVar="-1" Cut="0.0000000000000000e+00" cType="1" res="-2.6042475365102291e-03" rms="9.3376651406288147e-02" purity="1.0000000000000000e+00" nType="-99"/>
                <Node pos="r" depth="5" NCoef="0" IVar="-1" Cut="0.0000000000000000e+00" cType="1" res="-4.4714952819049358e-03" rms="8.9310988783836365e-02" purity="1.0000000000000000e+00" nType="-99"/>
              </Node>
              <Node pos="r" depth="4" NCoef="0" IVar="17" Cut="1.2070735692977905e+00" cType="1" res="-1.8645632080733776e-03" rms="1.0101855546236038e-01" purity="1.0000000000000000e+00" nType="0">
                <Node pos="l" depth="5" NCoef="0" IVar="-1" Cut="0.0000000000000000e+00" cType="1" res="1.2072542449459434e-03" rms="1.0287411510944366e-01" purity="1.0000000000000000e+00" nType="-99"/>
                <Node pos="r" depth="5" NCoef="0" IVar="-1" Cut="0.0000000000000000e+00" cType="1" res="-2.9670943040400743e-03" rms="9.4029046595096588e-02" purity="1.0000000000000000e+00" nType="-99"/>
              </Node>
            </Node>
            <Node pos="r" depth="3" NCoef="0" IVar="11" Cut="2.8798060417175293e+00" cType="1" res="-3.3969711512327194e-02" rms="9.1071531176567078e-02" purity="1.0000000000000000e+00" nType="0">
              <Node pos="l" depth="4" NCoef="0" IVar="17" Cut="2.2636909484863281e+00" cType="1" res="-2.7707686647772789e-02" rms="9.2717312276363373e-02" purity="1.0000000000000000e+00" nType="0">
                <Node pos="l" depth="5" NCoef="0" IVar="-1" Cut="0.0000000000000000e+00" cType="1" res="-3.0190174002200365e-03" rms="9.3980252742767334e-02" purity="1.0000000000000000e+00" nType="-99"/>
                <Node pos="r" depth="5" NCoef="0" IVar="-1" Cut="0.0000000000000000e+00" cType="1" res="-5.2654896862804890e-03" rms="8.4960564970970154e-02" purity="1.0000000000000000e+00" nType="-99"/>
              </Node>
              <Node pos="r" depth="4" NCoef="0" IVar="14" Cut="1.0729365348815918e+01" cType="1" res="-4.6639371663331985e-02" rms="8.6268067359924316e-02" purity="1.0000000000000000e+00" nType="0">
                <Node pos="l" depth="5" NCoef="0" IVar="-1" Cut="0.0000000000000000e+00" cType="1" res="-4.0483819320797920e-03" rms="8.7033145129680634e-02" purity="1.0000000000000000e+00" nType="-99"/>
                <Node pos="r" depth="5" NCoef="0" IVar="-1" Cut="0.0000000000000000e+00" cType="1" res="-5.9641655534505844e-03" rms="8.5728302597999573e-02" purity="1.0000000000000000e+00" nType="-99"/>
              </Node>
            </Node>
          </Node>
        </Node>
        <Node pos="r" depth="1" NCoef="0" IVar="17" Cut="-1.6742554903030396e+00" cType="1" res="3.4616552293300629e-02" rms="1.1039790511131287e-01" purity="1.0000000000000000e+00" nType="0">
          <Node pos="l" depth="2" NCoef="0" IVar="3" Cut="6.0787307739257812e+01" cType="1" res="4.2920266278088093e-03" rms="1.0747093707323074e-01" purity="1.0000000000000000e+00" nType="0">
            <Node pos="l" depth="3" NCoef="0" IVar="8" Cut="5.3864538669586182e-01" cType="1" res="2.4102082476019859e-02" rms="1.1587944626808167e-01" purity="1.0000000000000000e+00" nType="0">
              <Node pos="l" depth="4" NCoef="0" IVar="-1" Cut="0.0000000000000000e+00" cType="1" res="6.7507578060030937e-03" rms="1.1335193365812302e-01" purity="1.0000000000000000e+00" nType="-99"/>
              <Node pos="r" depth="4" NCoef="0" IVar="-1" Cut="0.0000000000000000e+00" cType="1" res="1.1387867853045464e-03" rms="1.1640875786542892e-01" purity="1.0000000000000000e+00" nType="-99"/>
            </Node>
            <Node pos="r" depth="3" NCoef="0" IVar="1" Cut="1.0504151582717896e+00" cType="1" res="-9.9748037755489349e-03" rms="9.8545938730239868e-02" purity="1.0000000000000000e+00" nType="0">
              <Node pos="l" depth="4" NCoef="0" IVar="-1" Cut="0.0000000000000000e+00" cType="1" res="-1.1482561239972711e-04" rms="9.9437542259693146e-02" purity="1.0000000000000000e+00" nType="-99"/>
              <Node pos="r" depth="4" NCoef="0" IVar="-1" Cut="0.0000000000000000e+00" cType="1" res="-2.4879809934645891e-03" rms="9.6896298229694366e-02" purity="1.0000000000000000e+00" nType="-99"/>
            </Node>
          </Node>
          <Node pos="r" depth="2" NCoef="0" IVar="17" Cut="9.4995361566543579e-01" cType="1" res="4.1355349123477936e-02" rms="1.0990743339061737e-01" purity="1.0000000000000000e+00" nType="0">
            <Node pos="l" depth="3" NCoef="0" IVar="16" Cut="2.8430307388305664e+01" cType="1" res="5.6227918714284897e-02" rms="1.0737994313240051e-01" purity="1.0000000000000000e+00" nType="0">
              <Node pos="l" depth="4" NCoef="0" IVar="3" Cut="6.8917259216308594e+01" cType="1" res="3.6008216440677643e-02" rms="1.0879689455032349e-01" purity="1.0000000000000000e+00" nType="0">
                <Node pos="l" depth="5" NCoef="0" IVar="-1" Cut="0.0000000000000000e+00" cType="1" res="9.7227850928902626e-03" rms="1.1257183551788330e-01" purity="1.0000000000000000e+00" nType="-99"/>
                <Node pos="r" depth="5" NCoef="0" IVar="-1" Cut="0.0000000000000000e+00" cType="1" res="1.9166792044416070e-03" rms="1.0014857351779938e-01" purity="1.0000000000000000e+00" nType="-99"/>
              </Node>
              <Node pos="r" depth="4" NCoef="0" IVar="17" Cut="-6.1618047952651978e-01" cType="1" res="6.8868748843669891e-02" rms="1.0451588779687881e-01" purity="1.0000000000000000e+00" nType="0">
                <Node pos="l" depth="5" NCoef="0" IVar="-1" Cut="0.0000000000000000e+00" cType="1" res="6.6462159156799316e-03" rms="1.1080767959356308e-01" purity="1.0000000000000000e+00" nType="-99"/>
                <Node pos="r" depth="5" NCoef="0" IVar="-1" Cut="0.0000000000000000e+00" cType="1" res="1.6762517392635345e-02" rms="1.0072192549705505e-01" purity="1.0000000000000000e+00" nType="-99"/>
              </Node>
            </Node>
            <Node pos="r" depth="3" NCoef="0" IVar="3" Cut="5.6158626556396484e+01" cType="1" res="1.2597083114087582e-02" rms="1.0902678221464157e-01" purity="1.0000000000000000e+00" nType="0">
              <Node pos="l" depth="4" NCoef="0" IVar="8" Cut="5.6388103961944580e-01" cType="1" res="3.4286722540855408e-02" rms="1.1682098358869553e-01" purity="1.0000000000000000e+00" nType="0">
                <Node pos="l" depth="5" NCoef="0" IVar="-1" Cut="0.0000000000000000e+00" cType="1" res="9.0278089046478271e-03" rms="1.1398039013147354e-01" purity="1.0000000000000000e+00" nType="-99"/>
                <Node pos="r" depth="5" NCoef="0" IVar="-1" Cut="0.0000000000000000e+00" cType="1" res="2.5772792287170887e-03" rms="1.1829309165477753e-01" purity="1.0000000000000000e+00" nType="-99"/>
              </Node>
              <Node pos="r" depth="4" NCoef="0" IVar="17" Cut="2.3672981262207031e+00" cType="1" res="-1.6713984077796340e-03" rms="1.0107304900884628e-01" purity="1.0000000000000000e+00" nType="0">
                <Node pos="l" depth="5" NCoef="0" IVar="-1" Cut="0.0000000000000000e+00" cType="1" res="7.5413950253278017e-04" rms="1.0213682055473328e-01" purity="1.0000000000000000e+00" nType="-99"/>
                <Node pos="r" depth="5" NCoef="0" IVar="-1" Cut="0.0000000000000000e+00" cType="1" res="-2.0145741291344166e-03" rms="9.8005957901477814e-02" purity="1.0000000000000000e+00" nType="-99"/>
              </Node>
            </Node>
          </Node>
        </Node>
      </Node>
    </BinaryTree>
    <BinaryTree type="DecisionTree" boostWeight="1.0000000000000000e+00" itree="6">
      <Node pos="s" depth="0" NCoef="0" IVar="3" Cut="4.0168266296386719e+01" cType="1" res="5.7995137758553028e-03" rms="1.0606639087200165e-01" purity="1.0000000000000000e+00" nType="0">
        <Node pos="l" depth="1" NCoef="0" IVar="3" Cut="1.7125278472900391e+01" cType="1" res="3.9558507502079010e-02" rms="1.1678092181682587e-01" purity="1.0000000000000000e+00" nType="0">
          <Node pos="l" depth="2" NCoef="0" IVar="-1" Cut="0.0000000000000000e+00" cType="1" res="4.8755779862403870e-02" rms="5.1283918321132660e-02" purity="1.0000000000000000e+00" nType="-99"/>
          <Node pos="r" depth="2" NCoef="0" IVar="8" Cut="6.5069884061813354e-01" cType="1" res="3.3317822962999344e-02" rms="1.1728620529174805e-01" purity="1.0000000000000000e+00" nType="0">
            <Node pos="l" depth="3" NCoef="0" IVar="17" Cut="-1.4610608816146851e+00" cType="1" res="5.0492059439420700e-02" rms="1.1467154324054718e-01" purity="1.0000000000000000e+00" nType="0">
              <Node pos="l" depth="4" NCoef="0" IVar="-1" Cut="0.0000000000000000e+00" cType="1" res="5.3327954374253750e-03" rms="1.1637710779905319e-01" purity="1.0000000000000000e+00" nType="-99"/>
              <Node pos="r" depth="4" NCoef="0" IVar="17" Cut="1.1296373605728149e+00" cType="1" res="5.5995170027017593e-02" rms="1.1358154565095901e-01" purity="1.0000000000000000e+00" nType="0">
                <Node pos="l" depth="5" NCoef="0" IVar="-1" Cut="0.0000000000000000e+00" cType="1" res="1.6442691907286644e-02" rms="1.1088677495718002e-01" purity="1.0000000000000000e+00" nType="-99"/>
                <Node pos="r" depth="5" NCoef="0" IVar="-1" Cut="0.0000000000000000e+00" cType="1" res="6.4419684931635857e-03" rms="1.1582250148057938e-01" purity="1.0000000000000000e+00" nType="-99"/>
              </Node>
            </Node>
            <Node pos="r" depth="3" NCoef="0" IVar="3" Cut="2.4346498489379883e+01" cType="1" res="1.8509408459067345e-02" rms="1.1749633401632309e-01" purity="1.0000000000000000e+00" nType="0">
              <Node pos="l" depth="4" NCoef="0" IVar="3" Cut="2.1478212356567383e+01" cType="1" res="4.4284429401159286e-02" rms="1.1241136491298676e-01" purity="1.0000000000000000e+00" nType="0">
                <Node pos="l" depth="5" NCoef="0" IVar="-1" Cut="0.0000000000000000e+00" cType="1" res="1.0201455093920231e-02" rms="1.0697896033525467e-01" purity="1.0000000000000000e+00" nType="-99"/>
                <Node pos="r" depth="5" NCoef="0" IVar="-1" Cut="0.0000000000000000e+00" cType="1" res="6.2473290599882603e-03" rms="1.1671216785907745e-01" purity="1.0000000000000000e+00" nType="-99"/>
              </Node>
              <Node pos="r" depth="4" NCoef="0" IVar="12" Cut="5.4982864856719971e-01" cType="1" res="1.1790258809924126e-02" rms="1.1786354333162308e-01" purity="1.0000000000000000e+00" nType="0">
                <Node pos="l" depth="5" NCoef="0" IVar="-1" Cut="0.0000000000000000e+00" cType="1" res="4.5992710511200130e-04" rms="1.1766252666711807e-01" purity="1.0000000000000000e+00" nType="-99"/>
                <Node pos="r" depth="5" NCoef="0" IVar="-1" Cut="0.0000000000000000e+00" cType="1" res="5.8244741521775723e-03" rms="1.1596771329641342e-01" purity="1.0000000000000000e+00" nType="-99"/>
              </Node>
            </Node>
          </Node>
        </Node>
        <Node pos="r" depth="1" NCoef="0" IVar="5" Cut="2.8463887050747871e-02" cType="1" res="-2.2886556107550859e-03" rms="1.0168358683586121e-01" purity="1.0000000000000000e+00" nType="0">
          <Node pos="l" depth="2" NCoef="0" IVar="11" Cut="1.5956971645355225e+00" cType="1" res="-1.3662347570061684e-02" rms="9.6866548061370850e-02" purity="1.0000000000000000e+00" nType="0">
            <Node pos="l" depth="3" NCoef="0" IVar="17" Cut="-1.5112280845642090e+00" cType="1" res="-6.4301593229174614e-03" rms="9.8657712340354919e-02" purity="1.0000000000000000e+00" nType="0">
              <Node pos="l" depth="4" NCoef="0" IVar="17" Cut="-2.5135304927825928e+00" cType="1" res="-2.3875815793871880e-02" rms="9.1742582619190216e-02" purity="1.0000000000000000e+00" nType="0">
                <Node pos="l" depth="5" NCoef="0" IVar="-1" Cut="0.0000000000000000e+00" cType="1" res="-3.8325991481542587e-03" rms="8.8639244437217712e-02" purity="1.0000000000000000e+00" nType="-99"/>
                <Node pos="r" depth="5" NCoef="0" IVar="-1" Cut="0.0000000000000000e+00" cType="1" res="-2.1648758556693792e-03" rms="9.3973219394683838e-02" purity="1.0000000000000000e+00" nType="-99"/>
              </Node>
              <Node pos="r" depth="4" NCoef="0" IVar="17" Cut="9.6841305494308472e-01" cType="1" res="-6.6524014982860535e-05" rms="1.0031002014875412e-01" purity="1.0000000000000000e+00" nType="0">
                <Node pos="l" depth="5" NCoef="0" IVar="-1" Cut="0.0000000000000000e+00" cType="1" res="1.9471941050142050e-03" rms="1.0279449075460434e-01" purity="1.0000000000000000e+00" nType="-99"/>
                <Node pos="r" depth="5" NCoef="0" IVar="-1" Cut="0.0000000000000000e+00" cType="1" res="-2.5192624889314175e-03" rms="9.3610085546970367e-02" purity="1.0000000000000000e+00" nType="-99"/>
              </Node>
            </Node>
            <Node pos="r" depth="3" NCoef="0" IVar="11" Cut="2.6038758754730225e+00" cType="1" res="-2.8304424136877060e-02" rms="9.1399163007736206e-02" purity="1.0000000000000000e+00" nType="0">
              <Node pos="l" depth="4" NCoef="0" IVar="17" Cut="-2.2135384082794189e+00" cType="1" res="-2.2104363888502121e-02" rms="9.3170173466205597e-02" purity="1.0000000000000000e+00" nType="0">
                <Node pos="l" depth="5" NCoef="0" IVar="-1" Cut="0.0000000000000000e+00" cType="1" res="-4.6075470745563507e-03" rms="8.5816495120525360e-02" purity="1.0000000000000000e+00" nType="-99"/>
                <Node pos="r" depth="5" NCoef="0" IVar="-1" Cut="0.0000000000000000e+00" cType="1" res="-2.3642836604267359e-03" rms="9.4398155808448792e-02" purity="1.0000000000000000e+00" nType="-99"/>
              </Node>
              <Node pos="r" depth="4" NCoef="0" IVar="17" Cut="-2.2887723445892334e+00" cType="1" res="-4.0026921778917313e-02" rms="8.6750708520412445e-02" purity="1.0000000000000000e+00" nType="0">
                <Node pos="l" depth="5" NCoef="0" IVar="-1" Cut="0.0000000000000000e+00" cType="1" res="-6.1166640371084213e-03" rms="7.9623036086559296e-02" purity="1.0000000000000000e+00" nType="-99"/>
                <Node pos="r" depth="5" NCoef="0" IVar="-1" Cut="0.0000000000000000e+00" cType="1" res="-4.4358717277646065e-03" rms="8.8133156299591064e-02" purity="1.0000000000000000e+00" nType="-99"/>
              </Node>
            </Node>
          </Node>
          <Node pos="r" depth="2" NCoef="0" IVar="17" Cut="1.0722784996032715e+00" cType="1" res="2.3386975750327110e-02" rms="1.0745871067047119e-01" purity="1.0000000000000000e+00" nType="0">
            <Node pos="l" depth="3" NCoef="0" IVar="17" Cut="-8.1176894903182983e-01" cType="1" res="3.1275387853384018e-02" rms="1.0788507014513016e-01" purity="1.0000000000000000e+00" nType="0">
              <Node pos="l" depth="4" NCoef="0" IVar="8" Cut="5.6607943773269653e-01" cType="1" res="4.5400359667837620e-03" rms="1.0411309450864792e-01" purity="1.0000000000000000e+00" nType="0">
                <Node pos="l" depth="5" NCoef="0" IVar="-1" Cut="0.0000000000000000e+00" cType="1" res="1.9504679366946220e-03" rms="1.0354979336261749e-01" purity="1.0000000000000000e+00" nType="-99"/>
                <Node pos="r" depth="5" NCoef="0" IVar="-1" Cut="0.0000000000000000e+00" cType="1" res="-1.2103862827643752e-03" rms="1.0332833230495453e-01" purity="1.0000000000000000e+00" nType="-99"/>
              </Node>
              <Node pos="r" depth="4" NCoef="0" IVar="16" Cut="5.6807315826416016e+01" cType="1" res="4.9695424735546112e-02" rms="1.0657563060522079e-01" purity="1.0000000000000000e+00" nType="0">
                <Node pos="l" depth="5" NCoef="0" IVar="-1" Cut="0.0000000000000000e+00" cType="1" res="5.8395969681441784e-03" rms="1.0622327774763107e-01" purity="1.0000000000000000e+00" nType="-99"/>
                <Node pos="r" depth="5" NCoef="0" IVar="-1" Cut="0.0000000000000000e+00" cType="1" res="1.9115205854177475e-02" rms="1.0160988569259644e-01" purity="1.0000000000000000e+00" nType="-99"/>
              </Node>
            </Node>
            <Node pos="r" depth="3" NCoef="0" IVar="8" Cut="5.8934271335601807e-01" cType="1" res="1.1137210531160235e-03" rms="1.0303560644388199e-01" purity="1.0000000000000000e+00" nType="0">
              <Node pos="l" depth="4" NCoef="0" IVar="3" Cut="1.1045050048828125e+02" cType="1" res="1.0422037914395332e-02" rms="1.0283364355564117e-01" purity="1.0000000000000000e+00" nType="0">
                <Node pos="l" depth="5" NCoef="0" IVar="-1" Cut="0.0000000000000000e+00" cType="1" res="2.4802754633128643e-03" rms="1.0638250410556793e-01" purity="1.0000000000000000e+00" nType="-99"/>
                <Node pos="r" depth="5" NCoef="0" IVar="-1" Cut="0.0000000000000000e+00" cType="1" res="-1.2341536348685622e-03" rms="9.0714417397975922e-02" purity="1.0000000000000000e+00" nType="-99"/>
              </Node>
              <Node pos="r" depth="4" NCoef="0" IVar="17" Cut="2.4022567272186279e+00" cType="1" res="-1.0486970655620098e-02" rms="1.0210579633712769e-01" purity="1.0000000000000000e+00" nType="0">
                <Node pos="l" depth="5" NCoef="0" IVar="-1" Cut="0.0000000000000000e+00" cType="1" res="-4.6001249575056136e-04" rms="1.0375059396028519e-01" purity="1.0000000000000000e+00" nType="-99"/>
                <Node pos="r" depth="5" NCoef="0" IVar="-1" Cut="0.0000000000000000e+00" cType="1" res="-3.0110080260783434e-03" rms="9.8520331084728241e-02" purity="1.0000000000000000e+00" nType="-99"/>
              </Node>
            </Node>
          </Node>
        </Node>
      </Node>
    </BinaryTree>
    <BinaryTree type="DecisionTree" boostWeight="1.0000000000000000e+00" itree="7">
      <Node pos="s" depth="0" NCoef="0" IVar="5" Cut="1.3417591154575348e-01" cType="1" res="5.2760574035346508e-03" rms="1.0534316301345825e-01" purity="1.0000000000000000e+00" nType="0">
        <Node pos="l" depth="1" NCoef="0" IVar="3" Cut="3.3608871459960938e+01" cType="1" res="-2.2055869922041893e-03" rms="1.0248492658138275e-01" purity="1.0000000000000000e+00" nType="0">
          <Node pos="l" depth="2" NCoef="0" IVar="3" Cut="1.7635869979858398e+01" cType="1" res="3.6316446959972382e-02" rms="1.1649274826049805e-01" purity="1.0000000000000000e+00" nType="0">
            <Node pos="l" depth="3" NCoef="0" IVar="-1" Cut="0.0000000000000000e+00" cType="1" res="3.5517450422048569e-02" rms="8.0361597239971161e-02" purity="1.0000000000000000e+00" nType="-99"/>
            <Node pos="r" depth="3" NCoef="0" IVar="3" Cut="2.2896427154541016e+01" cType="1" res="2.7853399515151978e-02" rms="1.1710305511951447e-01" purity="1.0000000000000000e+00" nType="0">
              <Node pos="l" depth="4" NCoef="0" IVar="-1" Cut="0.0000000000000000e+00" cType="1" res="9.5584597438573837e-03" rms="1.1095342040061951e-01" purity="1.0000000000000000e+00" nType="-99"/>
              <Node pos="r" depth="4" NCoef="0" IVar="8" Cut="8.1836354732513428e-01" cType="1" res="2.1615248173475266e-02" rms="1.1814582347869873e-01" purity="1.0000000000000000e+00" nType="0">
                <Node pos="l" depth="5" NCoef="0" IVar="-1" Cut="0.0000000000000000e+00" cType="1" res="5.1378030329942703e-03" rms="1.1722467839717865e-01" purity="1.0000000000000000e+00" nType="-99"/>
                <Node pos="r" depth="5" NCoef="0" IVar="-1" Cut="0.0000000000000000e+00" cType="1" res="6.2557955970987678e-04" rms="1.1877775937318802e-01" purity="1.0000000000000000e+00" nType="-99"/>
              </Node>
            </Node>
          </Node>
          <Node pos="r" depth="2" NCoef="0" IVar="17" Cut="2.1132006645202637e+00" cType="1" res="-7.4719265103340149e-03" rms="9.9263340234756470e-02" purity="1.0000000000000000e+00" nType="0">
            <Node pos="l" depth="3" NCoef="0" IVar="17" Cut="-9.7045171260833740e-01" cType="1" res="-2.7230049017816782e-03" rms="1.0049695521593094e-01" purity="1.0000000000000000e+00" nType="0">
              <Node pos="l" depth="4" NCoef="0" IVar="3" Cut="6.9557983398437500e+01" cType="1" res="-2.0252620801329613e-02" rms="9.4299502670764923e-02" purity="1.0000000000000000e+00" nType="0">
                <Node pos="l" depth="5" NCoef="0" IVar="-1" Cut="0.0000000000000000e+00" cType="1" res="-1.4822147786617279e-03" rms="1.0684098303318024e-01" purity="1.0000000000000000e+00" nType="-99"/>
                <Node pos="r" depth="5" NCoef="0" IVar="-1" Cut="0.0000000000000000e+00" cType="1" res="-3.1460756435990334e-03" rms="8.5856378078460693e-02" purity="1.0000000000000000e+00" nType="-99"/>
              </Node>
              <Node pos="r" depth="4" NCoef="0" IVar="16" Cut="4.4834407806396484e+01" cType="1" res="9.6796816214919090e-03" rms="1.0287154465913773e-01" purity="1.0000000000000000e+00" nType="0">
                <Node pos="l" depth="5" NCoef="0" IVar="-1" Cut="0.0000000000000000e+00" cType="1" res="-8.4416526078712195e-05" rms="1.0035177320241928e-01" purity="1.0000000000000000e+00" nType="-99"/>
                <Node pos="r" depth="5" NCoef="0" IVar="-1" Cut="0.0000000000000000e+00" cType="1" res="4.4627017341554165e-03" rms="1.0595908015966415e-01" purity="1.0000000000000000e+00" nType="-99"/>
              </Node>
            </Node>
            <Node pos="r" depth="3" NCoef="0" IVar="8" Cut="7.2455108165740967e-01" cType="1" res="-2.7643015608191490e-02" rms="9.1125436127185822e-02" purity="1.0000000000000000e+00" nType="0">
              <Node pos="l" depth="4" NCoef="0" IVar="3" Cut="7.9080703735351562e+01" cType="1" res="-1.9582798704504967e-02" rms="8.9723110198974609e-02" purity="1.0000000000000000e+00" nType="0">
                <Node pos="l" depth="5" NCoef="0" IVar="-1" Cut="0.0000000000000000e+00" cType="1" res="-9.4381591770797968e-04" rms="1.0312234610319138e-01" purity="1.0000000000000000e+00" nType="-99"/>
                <Node pos="r" depth="5" NCoef="0" IVar="-1" Cut="0.0000000000000000e+00" cType="1" res="-3.0666030943393707e-03" rms="8.0827519297599792e-02" purity="1.0000000000000000e+00" nType="-99"/>
              </Node>
              <Node pos="r" depth="4" NCoef="0" IVar="16" Cut="2.0940841674804688e+01" cType="1" res="-3.6765132099390030e-02" rms="9.1837488114833832e-02" purity="1.0000000000000000e+00" nType="0">
                <Node pos="l" depth="5" NCoef="0" IVar="-1" Cut="0.0000000000000000e+00" cType="1" res="-2.9939166270196438e-03" rms="9.4436958432197571e-02" purity="1.0000000000000000e+00" nType="-99"/>
                <Node pos="r" depth="5" NCoef="0" IVar="-1" Cut="0.0000000000000000e+00" cType="1" res="-5.2021602168679237e-03" rms="9.0385615825653076e-02" purity="1.0000000000000000e+00" nType="-99"/>
              </Node>
            </Node>
          </Node>
        </Node>
        <Node pos="r" depth="1" NCoef="0" IVar="3" Cut="7.4565734863281250e+01" cType="1" res="3.5621289163827896e-02" rms="1.1116943508386612e-01" purity="1.0000000000000000e+00" nType="0">
          <Node pos="l" depth="2" NCoef="0" IVar="3" Cut="2.7492500305175781e+01" cType="1" res="4.7663416713476181e-02" rms="1.1372703313827515e-01" purity="1.0000000000000000e+00" nType="0">
            <Node pos="l" depth="3" NCoef="0" IVar="-1" Cut="0.0000000000000000e+00" cType="1" res="2.3863475769758224e-02" rms="1.1163327842950821e-01" purity="1.0000000000000000e+00" nType="-99"/>
            <Node pos="r" depth="3" NCoef="0" IVar="17" Cut="1.3105602264404297e+00" cType="1" res="4.2169887572526932e-02" rms="1.1336358636617661e-01" purity="1.0000000000000000e+00" nType="0">
              <Node pos="l" depth="4" NCoef="0" IVar="17" Cut="-1.0266056060791016e+00" cType="1" res="4.8610705882310867e-02" rms="1.1272430419921875e-01" purity="1.0000000000000000e+00" nType="0">
                <Node pos="l" depth="5" NCoef="0" IVar="-1" Cut="0.0000000000000000e+00" cType="1" res="3.8629560731351376e-03" rms="1.1285024136304855e-01" purity="1.0000000000000000e+00" nType="-99"/>
                <Node pos="r" depth="5" NCoef="0" IVar="-1" Cut="0.0000000000000000e+00" cType="1" res="1.3681137003004551e-02" rms="1.1060064285993576e-01" purity="1.0000000000000000e+00" nType="-99"/>
              </Node>
              <Node pos="r" depth="4" NCoef="0" IVar="8" Cut="4.6841531991958618e-01" cType="1" res="1.9567452371120453e-02" rms="1.1270342022180557e-01" purity="1.0000000000000000e+00" nType="0">
                <Node pos="l" depth="5" NCoef="0" IVar="-1" Cut="0.0000000000000000e+00" cType="1" res="4.8992331139743328e-03" rms="1.1030555516481400e-01" purity="1.0000000000000000e+00" nType="-99"/>
                <Node pos="r" depth="5" NCoef="0" IVar="-1" Cut="0.0000000000000000e+00" cType="1" res="1.2522870674729347e-03" rms="1.1383524537086487e-01" purity="1.0000000000000000e+00" nType="-99"/>
              </Node>
            </Node>
          </Node>
          <Node pos="r" depth="2" NCoef="0" IVar="16" Cut="7.5295539855957031e+01" cType="1" res="1.8151650205254555e-02" rms="1.0492208600044250e-01" purity="1.0000000000000000e+00" nType="0">
            <Node pos="l" depth="3" NCoef="0" IVar="3" Cut="1.6363719177246094e+02" cType="1" res="1.1814601719379425e-02" rms="1.0272494703531265e-01" purity="1.0000000000000000e+00" nType="0">
              <Node pos="l" depth="4" NCoef="0" IVar="17" Cut="-1.5989999771118164e+00" cType="1" res="1.8420170992612839e-02" rms="1.0440143197774887e-01" purity="1.0000000000000000e+00" nType="0">
                <Node pos="l" depth="5" NCoef="0" IVar="-1" Cut="0.0000000000000000e+00" cType="1" res="-1.0322978487238288e-03" rms="9.8884455859661102e-02" purity="1.0000000000000000e+00" nType="-99"/>
                <Node pos="r" depth="5" NCoef="0" IVar="-1" Cut="0.0000000000000000e+00" cType="1" res="3.2831968273967505e-03" rms="1.0478334128856659e-01" purity="1.0000000000000000e+00" nType="-99"/>
              </Node>
              <Node pos="r" depth="4" NCoef="0" IVar="-1" Cut="0.0000000000000000e+00" cType="1" res="-1.9154950277879834e-03" rms="9.0723551809787750e-02" purity="1.0000000000000000e+00" nType="-99"/>
            </Node>
            <Node pos="r" depth="3" NCoef="0" IVar="-1" Cut="0.0000000000000000e+00" cType="1" res="1.3254482299089432e-02" rms="1.0959541797637939e-01" purity="1.0000000000000000e+00" nType="-99"/>
          </Node>
        </Node>
      </Node>
    </BinaryTree>
    <BinaryTree type="DecisionTree" boostWeight="1.0000000000000000e+00" itree="8">
      <Node pos="s" depth="0" NCoef="0" IVar="3" Cut="5.0007354736328125e+01" cType="1" res="4.8143309541046619e-03" rms="1.0488627105951309e-01" purity="1.0000000000000000e+00" nType="0">
        <Node pos="l" depth="1" NCoef="0" IVar="3" Cut="1.6477199554443359e+01" cType="1" res="2.6490885764360428e-02" rms="1.1643072962760925e-01" purity="1.0000000000000000e+00" nType="0">
          <Node pos="l" depth="2" NCoef="0" IVar="-1" Cut="0.0000000000000000e+00" cType="1" res="4.5839484781026840e-02" rms="6.1640247702598572e-02" purity="1.0000000000000000e+00" nType="-99"/>
          <Node pos="r" depth="2" NCoef="0" IVar="8" Cut="6.1676669120788574e-01" cType="1" res="2.2901585325598717e-02" rms="1.1639548093080521e-01" purity="1.0000000000000000e+00" nType="0">
            <Node pos="l" depth="3" NCoef="0" IVar="17" Cut="-1.6867971420288086e+00" cType="1" res="4.1234292089939117e-02" rms="1.1482575535774231e-01" purity="1.0000000000000000e+00" nType="0">
              <Node pos="l" depth="4" NCoef="0" IVar="8" Cut="4.8011651635169983e-01" cType="1" res="2.1496362984180450e-02" rms="1.1416300386190414e-01" purity="1.0000000000000000e+00" nType="0">
                <Node pos="l" depth="5" NCoef="0" IVar="-1" Cut="0.0000000000000000e+00" cType="1" res="4.8013650812208652e-03" rms="1.1386102437973022e-01" purity="1.0000000000000000e+00" nType="-99"/>
                <Node pos="r" depth="5" NCoef="0" IVar="-1" Cut="0.0000000000000000e+00" cType="1" res="2.1332555916160345e-03" rms="1.1402703821659088e-01" purity="1.0000000000000000e+00" nType="-99"/>
              </Node>
              <Node pos="r" depth="4" NCoef="0" IVar="17" Cut="1.0888009071350098e+00" cType="1" res="4.5629572123289108e-02" rms="1.1451059579849243e-01" purity="1.0000000000000000e+00" nType="0">
                <Node pos="l" depth="5" NCoef="0" IVar="-1" Cut="0.0000000000000000e+00" cType="1" res="1.2572020292282104e-02" rms="1.1331798136234283e-01" purity="1.0000000000000000e+00" nType="-99"/>
                <Node pos="r" depth="5" NCoef="0" IVar="-1" Cut="0.0000000000000000e+00" cType="1" res="4.5640845783054829e-03" rms="1.1456443369388580e-01" purity="1.0000000000000000e+00" nType="-99"/>
              </Node>
            </Node>
            <Node pos="r" depth="3" NCoef="0" IVar="3" Cut="2.8925628662109375e+01" cType="1" res="1.0542181320488453e-02" rms="1.1581565439701080e-01" purity="1.0000000000000000e+00" nType="0">
              <Node pos="l" depth="4" NCoef="0" IVar="12" Cut="4.7611495852470398e-01" cType="1" res="2.7486648410558701e-02" rms="1.1800786852836609e-01" purity="1.0000000000000000e+00" nType="0">
                <Node pos="l" depth="5" NCoef="0" IVar="-1" Cut="0.0000000000000000e+00" cType="1" res="3.7880917079746723e-03" rms="1.1825091391801834e-01" purity="1.0000000000000000e+00" nType="-99"/>
                <Node pos="r" depth="5" NCoef="0" IVar="-1" Cut="0.0000000000000000e+00" cType="1" res="1.0099902749061584e-02" rms="1.1503741145133972e-01" purity="1.0000000000000000e+00" nType="-99"/>
              </Node>
              <Node pos="r" depth="4" NCoef="0" IVar="12" Cut="7.4711185693740845e-01" cType="1" res="4.1974894702434540e-03" rms="1.1433970183134079e-01" purity="1.0000000000000000e+00" nType="0">
                <Node pos="l" depth="5" NCoef="0" IVar="-1" Cut="0.0000000000000000e+00" cType="1" res="-5.3936580661684275e-04" rms="1.1389246582984924e-01" purity="1.0000000000000000e+00" nType="-99"/>
                <Node pos="r" depth="5" NCoef="0" IVar="-1" Cut="0.0000000000000000e+00" cType="1" res="3.9249192923307419e-03" rms="1.1367758363485336e-01" purity="1.0000000000000000e+00" nType="-99"/>
              </Node>
            </Node>
          </Node>
        </Node>
        <Node pos="r" depth="1" NCoef="0" IVar="5" Cut="2.2771110758185387e-02" cType="1" res="-3.9728414267301559e-03" rms="9.8476938903331757e-02" purity="1.0000000000000000e+00" nType="0">
          <Node pos="l" depth="2" NCoef="0" IVar="11" Cut="1.5308314561843872e+00" cType="1" res="-1.3334099203348160e-02" rms="9.3637704849243164e-02" purity="1.0000000000000000e+00" nType="0">
            <Node pos="l" depth="3" NCoef="0" IVar="17" Cut="2.2260682582855225e+00" cType="1" res="-6.6750855185091496e-03" rms="9.5412589609622955e-02" purity="1.0000000000000000e+00" nType="0">
              <Node pos="l" depth="4" NCoef="0" IVar="17" Cut="-9.3453174829483032e-01" cType="1" res="-2.4955663830041885e-03" rms="9.6643492579460144e-02" purity="1.0000000000000000e+00" nType="0">
                <Node pos="l" depth="5" NCoef="0" IVar="-1" Cut="0.0000000000000000e+00" cType="1" res="-2.3336096201092005e-03" rms="9.0050034224987030e-02" purity="1.0000000000000000e+00" nType="-99"/>
                <Node pos="r" depth="5" NCoef="0" IVar="-1" Cut="0.0000000000000000e+00" cType="1" res="8.9859071886166930e-04" rms="9.9455207586288452e-02" purity="1.0000000000000000e+00" nType="-99"/>
              </Node>
              <Node pos="r" depth="4" NCoef="0" IVar="16" Cut="2.9296930313110352e+01" cType="1" res="-2.5792162865400314e-02" rms="8.7045364081859589e-02" purity="1.0000000000000000e+00" nType="0">
                <Node pos="l" depth="5" NCoef="0" IVar="-1" Cut="0.0000000000000000e+00" cType="1" res="-2.0254508126527071e-03" rms="8.8628172874450684e-02" purity="1.0000000000000000e+00" nType="-99"/>
                <Node pos="r" depth="5" NCoef="0" IVar="-1" Cut="0.0000000000000000e+00" cType="1" res="-3.8116672076284885e-03" rms="8.5370756685733795e-02" purity="1.0000000000000000e+00" nType="-99"/>
              </Node>
            </Node>
            <Node pos="r" depth="3" NCoef="0" IVar="11" Cut="2.6911919116973877e+00" cType="1" res="-2.5247408077120781e-02" rms="8.9142918586730957e-02" purity="1.0000000000000000e+00" nType="0">
              <Node pos="l" depth="4" NCoef="0" IVar="17" Cut="2.3514797687530518e+00" cType="1" res="-2.0510964095592499e-02" rms="9.0577684342861176e-02" purity="1.0000000000000000e+00" nType="0">
                <Node pos="l" depth="5" NCoef="0" IVar="-1" Cut="0.0000000000000000e+00" cType="1" res="-2.2124149836599827e-03" rms="9.1712109744548798e-02" purity="1.0000000000000000e+00" nType="-99"/>
                <Node pos="r" depth="5" NCoef="0" IVar="-1" Cut="0.0000000000000000e+00" cType="1" res="-4.1845235973596573e-03" rms="8.3269961178302765e-02" purity="1.0000000000000000e+00" nType="-99"/>
              </Node>
              <Node pos="r" depth="4" NCoef="0" IVar="17" Cut="2.3765609264373779e+00" cType="1" res="-3.6218278110027313e-02" rms="8.4716431796550751e-02" purity="1.0000000000000000e+00" nType="0">
                <Node pos="l" depth="5" NCoef="0" IVar="-1" Cut="0.0000000000000000e+00" cType="1" res="-3.9999010041356087e-03" rms="8.5838370025157928e-02" purity="1.0000000000000000e+00" nType="-99"/>
                <Node pos="r" depth="5" NCoef="0" IVar="-1" Cut="0.0000000000000000e+00" cType="1" res="-5.4188729263842106e-03" rms="7.8758828341960907e-02" purity="1.0000000000000000e+00" nType="-99"/>
              </Node>
            </Node>
          </Node>
          <Node pos="r" depth="2" NCoef="0" IVar="17" Cut="8.2145345211029053e-01" cType="1" res="1.6937416046857834e-02" rms="1.0555268079042435e-01" purity="1.0000000000000000e+00" nType="0">
            <Node pos="l" depth="3" NCoef="0" IVar="17" Cut="-6.8149560689926147e-01" cType="1" res="2.4739699438214302e-02" rms="1.0655955970287323e-01" purity="1.0000000000000000e+00" nType="0">
              <Node pos="l" depth="4" NCoef="0" IVar="17" Cut="-2.3166432380676270e+00" cType="1" res="1.8585252109915018e-03" rms="1.0158975422382355e-01" purity="1.0000000000000000e+00" nType="0">
                <Node pos="l" depth="5" NCoef="0" IVar="-1" Cut="0.0000000000000000e+00" cType="1" res="-1.7990374471992254e-03" rms="9.7571618854999542e-02" purity="1.0000000000000000e+00" nType="-99"/>
                <Node pos="r" depth="5" NCoef="0" IVar="-1" Cut="0.0000000000000000e+00" cType="1" res="1.1939001269638538e-03" rms="1.0288345068693161e-01" purity="1.0000000000000000e+00" nType="-99"/>
              </Node>
              <Node pos="r" depth="4" NCoef="0" IVar="16" Cut="5.2352935791015625e+01" cType="1" res="4.4141922146081924e-02" rms="1.0682567954063416e-01" purity="1.0000000000000000e+00" nType="0">
                <Node pos="l" depth="5" NCoef="0" IVar="-1" Cut="0.0000000000000000e+00" cType="1" res="4.3284553103148937e-03" rms="1.0518453270196915e-01" purity="1.0000000000000000e+00" nType="-99"/>
                <Node pos="r" depth="5" NCoef="0" IVar="-1" Cut="0.0000000000000000e+00" cType="1" res="1.5736484900116920e-02" rms="1.0512777417898178e-01" purity="1.0000000000000000e+00" nType="-99"/>
              </Node>
            </Node>
            <Node pos="r" depth="3" NCoef="0" IVar="17" Cut="2.3913669586181641e+00" cType="1" res="-1.4326410600915551e-03" rms="1.0078559815883636e-01" purity="1.0000000000000000e+00" nType="0">
              <Node pos="l" depth="4" NCoef="0" IVar="8" Cut="5.3190743923187256e-01" cType="1" res="5.0687431357800961e-03" rms="1.0237650573253632e-01" purity="1.0000000000000000e+00" nType="0">
                <Node pos="l" depth="5" NCoef="0" IVar="-1" Cut="0.0000000000000000e+00" cType="1" res="1.7200788715854287e-03" rms="1.0257522016763687e-01" purity="1.0000000000000000e+00" nType="-99"/>
                <Node pos="r" depth="5" NCoef="0" IVar="-1" Cut="0.0000000000000000e+00" cType="1" res="-4.6267162542790174e-04" rms="1.0164370387792587e-01" purity="1.0000000000000000e+00" nType="-99"/>
              </Node>
              <Node pos="r" depth="4" NCoef="0" IVar="1" Cut="1.0536578893661499e+00" cType="1" res="-1.2754560448229313e-02" rms="9.6917904913425446e-02" purity="1.0000000000000000e+00" nType="0">
                <Node pos="l" depth="5" NCoef="0" IVar="-1" Cut="0.0000000000000000e+00" cType="1" res="-6.5013382118195295e-04" rms="9.7614206373691559e-02" purity="1.0000000000000000e+00" nType="-99"/>
                <Node pos="r" depth="5" NCoef="0" IVar="-1" Cut="0.0000000000000000e+00" cType="1" res="-2.8260587714612484e-03" rms="9.5414966344833374e-02" purity="1.0000000000000000e+00" nType="-99"/>
              </Node>
            </Node>
          </Node>
        </Node>
      </Node>
    </BinaryTree>
    <BinaryTree type="DecisionTree" boostWeight="1.0000000000000000e+00" itree="9">
      <Node pos="s" depth="0" NCoef="0" IVar="5" Cut="1.5268294513225555e-01" cType="1" res="4.4135847128927708e-03" rms="1.0440897941589355e-01" purity="1.0000000000000000e+00" nType="0">
        <Node pos="l" depth="1" NCoef="0" IVar="3" Cut="4.3447959899902344e+01" cType="1" res="-1.5404877485707402e-03" rms="1.0171923786401749e-01" purity="1.0000000000000000e+00" nType="0">
          <Node pos="l" depth="2" NCoef="0" IVar="3" Cut="2.0116943359375000e+01" cType="1" res="2.0934034138917923e-02" rms="1.1646521091461182e-01" purity="1.0000000000000000e+00" nType="0">
            <Node pos="l" depth="3" NCoef="0" IVar="-1" Cut="0.0000000000000000e+00" cType="1" res="1.9187837839126587e-02" rms="1.0565498471260071e-01" purity="1.0000000000000000e+00" nType="-99"/>
            <Node pos="r" depth="3" NCoef="0" IVar="8" Cut="7.9840350151062012e-01" cType="1" res="1.5034972690045834e-02" rms="1.1623986810445786e-01" purity="1.0000000000000000e+00" nType="0">
              <Node pos="l" depth="4" NCoef="0" IVar="12" Cut="7.5928717851638794e-01" cType="1" res="2.2117143496870995e-02" rms="1.1551284044981003e-01" purity="1.0000000000000000e+00" nType="0">
                <Node pos="l" depth="5" NCoef="0" IVar="-1" Cut="0.0000000000000000e+00" cType="1" res="2.9911072924733162e-03" rms="1.1573620140552521e-01" purity="1.0000000000000000e+00" nType="-99"/>
                <Node pos="r" depth="5" NCoef="0" IVar="-1" Cut="0.0000000000000000e+00" cType="1" res="7.8835794702172279e-03" rms="1.1215957254171371e-01" purity="1.0000000000000000e+00" nType="-99"/>
              </Node>
              <Node pos="r" depth="4" NCoef="0" IVar="12" Cut="7.1422988176345825e-01" cType="1" res="7.8256352571770549e-04" rms="1.1639035493135452e-01" purity="1.0000000000000000e+00" nType="0">
                <Node pos="l" depth="5" NCoef="0" IVar="-1" Cut="0.0000000000000000e+00" cType="1" res="-1.0921026114374399e-03" rms="1.1570040136575699e-01" purity="1.0000000000000000e+00" nType="-99"/>
                <Node pos="r" depth="5" NCoef="0" IVar="-1" Cut="0.0000000000000000e+00" cType="1" res="3.5518968943506479e-03" rms="1.1692500114440918e-01" purity="1.0000000000000000e+00" nType="-99"/>
              </Node>
            </Node>
          </Node>
          <Node pos="r" depth="2" NCoef="0" IVar="11" Cut="2.0367841720581055e+00" cType="1" res="-7.5254007242619991e-03" rms="9.6538625657558441e-02" purity="1.0000000000000000e+00" nType="0">
            <Node pos="l" depth="3" NCoef="0" IVar="17" Cut="1.6742559671401978e+00" cType="1" res="-3.0572889372706413e-03" rms="9.7686313092708588e-02" purity="1.0000000000000000e+00" nType="0">
              <Node pos="l" depth="4" NCoef="0" IVar="17" Cut="-8.6343717575073242e-01" cType="1" res="1.8695954931899905e-03" rms="9.9330328404903412e-02" purity="1.0000000000000000e+00" nType="0">
                <Node pos="l" depth="5" NCoef="0" IVar="-1" Cut="0.0000000000000000e+00" cType="1" res="-1.8543208716437221e-03" rms="9.2929072678089142e-02" purity="1.0000000000000000e+00" nType="-99"/>
                <Node pos="r" depth="5" NCoef="0" IVar="-1" Cut="0.0000000000000000e+00" cType="1" res="1.7941459082067013e-03" rms="1.0248960554599762e-01" purity="1.0000000000000000e+00" nType="-99"/>
              </Node>
              <Node pos="r" depth="4" NCoef="0" IVar="8" Cut="7.4051916599273682e-01" cType="1" res="-1.8399657681584358e-02" rms="9.0680837631225586e-02" purity="1.0000000000000000e+00" nType="0">
                <Node pos="l" depth="5" NCoef="0" IVar="-1" Cut="0.0000000000000000e+00" cType="1" res="-1.6478498000651598e-03" rms="8.9152388274669647e-02" purity="1.0000000000000000e+00" nType="-99"/>
                <Node pos="r" depth="5" NCoef="0" IVar="-1" Cut="0.0000000000000000e+00" cType="1" res="-3.5613439977169037e-03" rms="9.2512942850589752e-02" purity="1.0000000000000000e+00" nType="-99"/>
              </Node>
            </Node>
            <Node pos="r" depth="3" NCoef="0" IVar="11" Cut="3.0522639751434326e+00" cType="1" res="-2.3412067443132401e-02" rms="9.0574637055397034e-02" purity="1.0000000000000000e+00" nType="0">
              <Node pos="l" depth="4" NCoef="0" IVar="5" Cut="1.4323255978524685e-02" cType="1" res="-1.8983090296387672e-02" rms="9.1845780611038208e-02" purity="1.0000000000000000e+00" nType="0">
                <Node pos="l" depth="5" NCoef="0" IVar="-1" Cut="0.0000000000000000e+00" cType="1" res="-2.7822798583656549e-03" rms="8.9258268475532532e-02" purity="1.0000000000000000e+00" nType="-99"/>
                <Node pos="r" depth="5" NCoef="0" IVar="-1" Cut="0.0000000000000000e+00" cType="1" res="-7.7769445488229394e-04" rms="1.0076925903558731e-01" purity="1.0000000000000000e+00" nType="-99"/>
              </Node>
              <Node pos="r" depth="4" NCoef="0" IVar="14" Cut="1.0972463607788086e+01" cType="1" res="-3.3906776458024979e-02" rms="8.6589187383651733e-02" purity="1.0000000000000000e+00" nType="0">
                <Node pos="l" depth="5" NCoef="0" IVar="-1" Cut="0.0000000000000000e+00" cType="1" res="-2.4130842648446560e-03" rms="8.7265893816947937e-02" purity="1.0000000000000000e+00" nType="-99"/>
                <Node pos="r" depth="5" NCoef="0" IVar="-1" Cut="0.0000000000000000e+00" cType="1" res="-4.6104155480861664e-03" rms="8.5878960788249969e-02" purity="1.0000000000000000e+00" nType="-99"/>
              </Node>
            </Node>
          </Node>
        </Node>
        <Node pos="r" depth="1" NCoef="0" IVar="3" Cut="9.0066741943359375e+01" cType="1" res="3.1075876206159592e-02" rms="1.1186752468347549e-01" purity="1.0000000000000000e+00" nType="0">
          <Node pos="l" depth="2" NCoef="0" IVar="11" Cut="2.7451760768890381e+00" cType="1" res="3.9786826819181442e-02" rms="1.1425527185201645e-01" purity="1.0000000000000000e+00" nType="0">
            <Node pos="l" depth="3" NCoef="0" IVar="17" Cut="1.4610551595687866e+00" cType="1" res="4.3253775686025620e-02" rms="1.1379940062761307e-01" purity="1.0000000000000000e+00" nType="0">
              <Node pos="l" depth="4" NCoef="0" IVar="17" Cut="-8.5404372215270996e-01" cType="1" res="4.8577368259429932e-02" rms="1.1331953853368759e-01" purity="1.0000000000000000e+00" nType="0">
                <Node pos="l" depth="5" NCoef="0" IVar="-1" Cut="0.0000000000000000e+00" cType="1" res="4.7768456861376762e-03" rms="1.1355004459619522e-01" purity="1.0000000000000000e+00" nType="-99"/>
                <Node pos="r" depth="5" NCoef="0" IVar="-1" Cut="0.0000000000000000e+00" cType="1" res="1.4208421111106873e-02" rms="1.1160028725862503e-01" purity="1.0000000000000000e+00" nType="-99"/>
              </Node>
              <Node pos="r" depth="4" NCoef="0" IVar="1" Cut="1.0493386983871460e+00" cType="1" res="2.1082986146211624e-02" rms="1.1311328411102295e-01" purity="1.0000000000000000e+00" nType="0">
                <Node pos="l" depth="5" NCoef="0" IVar="-1" Cut="0.0000000000000000e+00" cType="1" res="5.0102029927074909e-03" rms="1.1120167374610901e-01" purity="1.0000000000000000e+00" nType="-99"/>
                <Node pos="r" depth="5" NCoef="0" IVar="-1" Cut="0.0000000000000000e+00" cType="1" res="1.3799566077068448e-03" rms="1.1432572454214096e-01" purity="1.0000000000000000e+00" nType="-99"/>
              </Node>
            </Node>
            <Node pos="r" depth="3" NCoef="0" IVar="-1" Cut="0.0000000000000000e+00" cType="1" res="4.9735699576558545e-05" rms="1.1241892725229263e-01" purity="1.0000000000000000e+00" nType="-99"/>
          </Node>
          <Node pos="r" depth="2" NCoef="0" IVar="16" Cut="6.8809135437011719e+01" cType="1" res="1.1090451851487160e-02" rms="1.0345091670751572e-01" purity="1.0000000000000000e+00" nType="0">
