<?xml version="1.0"?>
<MethodSetup Method="BDT::BDTG">
  <GeneralInfo>
    <Info name="TMVA Release" value="4.2.0 [262656]"/>
    <Info name="ROOT Release" value="6.02/05 [393733]"/>
    <Info name="Creator" value="cyeh"/>
    <Info name="Date" value="Fri Jun 24 03:59:40 2016"/>
    <Info name="Host" value="Linux cmsbuild13.cern.ch 2.6.32-504.8.1.el6.x86_64 #1 SMP Wed Jan 28 08:50:46 CET 2015 x86_64 x86_64 x86_64 GNU/Linux"/>
    <Info name="Dir" value="/home/cyeh/bjetregression/TMVA_jetGenJet_nu"/>
    <Info name="Training events" value="2600850"/>
    <Info name="TrainingTime" value="6.10994812e+03"/>
    <Info name="AnalysisType" value="Regression"/>
  </GeneralInfo>
  <Options>
    <Option name="V" modified="No">False</Option>
    <Option name="VerbosityLevel" modified="No">Default</Option>
    <Option name="VarTransform" modified="No">None</Option>
    <Option name="H" modified="No">False</Option>
    <Option name="CreateMVAPdfs" modified="No">False</Option>
    <Option name="IgnoreNegWeightsInTraining" modified="No">False</Option>
    <Option name="NTrees" modified="Yes">500</Option>
    <Option name="MaxDepth" modified="Yes">5</Option>
    <Option name="MinNodeSize" modified="Yes">1</Option>
    <Option name="nCuts" modified="Yes">500</Option>
    <Option name="BoostType" modified="Yes">Grad</Option>
    <Option name="AdaBoostR2Loss" modified="No">quadratic</Option>
    <Option name="UseBaggedBoost" modified="No">False</Option>
    <Option name="Shrinkage" modified="Yes">1.000000e-01</Option>
    <Option name="AdaBoostBeta" modified="No">5.000000e-01</Option>
    <Option name="UseRandomisedTrees" modified="No">False</Option>
    <Option name="UseNvars" modified="No">5</Option>
    <Option name="UsePoissonNvars" modified="No">True</Option>
    <Option name="BaggedSampleFraction" modified="No">6.000000e-01</Option>
    <Option name="UseYesNoLeaf" modified="No">False</Option>
    <Option name="NegWeightTreatment" modified="Yes">ignorenegweightsintraining</Option>
    <Option name="Css" modified="No">1.000000e+00</Option>
    <Option name="Cts_sb" modified="No">1.000000e+00</Option>
    <Option name="Ctb_ss" modified="No">1.000000e+00</Option>
    <Option name="Cbb" modified="No">1.000000e+00</Option>
    <Option name="NodePurityLimit" modified="No">5.000000e-01</Option>
    <Option name="SeparationType" modified="No">regressionvariance</Option>
    <Option name="DoBoostMonitor" modified="No">False</Option>
    <Option name="UseFisherCuts" modified="No">False</Option>
    <Option name="MinLinCorrForFisher" modified="No">8.000000e-01</Option>
    <Option name="UseExclusiveVars" modified="No">False</Option>
    <Option name="DoPreselection" modified="No">False</Option>
    <Option name="SigToBkgFraction" modified="No">1.000000e+00</Option>
    <Option name="PruneMethod" modified="Yes">costcomplexity</Option>
    <Option name="PruneStrength" modified="Yes">5.000000e+00</Option>
    <Option name="PruningValFraction" modified="No">5.000000e-01</Option>
    <Option name="nEventsMin" modified="No">0</Option>
    <Option name="UseBaggedGrad" modified="Yes">False</Option>
    <Option name="GradBaggingFraction" modified="No">6.000000e-01</Option>
    <Option name="UseNTrainEvents" modified="No">0</Option>
    <Option name="NNodesMax" modified="No">0</Option>
  </Options>
  <Variables NVar="20">
    <Variable VarIndex="0" Expression="Jet_pt" Label="Jet_pt" Title="Jet_pt" Unit="" Internal="Jet_pt" Type="F" Min="1.05304546e+01" Max="1.74480652e+03"/>
    <Variable VarIndex="1" Expression="Jet_corr" Label="Jet_corr" Title="Jet_corr" Unit="" Internal="Jet_corr" Type="F" Min="7.67045438e-01" Max="1.25586498e+00"/>
    <Variable VarIndex="2" Expression="rho" Label="rho" Title="rho" Unit="" Internal="rho" Type="F" Min="0.00000000e+00" Max="5.05867577e+01"/>
    <Variable VarIndex="3" Expression="Jet_eta" Label="Jet_eta" Title="Jet_eta" Unit="" Internal="Jet_eta" Type="F" Min="-2.39999580e+00" Max="2.39998984e+00"/>
    <Variable VarIndex="4" Expression="Jet_mt" Label="Jet_mt" Title="Jet_mt" Unit="" Internal="Jet_mt" Type="F" Min="1.08133507e+01" Max="1.75029553e+03"/>
    <Variable VarIndex="5" Expression="Jet_leadTrackPt" Label="Jet_leadTrackPt" Title="Jet_leadTrackPt" Unit="" Internal="Jet_leadTrackPt" Type="F" Min="0.00000000e+00" Max="1.12600000e+03"/>
    <Variable VarIndex="6" Expression="Jet_leptonPtRel" Label="Jet_leptonPtRel" Title="Jet_leptonPtRel" Unit="" Internal="Jet_leptonPtRel" Type="F" Min="0.00000000e+00" Max="9.50693846e-01"/>
    <Variable VarIndex="7" Expression="Jet_leptonPt" Label="Jet_leptonPt" Title="Jet_leptonPt" Unit="" Internal="Jet_leptonPt" Type="F" Min="0.00000000e+00" Max="7.32000000e+02"/>
    <Variable VarIndex="8" Expression="Jet_leptonDeltaR" Label="Jet_leptonDeltaR" Title="Jet_leptonDeltaR" Unit="" Internal="Jet_leptonDeltaR" Type="F" Min="0.00000000e+00" Max="5.27178705e-01"/>
    <Variable VarIndex="9" Expression="Jet_neHEF" Label="Jet_neHEF" Title="Jet_neHEF" Unit="" Internal="Jet_neHEF" Type="F" Min="0.00000000e+00" Max="9.72582042e-01"/>
    <Variable VarIndex="10" Expression="Jet_neEmEF" Label="Jet_neEmEF" Title="Jet_neEmEF" Unit="" Internal="Jet_neEmEF" Type="F" Min="0.00000000e+00" Max="1.00000012e+00"/>
    <Variable VarIndex="11" Expression="Jet_chMult" Label="Jet_chMult" Title="Jet_chMult" Unit="" Internal="Jet_chMult" Type="F" Min="0.00000000e+00" Max="7.20000000e+01"/>
    <Variable VarIndex="12" Expression="Jet_vtxPt" Label="Jet_vtxPt" Title="Jet_vtxPt" Unit="" Internal="Jet_vtxPt" Type="F" Min="0.00000000e+00" Max="6.13608337e+02"/>
    <Variable VarIndex="13" Expression="Jet_vtxMass" Label="Jet_vtxMass" Title="Jet_vtxMass" Unit="" Internal="Jet_vtxMass" Type="F" Min="0.00000000e+00" Max="6.49954700e+00"/>
    <Variable VarIndex="14" Expression="Jet_vtx3dL" Label="Jet_vtx3dL" Title="Jet_vtx3dL" Unit="" Internal="Jet_vtx3dL" Type="F" Min="0.00000000e+00" Max="1.42632103e+01"/>
    <Variable VarIndex="15" Expression="Jet_vtxNtrk" Label="Jet_vtxNtrk" Title="Jet_vtxNtrk" Unit="" Internal="Jet_vtxNtrk" Type="F" Min="0.00000000e+00" Max="1.40000000e+01"/>
    <Variable VarIndex="16" Expression="Jet_vtx3deL" Label="Jet_vtx3deL" Title="Jet_vtx3deL" Unit="" Internal="Jet_vtx3deL" Type="F" Min="0.00000000e+00" Max="3.63453735e+02"/>
    <Variable VarIndex="17" Expression="Jet_PFMET" Label="Jet_PFMET" Title="Jet_PFMET" Unit="" Internal="Jet_PFMET" Type="F" Min="2.70376541e-02" Max="7.48310364e+02"/>
    <Variable VarIndex="18" Expression="Jet_METDPhi" Label="Jet_METDPhi" Title="Jet_METDPhi" Unit="" Internal="Jet_METDPhi" Type="F" Min="-3.14159083e+00" Max="3.14159250e+00"/>
    <Variable VarIndex="19" Expression="Jet_JetDR" Label="Jet_JetDR" Title="Jet_JetDR" Unit="" Internal="Jet_JetDR" Type="F" Min="3.81845832e-01" Max="5.21402168e+00"/>
  </Variables>
  <Spectators NSpec="0"/>
  <Classes NClass="1">
    <Class Name="Regression" Index="0"/>
  </Classes>
  <Targets NTrgt="1">
    <Target TargetIndex="0" Expression="Jet_genjetPt/Jet_pt" Label="Jet_genjetPt/Jet_pt" Title="Jet_genjetPt/Jet_pt" Unit="" Internal="Jet_genjetPt_D_Jet_pt" Type="F" Min="1.89405441e-01" Max="8.09361649e+00"/>
  </Targets>
  <Transformations NTransformations="0"/>
  <MVAPdfs/>
  <Weights NTrees="500" AnalysisType="1">
    <BinaryTree type="DecisionTree" boostWeight="1.0307196378707886e+00" itree="0">
      <Node pos="s" depth="0" NCoef="0" IVar="6" Cut="4.9337405711412430e-02" cType="1" res="7.2759292088449001e-03" rms="9.3574322760105133e-02" purity="1.0000000000000000e+00" nType="0">
        <Node pos="l" depth="1" NCoef="0" IVar="18" Cut="-1.8372973203659058e+00" cType="1" res="-7.7162077650427818e-03" rms="9.0018592774868011e-02" purity="1.0000000000000000e+00" nType="0">
          <Node pos="l" depth="2" NCoef="0" IVar="4" Cut="6.1689788818359375e+01" cType="1" res="-3.7964310497045517e-02" rms="8.1062875688076019e-02" purity="1.0000000000000000e+00" nType="0">
            <Node pos="l" depth="3" NCoef="0" IVar="10" Cut="2.7744513750076294e-01" cType="1" res="-2.4869937915354967e-03" rms="9.9477164447307587e-02" purity="1.0000000000000000e+00" nType="0">
              <Node pos="l" depth="4" NCoef="0" IVar="-1" Cut="0.0000000000000000e+00" cType="1" res="-2.6037890929728746e-03" rms="9.9464453756809235e-02" purity="1.0000000000000000e+00" nType="-99"/>
              <Node pos="r" depth="4" NCoef="0" IVar="-1" Cut="0.0000000000000000e+00" cType="1" res="1.7282860353589058e-03" rms="9.7273252904415131e-02" purity="1.0000000000000000e+00" nType="-99"/>
            </Node>
            <Node pos="r" depth="3" NCoef="0" IVar="17" Cut="2.4489311218261719e+01" cType="1" res="-4.3082315474748611e-02" rms="7.6706081628799438e-02" purity="1.0000000000000000e+00" nType="0">
              <Node pos="l" depth="4" NCoef="0" IVar="13" Cut="2.0365381240844727e+00" cType="1" res="-3.1756572425365448e-02" rms="7.8997462987899780e-02" purity="1.0000000000000000e+00" nType="0">
                <Node pos="l" depth="5" NCoef="0" IVar="-1" Cut="0.0000000000000000e+00" cType="1" res="-3.3450291957706213e-03" rms="7.9706244170665741e-02" purity="1.0000000000000000e+00" nType="-99"/>
                <Node pos="r" depth="5" NCoef="0" IVar="-1" Cut="0.0000000000000000e+00" cType="1" res="-5.4210699163377285e-03" rms="7.5161583721637726e-02" purity="1.0000000000000000e+00" nType="-99"/>
              </Node>
              <Node pos="r" depth="4" NCoef="0" IVar="18" Cut="-2.3944334983825684e+00" cType="1" res="-4.8730432987213135e-02" rms="7.4900127947330475e-02" purity="1.0000000000000000e+00" nType="0">
                <Node pos="l" depth="5" NCoef="0" IVar="-1" Cut="0.0000000000000000e+00" cType="1" res="-6.4063989557325840e-03" rms="7.2746105492115021e-02" purity="1.0000000000000000e+00" nType="-99"/>
                <Node pos="r" depth="5" NCoef="0" IVar="-1" Cut="0.0000000000000000e+00" cType="1" res="-4.4006812386214733e-03" rms="7.8815162181854248e-02" purity="1.0000000000000000e+00" nType="-99"/>
              </Node>
            </Node>
          </Node>
          <Node pos="r" depth="2" NCoef="0" IVar="18" Cut="1.4422112703323364e+00" cType="1" res="1.8301344243809581e-03" rms="9.0592533349990845e-02" purity="1.0000000000000000e+00" nType="0">
            <Node pos="l" depth="3" NCoef="0" IVar="17" Cut="4.1847263336181641e+01" cType="1" res="2.3177545517683029e-02" rms="8.8630631566047668e-02" purity="1.0000000000000000e+00" nType="0">
              <Node pos="l" depth="4" NCoef="0" IVar="4" Cut="6.3127769470214844e+01" cType="1" res="1.2720694765448570e-02" rms="8.7327934801578522e-02" purity="1.0000000000000000e+00" nType="0">
                <Node pos="l" depth="5" NCoef="0" IVar="-1" Cut="0.0000000000000000e+00" cType="1" res="6.8623628467321396e-03" rms="9.6200071275234222e-02" purity="1.0000000000000000e+00" nType="-99"/>
                <Node pos="r" depth="5" NCoef="0" IVar="-1" Cut="0.0000000000000000e+00" cType="1" res="7.0695544127374887e-04" rms="8.4114015102386475e-02" purity="1.0000000000000000e+00" nType="-99"/>
              </Node>
              <Node pos="r" depth="4" NCoef="0" IVar="18" Cut="-7.8994935750961304e-01" cType="1" res="4.7540441155433655e-02" rms="8.6839675903320312e-02" purity="1.0000000000000000e+00" nType="0">
                <Node pos="l" depth="5" NCoef="0" IVar="-1" Cut="0.0000000000000000e+00" cType="1" res="3.8579938700422645e-04" rms="8.8356763124465942e-02" purity="1.0000000000000000e+00" nType="-99"/>
                <Node pos="r" depth="5" NCoef="0" IVar="-1" Cut="0.0000000000000000e+00" cType="1" res="9.0639516711235046e-03" rms="8.3349332213401794e-02" purity="1.0000000000000000e+00" nType="-99"/>
              </Node>
            </Node>
            <Node pos="r" depth="3" NCoef="0" IVar="4" Cut="6.3131996154785156e+01" cType="1" res="-3.3396955579519272e-02" rms="8.2427456974983215e-02" purity="1.0000000000000000e+00" nType="0">
              <Node pos="l" depth="4" NCoef="0" IVar="4" Cut="4.6839008331298828e+01" cType="1" res="5.3874653531238437e-04" rms="9.9370107054710388e-02" purity="1.0000000000000000e+00" nType="0">
                <Node pos="l" depth="5" NCoef="0" IVar="-1" Cut="0.0000000000000000e+00" cType="1" res="3.2455136533826590e-03" rms="1.0260496288537979e-01" purity="1.0000000000000000e+00" nType="-99"/>
                <Node pos="r" depth="5" NCoef="0" IVar="-1" Cut="0.0000000000000000e+00" cType="1" res="-1.4950332697480917e-03" rms="9.6307672560214996e-02" purity="1.0000000000000000e+00" nType="-99"/>
              </Node>
              <Node pos="r" depth="4" NCoef="0" IVar="18" Cut="2.3343019485473633e+00" cType="1" res="-3.9037782698869705e-02" rms="7.7839955687522888e-02" purity="1.0000000000000000e+00" nType="0">
                <Node pos="l" depth="5" NCoef="0" IVar="-1" Cut="0.0000000000000000e+00" cType="1" res="-3.1731915660202503e-03" rms="8.0378003418445587e-02" purity="1.0000000000000000e+00" nType="-99"/>
                <Node pos="r" depth="5" NCoef="0" IVar="-1" Cut="0.0000000000000000e+00" cType="1" res="-5.6962268427014351e-03" rms="7.4968032538890839e-02" purity="1.0000000000000000e+00" nType="-99"/>
              </Node>
            </Node>
          </Node>
        </Node>
        <Node pos="r" depth="1" NCoef="0" IVar="18" Cut="1.6491812467575073e+00" cType="1" res="4.9363933503627777e-02" rms="9.0478807687759399e-02" purity="1.0000000000000000e+00" nType="0">
          <Node pos="l" depth="2" NCoef="0" IVar="18" Cut="-1.4012264013290405e+00" cType="1" res="5.9168223291635513e-02" rms="8.7164871394634247e-02" purity="1.0000000000000000e+00" nType="0">
            <Node pos="l" depth="3" NCoef="0" IVar="4" Cut="6.4707092285156250e+01" cType="1" res="1.1045892722904682e-02" rms="9.2369198799133301e-02" purity="1.0000000000000000e+00" nType="0">
              <Node pos="l" depth="4" NCoef="0" IVar="-1" Cut="0.0000000000000000e+00" cType="1" res="7.7975722961127758e-03" rms="9.5153860747814178e-02" purity="1.0000000000000000e+00" nType="-99"/>
              <Node pos="r" depth="4" NCoef="0" IVar="18" Cut="-2.1793589591979980e+00" cType="1" res="1.0295308311469853e-04" rms="8.8731065392494202e-02" purity="1.0000000000000000e+00" nType="0">
                <Node pos="l" depth="5" NCoef="0" IVar="-1" Cut="0.0000000000000000e+00" cType="1" res="-1.5231998404487967e-03" rms="8.7478242814540863e-02" purity="1.0000000000000000e+00" nType="-99"/>
                <Node pos="r" depth="5" NCoef="0" IVar="-1" Cut="0.0000000000000000e+00" cType="1" res="2.1621058695018291e-03" rms="8.7956190109252930e-02" purity="1.0000000000000000e+00" nType="-99"/>
              </Node>
            </Node>
            <Node pos="r" depth="3" NCoef="0" IVar="17" Cut="3.6584880828857422e+01" cType="1" res="7.6351903378963470e-02" rms="7.8370116651058197e-02" purity="1.0000000000000000e+00" nType="0">
              <Node pos="l" depth="4" NCoef="0" IVar="4" Cut="6.9204063415527344e+01" cType="1" res="5.9880394488573074e-02" rms="8.3413451910018921e-02" purity="1.0000000000000000e+00" nType="0">
                <Node pos="l" depth="5" NCoef="0" IVar="-1" Cut="0.0000000000000000e+00" cType="1" res="1.7583586275577545e-02" rms="7.9756557941436768e-02" purity="1.0000000000000000e+00" nType="-99"/>
                <Node pos="r" depth="5" NCoef="0" IVar="-1" Cut="0.0000000000000000e+00" cType="1" res="6.8027009256184101e-03" rms="8.3019778132438660e-02" purity="1.0000000000000000e+00" nType="-99"/>
              </Node>
              <Node pos="r" depth="4" NCoef="0" IVar="18" Cut="7.2977828979492188e-01" cType="1" res="9.5571711659431458e-02" rms="6.7110560834407806e-02" purity="1.0000000000000000e+00" nType="0">
                <Node pos="l" depth="5" NCoef="0" IVar="-1" Cut="0.0000000000000000e+00" cType="1" res="2.4093093350529671e-02" rms="6.2664031982421875e-02" purity="1.0000000000000000e+00" nType="-99"/>
                <Node pos="r" depth="5" NCoef="0" IVar="-1" Cut="0.0000000000000000e+00" cType="1" res="1.0515392757952213e-02" rms="8.3131507039070129e-02" purity="1.0000000000000000e+00" nType="-99"/>
              </Node>
            </Node>
          </Node>
          <Node pos="r" depth="2" NCoef="0" IVar="4" Cut="6.4140174865722656e+01" cType="1" res="6.2439688481390476e-03" rms="9.2160008847713470e-02" purity="1.0000000000000000e+00" nType="0">
            <Node pos="l" depth="3" NCoef="0" IVar="-1" Cut="0.0000000000000000e+00" cType="1" res="7.0453919470310211e-03" rms="9.5945626497268677e-02" purity="1.0000000000000000e+00" nType="-99"/>
            <Node pos="r" depth="3" NCoef="0" IVar="18" Cut="2.3611485958099365e+00" cType="1" res="-4.3641058728098869e-03" rms="8.8281907141208649e-02" purity="1.0000000000000000e+00" nType="0">
              <Node pos="l" depth="4" NCoef="0" IVar="-1" Cut="0.0000000000000000e+00" cType="1" res="9.5752422930672765e-04" rms="8.8145449757575989e-02" purity="1.0000000000000000e+00" nType="-99"/>
              <Node pos="r" depth="4" NCoef="0" IVar="1" Cut="1.0554362535476685e+00" cType="1" res="-1.3333930633962154e-02" rms="8.7267994880676270e-02" purity="1.0000000000000000e+00" nType="0">
                <Node pos="l" depth="5" NCoef="0" IVar="-1" Cut="0.0000000000000000e+00" cType="1" res="-6.2487984541803598e-04" rms="8.7555669248104095e-02" purity="1.0000000000000000e+00" nType="-99"/>
                <Node pos="r" depth="5" NCoef="0" IVar="-1" Cut="0.0000000000000000e+00" cType="1" res="-2.9084035195410252e-03" rms="8.6106307804584503e-02" purity="1.0000000000000000e+00" nType="-99"/>
              </Node>
            </Node>
          </Node>
        </Node>
      </Node>
    </BinaryTree>
    <BinaryTree type="DecisionTree" boostWeight="1.0000000000000000e+00" itree="1">
      <Node pos="s" depth="0" NCoef="0" IVar="6" Cut="3.9849441498517990e-02" cType="1" res="6.4388518221676350e-03" rms="9.1507136821746826e-02" purity="1.0000000000000000e+00" nType="0">
        <Node pos="l" depth="1" NCoef="0" IVar="18" Cut="-1.7620495557785034e+00" cType="1" res="-7.5131836347281933e-03" rms="8.8043466210365295e-02" purity="1.0000000000000000e+00" nType="0">
          <Node pos="l" depth="2" NCoef="0" IVar="4" Cut="6.1689788818359375e+01" cType="1" res="-3.3747334033250809e-02" rms="8.0216936767101288e-02" purity="1.0000000000000000e+00" nType="0">
            <Node pos="l" depth="3" NCoef="0" IVar="10" Cut="2.6546910405158997e-01" cType="1" res="-1.6221937257796526e-03" rms="9.7955353558063507e-02" purity="1.0000000000000000e+00" nType="0">
              <Node pos="l" depth="4" NCoef="0" IVar="-1" Cut="0.0000000000000000e+00" cType="1" res="-2.4054255336523056e-03" rms="9.7978949546813965e-02" purity="1.0000000000000000e+00" nType="-99"/>
              <Node pos="r" depth="4" NCoef="0" IVar="-1" Cut="0.0000000000000000e+00" cType="1" res="1.5260707587003708e-03" rms="9.6227660775184631e-02" purity="1.0000000000000000e+00" nType="-99"/>
            </Node>
            <Node pos="r" depth="3" NCoef="0" IVar="17" Cut="3.0229171752929688e+01" cType="1" res="-3.8468983024358749e-02" rms="7.6133169233798981e-02" purity="1.0000000000000000e+00" nType="0">
              <Node pos="l" depth="4" NCoef="0" IVar="13" Cut="2.3337354660034180e+00" cType="1" res="-3.0567454174160957e-02" rms="7.7801413834095001e-02" purity="1.0000000000000000e+00" nType="0">
                <Node pos="l" depth="5" NCoef="0" IVar="-1" Cut="0.0000000000000000e+00" cType="1" res="-3.3400848042219877e-03" rms="7.8435860574245453e-02" purity="1.0000000000000000e+00" nType="-99"/>
                <Node pos="r" depth="5" NCoef="0" IVar="-1" Cut="0.0000000000000000e+00" cType="1" res="-5.4792226292192936e-03" rms="7.2999045252799988e-02" purity="1.0000000000000000e+00" nType="-99"/>
              </Node>
              <Node pos="r" depth="4" NCoef="0" IVar="18" Cut="-2.4614629745483398e+00" cType="1" res="-4.5036669820547104e-02" rms="7.4079558253288269e-02" purity="1.0000000000000000e+00" nType="0">
                <Node pos="l" depth="5" NCoef="0" IVar="-1" Cut="0.0000000000000000e+00" cType="1" res="-6.0146432369947433e-03" rms="7.1738548576831818e-02" purity="1.0000000000000000e+00" nType="-99"/>
                <Node pos="r" depth="5" NCoef="0" IVar="-1" Cut="0.0000000000000000e+00" cType="1" res="-4.1800555773079395e-03" rms="7.7623493969440460e-02" purity="1.0000000000000000e+00" nType="-99"/>
              </Node>
            </Node>
          </Node>
          <Node pos="r" depth="2" NCoef="0" IVar="18" Cut="1.3308664560317993e+00" cType="1" res="1.2195439776405692e-03" rms="8.8795602321624756e-02" purity="1.0000000000000000e+00" nType="0">
            <Node pos="l" depth="3" NCoef="0" IVar="17" Cut="4.8820453643798828e+01" cType="1" res="2.1506207063794136e-02" rms="8.7588451802730560e-02" purity="1.0000000000000000e+00" nType="0">
              <Node pos="l" depth="4" NCoef="0" IVar="4" Cut="5.9656230926513672e+01" cType="1" res="1.3659183867275715e-02" rms="8.6423493921756744e-02" purity="1.0000000000000000e+00" nType="0">
                <Node pos="l" depth="5" NCoef="0" IVar="-1" Cut="0.0000000000000000e+00" cType="1" res="7.4379201978445053e-03" rms="9.5770657062530518e-02" purity="1.0000000000000000e+00" nType="-99"/>
                <Node pos="r" depth="5" NCoef="0" IVar="-1" Cut="0.0000000000000000e+00" cType="1" res="9.9932658486068249e-04" rms="8.3847217261791229e-02" purity="1.0000000000000000e+00" nType="-99"/>
              </Node>
              <Node pos="r" depth="4" NCoef="0" IVar="18" Cut="-6.8788498640060425e-01" cType="1" res="4.8717394471168518e-02" rms="8.6143620312213898e-02" purity="1.0000000000000000e+00" nType="0">
                <Node pos="l" depth="5" NCoef="0" IVar="-1" Cut="0.0000000000000000e+00" cType="1" res="9.8822754807770252e-04" rms="8.7414175271987915e-02" purity="1.0000000000000000e+00" nType="-99"/>
                <Node pos="r" depth="5" NCoef="0" IVar="-1" Cut="0.0000000000000000e+00" cType="1" res="9.8011447116732597e-03" rms="8.3150148391723633e-02" purity="1.0000000000000000e+00" nType="-99"/>
              </Node>
            </Node>
            <Node pos="r" depth="3" NCoef="0" IVar="4" Cut="6.3131996154785156e+01" cType="1" res="-2.9137182980775833e-02" rms="8.1645004451274872e-02" purity="1.0000000000000000e+00" nType="0">
              <Node pos="l" depth="4" NCoef="0" IVar="10" Cut="2.6746505498886108e-01" cType="1" res="1.7149194609373808e-03" rms="9.7885683178901672e-02" purity="1.0000000000000000e+00" nType="0">
                <Node pos="l" depth="5" NCoef="0" IVar="-1" Cut="0.0000000000000000e+00" cType="1" res="-1.8744241679087281e-03" rms="9.7927823662757874e-02" purity="1.0000000000000000e+00" nType="-99"/>
                <Node pos="r" depth="5" NCoef="0" IVar="-1" Cut="0.0000000000000000e+00" cType="1" res="2.1007237955927849e-03" rms="9.6163496375083923e-02" purity="1.0000000000000000e+00" nType="-99"/>
              </Node>
              <Node pos="r" depth="4" NCoef="0" IVar="18" Cut="2.1910521984100342e+00" cType="1" res="-3.4363444894552231e-02" rms="7.7352695167064667e-02" purity="1.0000000000000000e+00" nType="0">
                <Node pos="l" depth="5" NCoef="0" IVar="-1" Cut="0.0000000000000000e+00" cType="1" res="-2.5211356114596128e-03" rms="8.0006085336208344e-02" purity="1.0000000000000000e+00" nType="-99"/>
                <Node pos="r" depth="5" NCoef="0" IVar="-1" Cut="0.0000000000000000e+00" cType="1" res="-5.0445646047592163e-03" rms="7.4870683252811432e-02" purity="1.0000000000000000e+00" nType="-99"/>
              </Node>
            </Node>
          </Node>
        </Node>
        <Node pos="r" depth="1" NCoef="0" IVar="18" Cut="1.5488511323928833e+00" cType="1" res="4.3042853474617004e-02" rms="9.0302847325801849e-02" purity="1.0000000000000000e+00" nType="0">
          <Node pos="l" depth="2" NCoef="0" IVar="18" Cut="-1.1568136215209961e+00" cType="1" res="5.2323266863822937e-02" rms="8.7770573794841766e-02" purity="1.0000000000000000e+00" nType="0">
            <Node pos="l" depth="3" NCoef="0" IVar="4" Cut="6.0499027252197266e+01" cType="1" res="1.1990645900368690e-02" rms="9.1153383255004883e-02" purity="1.0000000000000000e+00" nType="0">
              <Node pos="l" depth="4" NCoef="0" IVar="-1" Cut="0.0000000000000000e+00" cType="1" res="8.7377177551388741e-03" rms="9.4115175306797028e-02" purity="1.0000000000000000e+00" nType="-99"/>
              <Node pos="r" depth="4" NCoef="0" IVar="18" Cut="-2.0719387531280518e+00" cType="1" res="3.3769602887332439e-03" rms="8.8309057056903839e-02" purity="1.0000000000000000e+00" nType="0">
                <Node pos="l" depth="5" NCoef="0" IVar="-1" Cut="0.0000000000000000e+00" cType="1" res="-1.2426363537088037e-03" rms="8.6836837232112885e-02" purity="1.0000000000000000e+00" nType="-99"/>
                <Node pos="r" depth="5" NCoef="0" IVar="-1" Cut="0.0000000000000000e+00" cType="1" res="2.6164448354393244e-03" rms="8.7649330496788025e-02" purity="1.0000000000000000e+00" nType="-99"/>
              </Node>
            </Node>
            <Node pos="r" depth="3" NCoef="0" IVar="17" Cut="4.3408721923828125e+01" cType="1" res="7.0195540785789490e-02" rms="7.9970076680183411e-02" purity="1.0000000000000000e+00" nType="0">
              <Node pos="l" depth="4" NCoef="0" IVar="4" Cut="6.2466674804687500e+01" cType="1" res="5.7150382548570633e-02" rms="8.3542287349700928e-02" purity="1.0000000000000000e+00" nType="0">
                <Node pos="l" depth="5" NCoef="0" IVar="-1" Cut="0.0000000000000000e+00" cType="1" res="1.9776627421379089e-02" rms="7.9431623220443726e-02" purity="1.0000000000000000e+00" nType="-99"/>
                <Node pos="r" depth="5" NCoef="0" IVar="-1" Cut="0.0000000000000000e+00" cType="1" res="7.2373053990304470e-03" rms="8.3276964724063873e-02" purity="1.0000000000000000e+00" nType="-99"/>
              </Node>
              <Node pos="r" depth="4" NCoef="0" IVar="18" Cut="5.2816909551620483e-01" cType="1" res="9.2176802456378937e-02" rms="6.8125419318675995e-02" purity="1.0000000000000000e+00" nType="0">
                <Node pos="l" depth="5" NCoef="0" IVar="-1" Cut="0.0000000000000000e+00" cType="1" res="2.4945469573140144e-02" rms="6.3742011785507202e-02" purity="1.0000000000000000e+00" nType="-99"/>
                <Node pos="r" depth="5" NCoef="0" IVar="-1" Cut="0.0000000000000000e+00" cType="1" res="1.2299926020205021e-02" rms="8.1280536949634552e-02" purity="1.0000000000000000e+00" nType="-99"/>
              </Node>
            </Node>
          </Node>
          <Node pos="r" depth="2" NCoef="0" IVar="4" Cut="5.9732551574707031e+01" cType="1" res="5.5608423426747322e-03" rms="9.0681239962577820e-02" purity="1.0000000000000000e+00" nType="0">
            <Node pos="l" depth="3" NCoef="0" IVar="-1" Cut="0.0000000000000000e+00" cType="1" res="7.5457063503563404e-03" rms="9.5551997423171997e-02" purity="1.0000000000000000e+00" nType="-99"/>
            <Node pos="r" depth="3" NCoef="0" IVar="18" Cut="2.3817839622497559e+00" cType="1" res="-2.5095897726714611e-03" rms="8.7544582784175873e-02" purity="1.0000000000000000e+00" nType="0">
              <Node pos="l" depth="4" NCoef="0" IVar="6" Cut="1.6726581752300262e-01" cType="1" res="8.8134165853261948e-03" rms="8.7613344192504883e-02" purity="1.0000000000000000e+00" nType="0">
                <Node pos="l" depth="5" NCoef="0" IVar="-1" Cut="0.0000000000000000e+00" cType="1" res="1.8583305063657463e-05" rms="8.6939804255962372e-02" purity="1.0000000000000000e+00" nType="-99"/>
                <Node pos="r" depth="5" NCoef="0" IVar="-1" Cut="0.0000000000000000e+00" cType="1" res="2.0930147729814053e-03" rms="8.7605603039264679e-02" purity="1.0000000000000000e+00" nType="-99"/>
              </Node>
              <Node pos="r" depth="4" NCoef="0" IVar="17" Cut="2.7047727584838867e+01" cType="1" res="-1.2129636481404305e-02" rms="8.6326971650123596e-02" purity="1.0000000000000000e+00" nType="0">
                <Node pos="l" depth="5" NCoef="0" IVar="-1" Cut="0.0000000000000000e+00" cType="1" res="-2.6545103173702955e-04" rms="8.6517341434955597e-02" purity="1.0000000000000000e+00" nType="-99"/>
                <Node pos="r" depth="5" NCoef="0" IVar="-1" Cut="0.0000000000000000e+00" cType="1" res="-2.6964761782437563e-03" rms="8.5320256650447845e-02" purity="1.0000000000000000e+00" nType="-99"/>
              </Node>
            </Node>
          </Node>
        </Node>
      </Node>
    </BinaryTree>
    <BinaryTree type="DecisionTree" boostWeight="1.0000000000000000e+00" itree="2">
      <Node pos="s" depth="0" NCoef="0" IVar="6" Cut="6.0722962021827698e-02" cType="1" res="5.7222582399845123e-03" rms="8.9867010712623596e-02" purity="1.0000000000000000e+00" nType="0">
        <Node pos="l" depth="1" NCoef="0" IVar="18" Cut="-1.6115541458129883e+00" cType="1" res="-5.9575401246547699e-03" rms="8.6825847625732422e-02" purity="1.0000000000000000e+00" nType="0">
          <Node pos="l" depth="2" NCoef="0" IVar="4" Cut="5.8059665679931641e+01" cType="1" res="-2.8822569176554680e-02" rms="8.0058537423610687e-02" purity="1.0000000000000000e+00" nType="0">
            <Node pos="l" depth="3" NCoef="0" IVar="10" Cut="2.6347309350967407e-01" cType="1" res="3.3987958449870348e-03" rms="9.7516655921936035e-02" purity="1.0000000000000000e+00" nType="0">
              <Node pos="l" depth="4" NCoef="0" IVar="-1" Cut="0.0000000000000000e+00" cType="1" res="-1.4951907796785235e-03" rms="9.7805276513099670e-02" purity="1.0000000000000000e+00" nType="-99"/>
              <Node pos="r" depth="4" NCoef="0" IVar="-1" Cut="0.0000000000000000e+00" cType="1" res="2.2117416374385357e-03" rms="9.5832556486129761e-02" purity="1.0000000000000000e+00" nType="-99"/>
            </Node>
            <Node pos="r" depth="3" NCoef="0" IVar="18" Cut="-2.3933701515197754e+00" cType="1" res="-3.2640460878610611e-02" rms="7.6840378344058990e-02" purity="1.0000000000000000e+00" nType="0">
              <Node pos="l" depth="4" NCoef="0" IVar="17" Cut="2.6565773010253906e+01" cType="1" res="-3.8464128971099854e-02" rms="7.4755549430847168e-02" purity="1.0000000000000000e+00" nType="0">
                <Node pos="l" depth="5" NCoef="0" IVar="-1" Cut="0.0000000000000000e+00" cType="1" res="-3.5343267954885960e-03" rms="7.7430970966815948e-02" purity="1.0000000000000000e+00" nType="-99"/>
                <Node pos="r" depth="5" NCoef="0" IVar="-1" Cut="0.0000000000000000e+00" cType="1" res="-5.2631595171988010e-03" rms="7.2821520268917084e-02" purity="1.0000000000000000e+00" nType="-99"/>
              </Node>
              <Node pos="r" depth="4" NCoef="0" IVar="13" Cut="1.5825328826904297e+00" cType="1" res="-2.3404240608215332e-02" rms="7.9161852598190308e-02" purity="1.0000000000000000e+00" nType="0">
                <Node pos="l" depth="5" NCoef="0" IVar="-1" Cut="0.0000000000000000e+00" cType="1" res="-2.2642447147518396e-03" rms="8.0232210457324982e-02" purity="1.0000000000000000e+00" nType="-99"/>
                <Node pos="r" depth="5" NCoef="0" IVar="-1" Cut="0.0000000000000000e+00" cType="1" res="-4.1174539364874363e-03" rms="7.6199613511562347e-02" purity="1.0000000000000000e+00" nType="-99"/>
              </Node>
            </Node>
          </Node>
          <Node pos="r" depth="2" NCoef="0" IVar="18" Cut="1.2156728506088257e+00" cType="1" res="2.3369486443698406e-03" rms="8.7692417204380035e-02" purity="1.0000000000000000e+00" nType="0">
            <Node pos="l" depth="3" NCoef="0" IVar="17" Cut="3.2885787963867188e+01" cType="1" res="2.2349825128912926e-02" rms="8.6873620748519897e-02" purity="1.0000000000000000e+00" nType="0">
              <Node pos="l" depth="4" NCoef="0" IVar="4" Cut="6.6996109008789062e+01" cType="1" res="9.2999385669827461e-03" rms="8.5379444062709808e-02" purity="1.0000000000000000e+00" nType="0">
                <Node pos="l" depth="5" NCoef="0" IVar="-1" Cut="0.0000000000000000e+00" cType="1" res="4.9222065135836601e-03" rms="9.5346517860889435e-02" purity="1.0000000000000000e+00" nType="-99"/>
                <Node pos="r" depth="5" NCoef="0" IVar="-1" Cut="0.0000000000000000e+00" cType="1" res="3.4258101368322968e-04" rms="8.1535264849662781e-02" purity="1.0000000000000000e+00" nType="-99"/>
              </Node>
              <Node pos="r" depth="4" NCoef="0" IVar="18" Cut="-6.5221410989761353e-01" cType="1" res="3.7920091301202774e-02" rms="8.6072571575641632e-02" purity="1.0000000000000000e+00" nType="0">
                <Node pos="l" depth="5" NCoef="0" IVar="-1" Cut="0.0000000000000000e+00" cType="1" res="1.2694685719907284e-03" rms="8.6312420666217804e-02" purity="1.0000000000000000e+00" nType="-99"/>
                <Node pos="r" depth="5" NCoef="0" IVar="-1" Cut="0.0000000000000000e+00" cType="1" res="7.0616733282804489e-03" rms="8.4367811679840088e-02" purity="1.0000000000000000e+00" nType="-99"/>
              </Node>
            </Node>
            <Node pos="r" depth="3" NCoef="0" IVar="4" Cut="6.5682868957519531e+01" cType="1" res="-2.4681512266397476e-02" rms="8.1315517425537109e-02" purity="1.0000000000000000e+00" nType="0">
              <Node pos="l" depth="4" NCoef="0" IVar="4" Cut="4.5795135498046875e+01" cType="1" res="1.0261314455419779e-03" rms="9.6180848777294159e-02" purity="1.0000000000000000e+00" nType="0">
                <Node pos="l" depth="5" NCoef="0" IVar="-1" Cut="0.0000000000000000e+00" cType="1" res="3.6019596736878157e-03" rms="9.9798187613487244e-02" purity="1.0000000000000000e+00" nType="-99"/>
                <Node pos="r" depth="5" NCoef="0" IVar="-1" Cut="0.0000000000000000e+00" cType="1" res="-1.1122983414679766e-03" rms="9.3793742358684540e-02" purity="1.0000000000000000e+00" nType="-99"/>
              </Node>
              <Node pos="r" depth="4" NCoef="0" IVar="18" Cut="2.0921421051025391e+00" cType="1" res="-2.9749084264039993e-02" rms="7.7046342194080353e-02" purity="1.0000000000000000e+00" nType="0">
                <Node pos="l" depth="5" NCoef="0" IVar="-1" Cut="0.0000000000000000e+00" cType="1" res="-1.9784658215939999e-03" rms="7.9697541892528534e-02" purity="1.0000000000000000e+00" nType="-99"/>
                <Node pos="r" depth="5" NCoef="0" IVar="-1" Cut="0.0000000000000000e+00" cType="1" res="-4.4493656605482101e-03" rms="7.4760355055332184e-02" purity="1.0000000000000000e+00" nType="-99"/>
              </Node>
            </Node>
          </Node>
        </Node>
        <Node pos="r" depth="1" NCoef="0" IVar="18" Cut="1.4359797239303589e+00" cType="1" res="4.1236158460378647e-02" rms="8.9632213115692139e-02" purity="1.0000000000000000e+00" nType="0">
          <Node pos="l" depth="2" NCoef="0" IVar="18" Cut="-1.1223422288894653e+00" cType="1" res="4.9833033233880997e-02" rms="8.7527930736541748e-02" purity="1.0000000000000000e+00" nType="0">
            <Node pos="l" depth="3" NCoef="0" IVar="4" Cut="7.1019195556640625e+01" cType="1" res="1.3740216381847858e-02" rms="9.0296268463134766e-02" purity="1.0000000000000000e+00" nType="0">
              <Node pos="l" depth="4" NCoef="0" IVar="-1" Cut="0.0000000000000000e+00" cType="1" res="6.4574000425636768e-03" rms="9.3859814107418060e-02" purity="1.0000000000000000e+00" nType="-99"/>
              <Node pos="r" depth="4" NCoef="0" IVar="18" Cut="-2.2548861503601074e+00" cType="1" res="2.5384530890733004e-03" rms="8.6321920156478882e-02" purity="1.0000000000000000e+00" nType="0">
                <Node pos="l" depth="5" NCoef="0" IVar="-1" Cut="0.0000000000000000e+00" cType="1" res="-1.4598707202821970e-03" rms="8.4659330546855927e-02" purity="1.0000000000000000e+00" nType="-99"/>
                <Node pos="r" depth="5" NCoef="0" IVar="-1" Cut="0.0000000000000000e+00" cType="1" res="1.9351361552253366e-03" rms="8.6059875786304474e-02" purity="1.0000000000000000e+00" nType="-99"/>
              </Node>
            </Node>
            <Node pos="r" depth="3" NCoef="0" IVar="17" Cut="3.0700077056884766e+01" cType="1" res="6.6179379820823669e-02" rms="8.1123352050781250e-02" purity="1.0000000000000000e+00" nType="0">
              <Node pos="l" depth="4" NCoef="0" IVar="4" Cut="5.9096981048583984e+01" cType="1" res="4.7603983432054520e-02" rms="8.5555061697959900e-02" purity="1.0000000000000000e+00" nType="0">
                <Node pos="l" depth="5" NCoef="0" IVar="-1" Cut="0.0000000000000000e+00" cType="1" res="1.7281273379921913e-02" rms="8.4047064185142517e-02" purity="1.0000000000000000e+00" nType="-99"/>
                <Node pos="r" depth="5" NCoef="0" IVar="-1" Cut="0.0000000000000000e+00" cType="1" res="5.8225588873028755e-03" rms="8.4599673748016357e-02" purity="1.0000000000000000e+00" nType="-99"/>
              </Node>
              <Node pos="r" depth="4" NCoef="0" IVar="17" Cut="6.6408332824707031e+01" cType="1" res="7.9372338950634003e-02" rms="7.5081609189510345e-02" purity="1.0000000000000000e+00" nType="0">
                <Node pos="l" depth="5" NCoef="0" IVar="-1" Cut="0.0000000000000000e+00" cType="1" res="1.4098904095590115e-02" rms="7.8071184456348419e-02" purity="1.0000000000000000e+00" nType="-99"/>
                <Node pos="r" depth="5" NCoef="0" IVar="-1" Cut="0.0000000000000000e+00" cType="1" res="3.0084149911999702e-02" rms="6.3035786151885986e-02" purity="1.0000000000000000e+00" nType="-99"/>
              </Node>
            </Node>
          </Node>
          <Node pos="r" depth="2" NCoef="0" IVar="4" Cut="6.6343986511230469e+01" cType="1" res="8.4424139931797981e-03" rms="8.9992500841617584e-02" purity="1.0000000000000000e+00" nType="0">
            <Node pos="l" depth="3" NCoef="0" IVar="-1" Cut="0.0000000000000000e+00" cType="1" res="6.0320394113659859e-03" rms="9.4732493162155151e-02" purity="1.0000000000000000e+00" nType="-99"/>
            <Node pos="r" depth="3" NCoef="0" IVar="18" Cut="2.2121865749359131e+00" cType="1" res="-1.1029504239559174e-03" rms="8.6245931684970856e-02" purity="1.0000000000000000e+00" nType="0">
              <Node pos="l" depth="4" NCoef="0" IVar="-1" Cut="0.0000000000000000e+00" cType="1" res="1.2893162202090025e-03" rms="8.6209833621978760e-02" purity="1.0000000000000000e+00" nType="-99"/>
              <Node pos="r" depth="4" NCoef="0" IVar="1" Cut="1.0530637502670288e+00" cType="1" res="-8.8468817993998528e-03" rms="8.5387848317623138e-02" purity="1.0000000000000000e+00" nType="0">
                <Node pos="l" depth="5" NCoef="0" IVar="-1" Cut="0.0000000000000000e+00" cType="1" res="-2.1441786884679459e-05" rms="8.5873059928417206e-02" purity="1.0000000000000000e+00" nType="-99"/>
                <Node pos="r" depth="5" NCoef="0" IVar="-1" Cut="0.0000000000000000e+00" cType="1" res="-2.2320849820971489e-03" rms="8.4244541823863983e-02" purity="1.0000000000000000e+00" nType="-99"/>
              </Node>
            </Node>
          </Node>
        </Node>
      </Node>
    </BinaryTree>
    <BinaryTree type="DecisionTree" boostWeight="1.0000000000000000e+00" itree="3">
      <Node pos="s" depth="0" NCoef="0" IVar="6" Cut="3.4156665205955505e-02" cType="1" res="5.1093241199851036e-03" rms="8.8532216846942902e-02" purity="1.0000000000000000e+00" nType="0">
        <Node pos="l" depth="1" NCoef="0" IVar="18" Cut="1.8749227523803711e+00" cType="1" res="-6.4663598313927650e-03" rms="8.5280932486057281e-02" purity="1.0000000000000000e+00" nType="0">
          <Node pos="l" depth="2" NCoef="0" IVar="18" Cut="-1.2891858816146851e+00" cType="1" res="3.1704027787782252e-04" rms="8.6149170994758606e-02" purity="1.0000000000000000e+00" nType="0">
            <Node pos="l" depth="3" NCoef="0" IVar="4" Cut="5.7362030029296875e+01" cType="1" res="-2.4355033412575722e-02" rms="7.9908110201358795e-02" purity="1.0000000000000000e+00" nType="0">
              <Node pos="l" depth="4" NCoef="0" IVar="4" Cut="4.5992290496826172e+01" cType="1" res="6.0489629395306110e-03" rms="9.6894726157188416e-02" purity="1.0000000000000000e+00" nType="0">
                <Node pos="l" depth="5" NCoef="0" IVar="-1" Cut="0.0000000000000000e+00" cType="1" res="3.2166799064725637e-03" rms="9.8624013364315033e-02" purity="1.0000000000000000e+00" nType="-99"/>
                <Node pos="r" depth="5" NCoef="0" IVar="-1" Cut="0.0000000000000000e+00" cType="1" res="-7.8551401384174824e-04" rms="9.4443805515766144e-02" purity="1.0000000000000000e+00" nType="-99"/>
              </Node>
              <Node pos="r" depth="4" NCoef="0" IVar="18" Cut="-2.2135457992553711e+00" cType="1" res="-2.7993215247988701e-02" rms="7.6824977993965149e-02" purity="1.0000000000000000e+00" nType="0">
                <Node pos="l" depth="5" NCoef="0" IVar="-1" Cut="0.0000000000000000e+00" cType="1" res="-4.1739842854440212e-03" rms="7.4563480913639069e-02" purity="1.0000000000000000e+00" nType="-99"/>
                <Node pos="r" depth="5" NCoef="0" IVar="-1" Cut="0.0000000000000000e+00" cType="1" res="-2.2553522139787674e-03" rms="7.9472586512565613e-02" purity="1.0000000000000000e+00" nType="-99"/>
              </Node>
            </Node>
            <Node pos="r" depth="3" NCoef="0" IVar="18" Cut="7.5074839591979980e-01" cType="1" res="1.6786750406026840e-02" rms="8.6231738328933716e-02" purity="1.0000000000000000e+00" nType="0">
              <Node pos="l" depth="4" NCoef="0" IVar="17" Cut="3.7343406677246094e+01" cType="1" res="2.4705236777663231e-02" rms="8.5828669369220734e-02" purity="1.0000000000000000e+00" nType="0">
                <Node pos="l" depth="5" NCoef="0" IVar="-1" Cut="0.0000000000000000e+00" cType="1" res="1.5479143476113677e-03" rms="8.4515981376171112e-02" purity="1.0000000000000000e+00" nType="-99"/>
                <Node pos="r" depth="5" NCoef="0" IVar="-1" Cut="0.0000000000000000e+00" cType="1" res="6.5167834982275963e-03" rms="8.4753349423408508e-02" purity="1.0000000000000000e+00" nType="-99"/>
              </Node>
              <Node pos="r" depth="4" NCoef="0" IVar="4" Cut="6.2066814422607422e+01" cType="1" res="-1.9379601581022143e-03" rms="8.4267549216747284e-02" purity="1.0000000000000000e+00" nType="0">
                <Node pos="l" depth="5" NCoef="0" IVar="-1" Cut="0.0000000000000000e+00" cType="1" res="3.8187056779861450e-03" rms="9.5377586781978607e-02" purity="1.0000000000000000e+00" nType="-99"/>
                <Node pos="r" depth="5" NCoef="0" IVar="-1" Cut="0.0000000000000000e+00" cType="1" res="-1.0016178712248802e-03" rms="8.0866701900959015e-02" purity="1.0000000000000000e+00" nType="-99"/>
              </Node>
            </Node>
          </Node>
          <Node pos="r" depth="2" NCoef="0" IVar="4" Cut="5.8030254364013672e+01" cType="1" res="-2.8385227546095848e-02" rms="7.8503318130970001e-02" purity="1.0000000000000000e+00" nType="0">
            <Node pos="l" depth="3" NCoef="0" IVar="-1" Cut="0.0000000000000000e+00" cType="1" res="-3.1688730814494193e-04" rms="9.6647776663303375e-02" purity="1.0000000000000000e+00" nType="-99"/>
            <Node pos="r" depth="3" NCoef="0" IVar="17" Cut="2.6534360885620117e+01" cType="1" res="-3.1565506011247635e-02" rms="7.5508765876293182e-02" purity="1.0000000000000000e+00" nType="0">
              <Node pos="l" depth="4" NCoef="0" IVar="13" Cut="2.0108377933502197e+00" cType="1" res="-2.1021293476223946e-02" rms="7.7280201017856598e-02" purity="1.0000000000000000e+00" nType="0">
                <Node pos="l" depth="5" NCoef="0" IVar="-1" Cut="0.0000000000000000e+00" cType="1" res="-2.1083131432533264e-03" rms="7.7925033867359161e-02" purity="1.0000000000000000e+00" nType="-99"/>
                <Node pos="r" depth="5" NCoef="0" IVar="-1" Cut="0.0000000000000000e+00" cType="1" res="-4.1279937140643597e-03" rms="7.3770545423030853e-02" purity="1.0000000000000000e+00" nType="-99"/>
              </Node>
              <Node pos="r" depth="4" NCoef="0" IVar="10" Cut="2.8542912006378174e-01" cType="1" res="-3.7892416119575500e-02" rms="7.3705002665519714e-02" purity="1.0000000000000000e+00" nType="0">
                <Node pos="l" depth="5" NCoef="0" IVar="-1" Cut="0.0000000000000000e+00" cType="1" res="-5.6652319617569447e-03" rms="7.3826126754283905e-02" purity="1.0000000000000000e+00" nType="-99"/>
                <Node pos="r" depth="5" NCoef="0" IVar="-1" Cut="0.0000000000000000e+00" cType="1" res="-3.7085055373609066e-03" rms="7.2919622063636780e-02" purity="1.0000000000000000e+00" nType="-99"/>
              </Node>
            </Node>
          </Node>
        </Node>
        <Node pos="r" depth="1" NCoef="0" IVar="18" Cut="-1.6742534637451172e+00" cType="1" res="3.4238226711750031e-02" rms="8.9857235550880432e-02" purity="1.0000000000000000e+00" nType="0">
          <Node pos="l" depth="2" NCoef="0" IVar="4" Cut="6.2603061676025391e+01" cType="1" res="2.3489273153245449e-03" rms="8.8531039655208588e-02" purity="1.0000000000000000e+00" nType="0">
            <Node pos="l" depth="3" NCoef="0" IVar="-1" Cut="0.0000000000000000e+00" cType="1" res="5.0702909938991070e-03" rms="9.5767356455326080e-02" purity="1.0000000000000000e+00" nType="-99"/>
            <Node pos="r" depth="3" NCoef="0" IVar="1" Cut="1.0545847415924072e+00" cType="1" res="-4.4598230160772800e-03" rms="8.5250653326511383e-02" purity="1.0000000000000000e+00" nType="0">
              <Node pos="l" depth="4" NCoef="0" IVar="9" Cut="5.0688784569501877e-02" cType="1" res="3.7935012951493263e-03" rms="8.5311338305473328e-02" purity="1.0000000000000000e+00" nType="0">
                <Node pos="l" depth="5" NCoef="0" IVar="-1" Cut="0.0000000000000000e+00" cType="1" res="1.7141613643616438e-03" rms="8.1133939325809479e-02" purity="1.0000000000000000e+00" nType="-99"/>
                <Node pos="r" depth="5" NCoef="0" IVar="-1" Cut="0.0000000000000000e+00" cType="1" res="-1.0755625553429127e-03" rms="8.7928369641304016e-02" purity="1.0000000000000000e+00" nType="-99"/>
              </Node>
              <Node pos="r" depth="4" NCoef="0" IVar="18" Cut="-2.4884612560272217e+00" cType="1" res="-1.2179321609437466e-02" rms="8.4467098116874695e-02" purity="1.0000000000000000e+00" nType="0">
                <Node pos="l" depth="5" NCoef="0" IVar="-1" Cut="0.0000000000000000e+00" cType="1" res="-2.6290102396160364e-03" rms="8.3038017153739929e-02" purity="1.0000000000000000e+00" nType="-99"/>
                <Node pos="r" depth="5" NCoef="0" IVar="-1" Cut="0.0000000000000000e+00" cType="1" res="-6.5677915699779987e-04" rms="8.5353173315525055e-02" purity="1.0000000000000000e+00" nType="-99"/>
              </Node>
            </Node>
          </Node>
          <Node pos="r" depth="2" NCoef="0" IVar="18" Cut="1.0749135017395020e+00" cType="1" res="4.1546814143657684e-02" rms="8.8555417954921722e-02" purity="1.0000000000000000e+00" nType="0">
            <Node pos="l" depth="3" NCoef="0" IVar="17" Cut="5.3851757049560547e+01" cType="1" res="5.6651372462511063e-02" rms="8.4067687392234802e-02" purity="1.0000000000000000e+00" nType="0">
              <Node pos="l" depth="4" NCoef="0" IVar="4" Cut="1.1187420654296875e+02" cType="1" res="4.8136860132217407e-02" rms="8.5375450551509857e-02" purity="1.0000000000000000e+00" nType="0">
                <Node pos="l" depth="5" NCoef="0" IVar="-1" Cut="0.0000000000000000e+00" cType="1" res="1.1486555449664593e-02" rms="8.5776515305042267e-02" purity="1.0000000000000000e+00" nType="-99"/>
                <Node pos="r" depth="5" NCoef="0" IVar="-1" Cut="0.0000000000000000e+00" cType="1" res="3.9259102195501328e-03" rms="8.1547081470489502e-02" purity="1.0000000000000000e+00" nType="-99"/>
              </Node>
              <Node pos="r" depth="4" NCoef="0" IVar="18" Cut="-3.1891846656799316e-01" cType="1" res="8.1768758594989777e-02" rms="7.4625357985496521e-02" purity="1.0000000000000000e+00" nType="0">
                <Node pos="l" depth="5" NCoef="0" IVar="-1" Cut="0.0000000000000000e+00" cType="1" res="1.1707404628396034e-02" rms="8.6339525878429413e-02" purity="1.0000000000000000e+00" nType="-99"/>
                <Node pos="r" depth="5" NCoef="0" IVar="-1" Cut="0.0000000000000000e+00" cType="1" res="2.5185722857713699e-02" rms="6.8333357572555542e-02" purity="1.0000000000000000e+00" nType="-99"/>
              </Node>
            </Node>
            <Node pos="r" depth="3" NCoef="0" IVar="4" Cut="5.7225273132324219e+01" cType="1" res="8.8356966152787209e-03" rms="8.9194469153881073e-02" purity="1.0000000000000000e+00" nType="0">
              <Node pos="l" depth="4" NCoef="0" IVar="-1" Cut="0.0000000000000000e+00" cType="1" res="8.2433065399527550e-03" rms="9.4631157815456390e-02" purity="1.0000000000000000e+00" nType="-99"/>
              <Node pos="r" depth="4" NCoef="0" IVar="18" Cut="2.0731947422027588e+00" cType="1" res="2.5934434961527586e-03" rms="8.6728356778621674e-02" purity="1.0000000000000000e+00" nType="0">
                <Node pos="l" depth="5" NCoef="0" IVar="-1" Cut="0.0000000000000000e+00" cType="1" res="1.9611997995525599e-03" rms="8.7122045457363129e-02" purity="1.0000000000000000e+00" nType="-99"/>
                <Node pos="r" depth="5" NCoef="0" IVar="-1" Cut="0.0000000000000000e+00" cType="1" res="-1.0841549374163151e-03" rms="8.5156038403511047e-02" purity="1.0000000000000000e+00" nType="-99"/>
              </Node>
            </Node>
          </Node>
        </Node>
      </Node>
    </BinaryTree>
    <BinaryTree type="DecisionTree" boostWeight="1.0000000000000000e+00" itree="4">
      <Node pos="s" depth="0" NCoef="0" IVar="6" Cut="7.9698882997035980e-02" cType="1" res="4.5716650784015656e-03" rms="8.7437100708484650e-02" purity="1.0000000000000000e+00" nType="0">
        <Node pos="l" depth="1" NCoef="0" IVar="18" Cut="1.9000053405761719e+00" cType="1" res="-4.3861414305865765e-03" rms="8.4794864058494568e-02" purity="1.0000000000000000e+00" nType="0">
          <Node pos="l" depth="2" NCoef="0" IVar="18" Cut="-1.1591703891754150e+00" cType="1" res="1.7365405801683664e-03" rms="8.5684612393379211e-02" purity="1.0000000000000000e+00" nType="0">
            <Node pos="l" depth="3" NCoef="0" IVar="4" Cut="6.6623497009277344e+01" cType="1" res="-2.0133903250098228e-02" rms="8.0080054700374603e-02" purity="1.0000000000000000e+00" nType="0">
              <Node pos="l" depth="4" NCoef="0" IVar="10" Cut="2.9540920257568359e-01" cType="1" res="2.8531107818707824e-04" rms="9.4196125864982605e-02" purity="1.0000000000000000e+00" nType="0">
                <Node pos="l" depth="5" NCoef="0" IVar="-1" Cut="0.0000000000000000e+00" cType="1" res="-1.6367045463994145e-03" rms="9.4427719712257385e-02" purity="1.0000000000000000e+00" nType="-99"/>
                <Node pos="r" depth="5" NCoef="0" IVar="-1" Cut="0.0000000000000000e+00" cType="1" res="1.8206611275672913e-03" rms="9.2363059520721436e-02" purity="1.0000000000000000e+00" nType="-99"/>
              </Node>
              <Node pos="r" depth="4" NCoef="0" IVar="18" Cut="-2.1998469829559326e+00" cType="1" res="-2.4452725425362587e-02" rms="7.6063439249992371e-02" purity="1.0000000000000000e+00" nType="0">
                <Node pos="l" depth="5" NCoef="0" IVar="-1" Cut="0.0000000000000000e+00" cType="1" res="-3.7211724556982517e-03" rms="7.3862209916114807e-02" purity="1.0000000000000000e+00" nType="-99"/>
                <Node pos="r" depth="5" NCoef="0" IVar="-1" Cut="0.0000000000000000e+00" cType="1" res="-1.9348688656464219e-03" rms="7.8483358025550842e-02" purity="1.0000000000000000e+00" nType="-99"/>
              </Node>
            </Node>
            <Node pos="r" depth="3" NCoef="0" IVar="18" Cut="6.9709163904190063e-01" cType="1" res="1.7062673345208168e-02" rms="8.6155757308006287e-02" purity="1.0000000000000000e+00" nType="0">
              <Node pos="l" depth="4" NCoef="0" IVar="17" Cut="5.6786720275878906e+01" cType="1" res="2.5405017659068108e-02" rms="8.5899047553539276e-02" purity="1.0000000000000000e+00" nType="0">
                <Node pos="l" depth="5" NCoef="0" IVar="-1" Cut="0.0000000000000000e+00" cType="1" res="2.3648794740438461e-03" rms="8.4836229681968689e-02" purity="1.0000000000000000e+00" nType="-99"/>
                <Node pos="r" depth="5" NCoef="0" IVar="-1" Cut="0.0000000000000000e+00" cType="1" res="1.0406757704913616e-02" rms="8.4178172051906586e-02" purity="1.0000000000000000e+00" nType="-99"/>
              </Node>
              <Node pos="r" depth="4" NCoef="0" IVar="13" Cut="1.8933761119842529e+00" cType="1" res="-3.1230557942762971e-04" rms="8.4071211516857147e-02" purity="1.0000000000000000e+00" nType="0">
                <Node pos="l" depth="5" NCoef="0" IVar="-1" Cut="0.0000000000000000e+00" cType="1" res="5.4217461729422212e-04" rms="8.4456786513328552e-02" purity="1.0000000000000000e+00" nType="-99"/>
                <Node pos="r" depth="5" NCoef="0" IVar="-1" Cut="0.0000000000000000e+00" cType="1" res="-2.3813829757273197e-03" rms="8.0383159220218658e-02" purity="1.0000000000000000e+00" nType="-99"/>
              </Node>
            </Node>
          </Node>
          <Node pos="r" depth="2" NCoef="0" IVar="4" Cut="5.2928512573242188e+01" cType="1" res="-2.4916509166359901e-02" rms="7.8322112560272217e-02" purity="1.0000000000000000e+00" nType="0">
            <Node pos="l" depth="3" NCoef="0" IVar="-1" Cut="0.0000000000000000e+00" cType="1" res="6.2839873135089874e-04" rms="9.7047068178653717e-02" purity="1.0000000000000000e+00" nType="-99"/>
            <Node pos="r" depth="3" NCoef="0" IVar="17" Cut="2.3749092102050781e+01" cType="1" res="-2.7218000963330269e-02" rms="7.6205633580684662e-02" purity="1.0000000000000000e+00" nType="0">
              <Node pos="l" depth="4" NCoef="0" IVar="13" Cut="2.1665155887603760e+00" cType="1" res="-1.6210652887821198e-02" rms="7.8144662082195282e-02" purity="1.0000000000000000e+00" nType="0">
                <Node pos="l" depth="5" NCoef="0" IVar="-1" Cut="0.0000000000000000e+00" cType="1" res="-1.6415695426985621e-03" rms="7.8691460192203522e-02" purity="1.0000000000000000e+00" nType="-99"/>
                <Node pos="r" depth="5" NCoef="0" IVar="-1" Cut="0.0000000000000000e+00" cType="1" res="-3.6566115450114012e-03" rms="7.4535630643367767e-02" purity="1.0000000000000000e+00" nType="-99"/>
              </Node>
              <Node pos="r" depth="4" NCoef="0" IVar="9" Cut="4.2708192020654678e-02" cType="1" res="-3.2444924116134644e-02" rms="7.4701555073261261e-02" purity="1.0000000000000000e+00" nType="0">
                <Node pos="l" depth="5" NCoef="0" IVar="-1" Cut="0.0000000000000000e+00" cType="1" res="-3.0219268519431353e-03" rms="7.2231404483318329e-02" purity="1.0000000000000000e+00" nType="-99"/>
                <Node pos="r" depth="5" NCoef="0" IVar="-1" Cut="0.0000000000000000e+00" cType="1" res="-5.1359133794903755e-03" rms="7.6470077037811279e-02" purity="1.0000000000000000e+00" nType="-99"/>
              </Node>
            </Node>
          </Node>
        </Node>
        <Node pos="r" depth="1" NCoef="0" IVar="18" Cut="1.3231084346771240e+00" cType="1" res="3.5484809428453445e-02" rms="8.9348562061786652e-02" purity="1.0000000000000000e+00" nType="0">
          <Node pos="l" depth="2" NCoef="0" IVar="18" Cut="-8.8696700334548950e-01" cType="1" res="4.2722448706626892e-02" rms="8.8207036256790161e-02" purity="1.0000000000000000e+00" nType="0">
            <Node pos="l" depth="3" NCoef="0" IVar="4" Cut="5.6290958404541016e+01" cType="1" res="1.4874101616442204e-02" rms="8.9223258197307587e-02" purity="1.0000000000000000e+00" nType="0">
              <Node pos="l" depth="4" NCoef="0" IVar="-1" Cut="0.0000000000000000e+00" cType="1" res="9.8439240828156471e-03" rms="9.2639327049255371e-02" purity="1.0000000000000000e+00" nType="-99"/>
              <Node pos="r" depth="4" NCoef="0" IVar="18" Cut="-2.0390169620513916e+00" cType="1" res="8.2504115998744965e-03" rms="8.7046116590499878e-02" purity="1.0000000000000000e+00" nType="0">
                <Node pos="l" depth="5" NCoef="0" IVar="-1" Cut="0.0000000000000000e+00" cType="1" res="-5.2608520491048694e-04" rms="8.5324540734291077e-02" purity="1.0000000000000000e+00" nType="-99"/>
                <Node pos="r" depth="5" NCoef="0" IVar="-1" Cut="0.0000000000000000e+00" cType="1" res="2.7276622131466866e-03" rms="8.7346173822879791e-02" purity="1.0000000000000000e+00" nType="-99"/>
              </Node>
            </Node>
            <Node pos="r" depth="3" NCoef="0" IVar="17" Cut="2.6011306762695312e+01" cType="1" res="5.8101996779441833e-02" rms="8.3762027323246002e-02" purity="1.0000000000000000e+00" nType="0">
              <Node pos="l" depth="4" NCoef="0" IVar="4" Cut="7.4433471679687500e+01" cType="1" res="3.7073299288749695e-02" rms="8.7501145899295807e-02" purity="1.0000000000000000e+00" nType="0">
                <Node pos="l" depth="5" NCoef="0" IVar="-1" Cut="0.0000000000000000e+00" cType="1" res="1.0865435935556889e-02" rms="8.9185968041419983e-02" purity="1.0000000000000000e+00" nType="-99"/>
                <Node pos="r" depth="5" NCoef="0" IVar="-1" Cut="0.0000000000000000e+00" cType="1" res="3.5403317306190729e-03" rms="8.4520682692527771e-02" purity="1.0000000000000000e+00" nType="-99"/>
              </Node>
              <Node pos="r" depth="4" NCoef="0" IVar="4" Cut="1.7167599487304688e+02" cType="1" res="6.7680522799491882e-02" rms="8.0194860696792603e-02" purity="1.0000000000000000e+00" nType="0">
                <Node pos="l" depth="5" NCoef="0" IVar="-1" Cut="0.0000000000000000e+00" cType="1" res="1.8343390896916389e-02" rms="7.7809832990169525e-02" purity="1.0000000000000000e+00" nType="-99"/>
                <Node pos="r" depth="5" NCoef="0" IVar="-1" Cut="0.0000000000000000e+00" cType="1" res="6.2760356813669205e-03" rms="8.3137013018131256e-02" purity="1.0000000000000000e+00" nType="-99"/>
              </Node>
            </Node>
          </Node>
          <Node pos="r" depth="2" NCoef="0" IVar="4" Cut="7.2656372070312500e+01" cType="1" res="9.5634981989860535e-03" rms="8.8597692549228668e-02" purity="1.0000000000000000e+00" nType="0">
            <Node pos="l" depth="3" NCoef="0" IVar="-1" Cut="0.0000000000000000e+00" cType="1" res="4.8356140032410622e-03" rms="9.3354642391204834e-02" purity="1.0000000000000000e+00" nType="-99"/>
            <Node pos="r" depth="3" NCoef="0" IVar="1" Cut="1.0526869297027588e+00" cType="1" res="-2.1069789363536984e-04" rms="8.4377184510231018e-02" purity="1.0000000000000000e+00" nType="0">
              <Node pos="l" depth="4" NCoef="0" IVar="-1" Cut="0.0000000000000000e+00" cType="1" res="1.1017411015927792e-03" rms="8.4508322179317474e-02" purity="1.0000000000000000e+00" nType="-99"/>
              <Node pos="r" depth="4" NCoef="0" IVar="-1" Cut="0.0000000000000000e+00" cType="1" res="-1.1651556706055999e-03" rms="8.3494350314140320e-02" purity="1.0000000000000000e+00" nType="-99"/>
            </Node>
          </Node>
        </Node>
      </Node>
    </BinaryTree>
    <BinaryTree type="DecisionTree" boostWeight="1.0000000000000000e+00" itree="5">
      <Node pos="s" depth="0" NCoef="0" IVar="6" Cut="2.6566294953227043e-02" cType="1" res="4.1142716072499752e-03" rms="8.6575970053672791e-02" purity="1.0000000000000000e+00" nType="0">
        <Node pos="l" depth="1" NCoef="0" IVar="13" Cut="1.7773212194442749e+00" cType="1" res="-5.6199687533080578e-03" rms="8.3405852317810059e-02" purity="1.0000000000000000e+00" nType="0">
          <Node pos="l" depth="2" NCoef="0" IVar="18" Cut="-1.9627112150192261e+00" cType="1" res="5.7936744997277856e-04" rms="8.4230005741119385e-02" purity="1.0000000000000000e+00" nType="0">
            <Node pos="l" depth="3" NCoef="0" IVar="4" Cut="5.5520595550537109e+01" cType="1" res="-1.9324099645018578e-02" rms="7.8301213681697845e-02" purity="1.0000000000000000e+00" nType="0">
              <Node pos="l" depth="4" NCoef="0" IVar="-1" Cut="0.0000000000000000e+00" cType="1" res="8.5536926053464413e-04" rms="9.5886304974555969e-02" purity="1.0000000000000000e+00" nType="-99"/>
              <Node pos="r" depth="4" NCoef="0" IVar="17" Cut="2.1619380950927734e+01" cType="1" res="-2.2138558328151703e-02" rms="7.5589455664157867e-02" purity="1.0000000000000000e+00" nType="0">
                <Node pos="l" depth="5" NCoef="0" IVar="-1" Cut="0.0000000000000000e+00" cType="1" res="-1.5851267380639911e-03" rms="7.7489845454692841e-02" purity="1.0000000000000000e+00" nType="-99"/>
                <Node pos="r" depth="5" NCoef="0" IVar="-1" Cut="0.0000000000000000e+00" cType="1" res="-3.2035324256867170e-03" rms="7.4514955282211304e-02" purity="1.0000000000000000e+00" nType="-99"/>
              </Node>
            </Node>
            <Node pos="r" depth="3" NCoef="0" IVar="18" Cut="1.5827904939651489e+00" cType="1" res="6.0999258421361446e-03" rms="8.4980078041553497e-02" purity="1.0000000000000000e+00" nType="0">
              <Node pos="l" depth="4" NCoef="0" IVar="17" Cut="6.6041664123535156e+01" cType="1" res="1.7680302262306213e-02" rms="8.5499674081802368e-02" purity="1.0000000000000000e+00" nType="0">
                <Node pos="l" depth="5" NCoef="0" IVar="-1" Cut="0.0000000000000000e+00" cType="1" res="1.7599915154278278e-03" rms="8.4647737443447113e-02" purity="1.0000000000000000e+00" nType="-99"/>
                <Node pos="r" depth="5" NCoef="0" IVar="-1" Cut="0.0000000000000000e+00" cType="1" res="9.4320140779018402e-03" rms="8.6521349847316742e-02" purity="1.0000000000000000e+00" nType="-99"/>
              </Node>
              <Node pos="r" depth="4" NCoef="0" IVar="4" Cut="6.0581123352050781e+01" cType="1" res="-1.6670946031808853e-02" rms="7.9153180122375488e-02" purity="1.0000000000000000e+00" nType="0">
                <Node pos="l" depth="5" NCoef="0" IVar="-1" Cut="0.0000000000000000e+00" cType="1" res="6.4262439263984561e-04" rms="9.4935558736324310e-02" purity="1.0000000000000000e+00" nType="-99"/>
                <Node pos="r" depth="5" NCoef="0" IVar="-1" Cut="0.0000000000000000e+00" cType="1" res="-2.5336393155157566e-03" rms="7.5714945793151855e-02" purity="1.0000000000000000e+00" nType="-99"/>
              </Node>
            </Node>
          </Node>
          <Node pos="r" depth="2" NCoef="0" IVar="9" Cut="4.4998403638601303e-02" cType="1" res="-2.1618163213133812e-02" rms="7.9024553298950195e-02" purity="1.0000000000000000e+00" nType="0">
            <Node pos="l" depth="3" NCoef="0" IVar="13" Cut="2.8800539970397949e+00" cType="1" res="-1.2675373815000057e-02" rms="7.6793760061264038e-02" purity="1.0000000000000000e+00" nType="0">
              <Node pos="l" depth="4" NCoef="0" IVar="4" Cut="7.0535293579101562e+01" cType="1" res="-7.8873615711927414e-03" rms="7.7774681150913239e-02" purity="1.0000000000000000e+00" nType="0">
                <Node pos="l" depth="5" NCoef="0" IVar="-1" Cut="0.0000000000000000e+00" cType="1" res="1.0061246575787663e-03" rms="8.7509460747241974e-02" purity="1.0000000000000000e+00" nType="-99"/>
                <Node pos="r" depth="5" NCoef="0" IVar="-1" Cut="0.0000000000000000e+00" cType="1" res="-1.4642411842942238e-03" rms="7.5154133141040802e-02" purity="1.0000000000000000e+00" nType="-99"/>
              </Node>
              <Node pos="r" depth="4" NCoef="0" IVar="9" Cut="1.4370629796758294e-03" cType="1" res="-2.3131016641855240e-02" rms="7.3530986905097961e-02" purity="1.0000000000000000e+00" nType="0">
                <Node pos="l" depth="5" NCoef="0" IVar="-1" Cut="0.0000000000000000e+00" cType="1" res="-1.7161087598651648e-03" rms="7.5337044894695282e-02" purity="1.0000000000000000e+00" nType="-99"/>
                <Node pos="r" depth="5" NCoef="0" IVar="-1" Cut="0.0000000000000000e+00" cType="1" res="-3.3071043435484171e-03" rms="7.2291083633899689e-02" purity="1.0000000000000000e+00" nType="-99"/>
              </Node>
            </Node>
            <Node pos="r" depth="3" NCoef="0" IVar="13" Cut="2.6256268024444580e+00" cType="1" res="-3.4726928919553757e-02" rms="8.0407321453094482e-02" purity="1.0000000000000000e+00" nType="0">
              <Node pos="l" depth="4" NCoef="0" IVar="18" Cut="-2.0504784584045410e+00" cType="1" res="-2.7303688228130341e-02" rms="8.1914201378822327e-02" purity="1.0000000000000000e+00" nType="0">
                <Node pos="l" depth="5" NCoef="0" IVar="-1" Cut="0.0000000000000000e+00" cType="1" res="-5.5157993920147419e-03" rms="7.5568452477455139e-02" purity="1.0000000000000000e+00" nType="-99"/>
                <Node pos="r" depth="5" NCoef="0" IVar="-1" Cut="0.0000000000000000e+00" cType="1" res="-3.1486919615417719e-03" rms="8.3231590688228607e-02" purity="1.0000000000000000e+00" nType="-99"/>
              </Node>
              <Node pos="r" depth="4" NCoef="0" IVar="19" Cut="1.5115314722061157e+00" cType="1" res="-4.6432673931121826e-02" rms="7.6522596180438995e-02" purity="1.0000000000000000e+00" nType="0">
                <Node pos="l" depth="5" NCoef="0" IVar="-1" Cut="0.0000000000000000e+00" cType="1" res="-4.5438683591783047e-03" rms="7.4660263955593109e-02" purity="1.0000000000000000e+00" nType="-99"/>
                <Node pos="r" depth="5" NCoef="0" IVar="-1" Cut="0.0000000000000000e+00" cType="1" res="-7.6768533326685429e-03" rms="7.7039659023284912e-02" purity="1.0000000000000000e+00" nType="-99"/>
              </Node>
            </Node>
          </Node>
        </Node>
        <Node pos="r" depth="1" NCoef="0" IVar="18" Cut="-1.5990059375762939e+00" cType="1" res="2.7310233563184738e-02" rms="8.9530006051063538e-02" purity="1.0000000000000000e+00" nType="0">
          <Node pos="l" depth="2" NCoef="0" IVar="4" Cut="6.8915161132812500e+01" cType="1" res="1.9723800942301750e-03" rms="8.6937949061393738e-02" purity="1.0000000000000000e+00" nType="0">
            <Node pos="l" depth="3" NCoef="0" IVar="-1" Cut="0.0000000000000000e+00" cType="1" res="3.3383923582732677e-03" rms="9.4600923359394073e-02" purity="1.0000000000000000e+00" nType="-99"/>
            <Node pos="r" depth="3" NCoef="0" IVar="9" Cut="2.7966225519776344e-02" cType="1" res="-4.4138925150036812e-03" rms="8.3120599389076233e-02" purity="1.0000000000000000e+00" nType="0">
              <Node pos="l" depth="4" NCoef="0" IVar="-1" Cut="0.0000000000000000e+00" cType="1" res="5.3164613200351596e-04" rms="8.0229721963405609e-02" purity="1.0000000000000000e+00" nType="-99"/>
              <Node pos="r" depth="4" NCoef="0" IVar="19" Cut="1.8782700300216675e+00" cType="1" res="-9.7117507830262184e-03" rms="8.4180168807506561e-02" purity="1.0000000000000000e+00" nType="0">
                <Node pos="l" depth="5" NCoef="0" IVar="-1" Cut="0.0000000000000000e+00" cType="1" res="-5.9438269818201661e-04" rms="8.2938022911548615e-02" purity="1.0000000000000000e+00" nType="-99"/>
                <Node pos="r" depth="5" NCoef="0" IVar="-1" Cut="0.0000000000000000e+00" cType="1" res="-2.8988907579332590e-03" rms="8.5196673870086670e-02" purity="1.0000000000000000e+00" nType="-99"/>
              </Node>
            </Node>
          </Node>
          <Node pos="r" depth="2" NCoef="0" IVar="18" Cut="9.5580977201461792e-01" cType="1" res="3.3500276505947113e-02" rms="8.9062951505184174e-02" purity="1.0000000000000000e+00" nType="0">
            <Node pos="l" depth="3" NCoef="0" IVar="17" Cut="5.8332134246826172e+01" cType="1" res="4.6980608254671097e-02" rms="8.6648829281330109e-02" purity="1.0000000000000000e+00" nType="0">
              <Node pos="l" depth="4" NCoef="0" IVar="4" Cut="9.3907829284667969e+01" cType="1" res="3.9756871759891510e-02" rms="8.7101578712463379e-02" purity="1.0000000000000000e+00" nType="0">
                <Node pos="l" depth="5" NCoef="0" IVar="-1" Cut="0.0000000000000000e+00" cType="1" res="1.1068824678659439e-02" rms="8.8558375835418701e-02" purity="1.0000000000000000e+00" nType="-99"/>
                <Node pos="r" depth="5" NCoef="0" IVar="-1" Cut="0.0000000000000000e+00" cType="1" res="3.6842310801148415e-03" rms="8.3607122302055359e-02" purity="1.0000000000000000e+00" nType="-99"/>
              </Node>
              <Node pos="r" depth="4" NCoef="0" IVar="11" Cut="1.3039919853210449e+01" cType="1" res="7.2526909410953522e-02" rms="7.9954169690608978e-02" purity="1.0000000000000000e+00" nType="0">
                <Node pos="l" depth="5" NCoef="0" IVar="-1" Cut="0.0000000000000000e+00" cType="1" res="2.6232058182358742e-02" rms="7.3910236358642578e-02" purity="1.0000000000000000e+00" nType="-99"/>
                <Node pos="r" depth="5" NCoef="0" IVar="-1" Cut="0.0000000000000000e+00" cType="1" res="1.1239843443036079e-02" rms="8.6380876600742340e-02" purity="1.0000000000000000e+00" nType="-99"/>
              </Node>
            </Node>
            <Node pos="r" depth="3" NCoef="0" IVar="4" Cut="5.7952457427978516e+01" cType="1" res="7.5946496799588203e-03" rms="8.7903760373592377e-02" purity="1.0000000000000000e+00" nType="0">
              <Node pos="l" depth="4" NCoef="0" IVar="-1" Cut="0.0000000000000000e+00" cType="1" res="7.0749255828559399e-03" rms="9.5053806900978088e-02" purity="1.0000000000000000e+00" nType="-99"/>
              <Node pos="r" depth="4" NCoef="0" IVar="18" Cut="2.2123169898986816e+00" cType="1" res="2.2155195474624634e-03" rms="8.5406973958015442e-02" purity="1.0000000000000000e+00" nType="0">
                <Node pos="l" depth="5" NCoef="0" IVar="-1" Cut="0.0000000000000000e+00" cType="1" res="1.4168435009196401e-03" rms="8.6227826774120331e-02" purity="1.0000000000000000e+00" nType="-99"/>
                <Node pos="r" depth="5" NCoef="0" IVar="-1" Cut="0.0000000000000000e+00" cType="1" res="-1.1460995301604271e-03" rms="8.3379395306110382e-02" purity="1.0000000000000000e+00" nType="-99"/>
              </Node>
            </Node>
          </Node>
        </Node>
      </Node>
    </BinaryTree>
    <BinaryTree type="DecisionTree" boostWeight="1.0000000000000000e+00" itree="6">
      <Node pos="s" depth="0" NCoef="0" IVar="6" Cut="9.2982031404972076e-02" cType="1" res="3.7116950843483210e-03" rms="8.5897177457809448e-02" purity="1.0000000000000000e+00" nType="0">
        <Node pos="l" depth="1" NCoef="0" IVar="18" Cut="-1.5112239122390747e+00" cType="1" res="-3.3321857918053865e-03" rms="8.3477303385734558e-02" purity="1.0000000000000000e+00" nType="0">
          <Node pos="l" depth="2" NCoef="0" IVar="4" Cut="5.4973945617675781e+01" cType="1" res="-1.8592350184917450e-02" rms="7.8407056629657745e-02" purity="1.0000000000000000e+00" nType="0">
            <Node pos="l" depth="3" NCoef="0" IVar="-1" Cut="0.0000000000000000e+00" cType="1" res="8.1259605940431356e-04" rms="9.5184057950973511e-02" purity="1.0000000000000000e+00" nType="-99"/>
            <Node pos="r" depth="3" NCoef="0" IVar="9" Cut="4.5332521200180054e-02" cType="1" res="-2.1009966731071472e-02" rms="7.6141864061355591e-02" purity="1.0000000000000000e+00" nType="0">
              <Node pos="l" depth="4" NCoef="0" IVar="5" Cut="4.9445110321044922e+01" cType="1" res="-1.4700067229568958e-02" rms="7.3394946753978729e-02" purity="1.0000000000000000e+00" nType="0">
                <Node pos="l" depth="5" NCoef="0" IVar="-1" Cut="0.0000000000000000e+00" cType="1" res="-1.5153011772781610e-03" rms="7.4857324361801147e-02" purity="1.0000000000000000e+00" nType="-99"/>
                <Node pos="r" depth="5" NCoef="0" IVar="-1" Cut="0.0000000000000000e+00" cType="1" res="-3.1041027978062630e-03" rms="6.5001174807548523e-02" purity="1.0000000000000000e+00" nType="-99"/>
              </Node>
              <Node pos="r" depth="4" NCoef="0" IVar="10" Cut="2.7395865321159363e-01" cType="1" res="-2.8027096763253212e-02" rms="7.8491218388080597e-02" purity="1.0000000000000000e+00" nType="0">
                <Node pos="l" depth="5" NCoef="0" IVar="-1" Cut="0.0000000000000000e+00" cType="1" res="-5.2323779091238976e-03" rms="7.7739797532558441e-02" purity="1.0000000000000000e+00" nType="-99"/>
                <Node pos="r" depth="5" NCoef="0" IVar="-1" Cut="0.0000000000000000e+00" cType="1" res="-2.1964111365377903e-03" rms="7.7672384679317474e-02" purity="1.0000000000000000e+00" nType="-99"/>
              </Node>
            </Node>
          </Node>
          <Node pos="r" depth="2" NCoef="0" IVar="18" Cut="1.0334323644638062e+00" cType="1" res="2.4716814514249563e-03" rms="8.4607206284999847e-02" purity="1.0000000000000000e+00" nType="0">
            <Node pos="l" depth="3" NCoef="0" IVar="17" Cut="2.5421716690063477e+01" cType="1" res="1.7405049875378609e-02" rms="8.5875585675239563e-02" purity="1.0000000000000000e+00" nType="0">
              <Node pos="l" depth="4" NCoef="0" IVar="4" Cut="5.5960990905761719e+01" cType="1" res="2.8246117290109396e-03" rms="8.3555206656455994e-02" purity="1.0000000000000000e+00" nType="0">
                <Node pos="l" depth="5" NCoef="0" IVar="-1" Cut="0.0000000000000000e+00" cType="1" res="5.4534864611923695e-03" rms="9.5107913017272949e-02" purity="1.0000000000000000e+00" nType="-99"/>
                <Node pos="r" depth="5" NCoef="0" IVar="-1" Cut="0.0000000000000000e+00" cType="1" res="-2.6007412816397846e-04" rms="8.1049442291259766e-02" purity="1.0000000000000000e+00" nType="-99"/>
              </Node>
              <Node pos="r" depth="4" NCoef="0" IVar="18" Cut="-5.8681875467300415e-01" cType="1" res="2.6528406888246536e-02" rms="8.6048580706119537e-02" purity="1.0000000000000000e+00" nType="0">
                <Node pos="l" depth="5" NCoef="0" IVar="-1" Cut="0.0000000000000000e+00" cType="1" res="7.3172902921214700e-04" rms="8.5041880607604980e-02" purity="1.0000000000000000e+00" nType="-99"/>
                <Node pos="r" depth="5" NCoef="0" IVar="-1" Cut="0.0000000000000000e+00" cType="1" res="5.1122950389981270e-03" rms="8.5310064256191254e-02" purity="1.0000000000000000e+00" nType="-99"/>
              </Node>
            </Node>
            <Node pos="r" depth="3" NCoef="0" IVar="18" Cut="2.3715462684631348e+00" cType="1" res="-1.5218695625662804e-02" rms="7.9530455172061920e-02" purity="1.0000000000000000e+00" nType="0">
              <Node pos="l" depth="4" NCoef="0" IVar="4" Cut="6.4959945678710938e+01" cType="1" res="-6.9308211095631123e-03" rms="8.1467524170875549e-02" purity="1.0000000000000000e+00" nType="0">
                <Node pos="l" depth="5" NCoef="0" IVar="-1" Cut="0.0000000000000000e+00" cType="1" res="1.6517355106770992e-03" rms="9.3255393207073212e-02" purity="1.0000000000000000e+00" nType="-99"/>
                <Node pos="r" depth="5" NCoef="0" IVar="-1" Cut="0.0000000000000000e+00" cType="1" res="-1.4894244959577918e-03" rms="7.7828951179981232e-02" purity="1.0000000000000000e+00" nType="-99"/>
              </Node>
              <Node pos="r" depth="4" NCoef="0" IVar="17" Cut="2.7926994323730469e+01" cType="1" res="-2.3840678855776787e-02" rms="7.6517052948474884e-02" purity="1.0000000000000000e+00" nType="0">
                <Node pos="l" depth="5" NCoef="0" IVar="-1" Cut="0.0000000000000000e+00" cType="1" res="-1.8326932331547141e-03" rms="7.8917577862739563e-02" purity="1.0000000000000000e+00" nType="-99"/>
                <Node pos="r" depth="5" NCoef="0" IVar="-1" Cut="0.0000000000000000e+00" cType="1" res="-3.7874239496886730e-03" rms="7.4260190129280090e-02" purity="1.0000000000000000e+00" nType="-99"/>
              </Node>
            </Node>
          </Node>
        </Node>
        <Node pos="r" depth="1" NCoef="0" IVar="18" Cut="1.2227783203125000e+00" cType="1" res="3.0156729742884636e-02" rms="8.9618511497974396e-02" purity="1.0000000000000000e+00" nType="0">
          <Node pos="l" depth="2" NCoef="0" IVar="18" Cut="-7.6341593265533447e-01" cType="1" res="3.6283396184444427e-02" rms="8.9207097887992859e-02" purity="1.0000000000000000e+00" nType="0">
            <Node pos="l" depth="3" NCoef="0" IVar="4" Cut="5.5764072418212891e+01" cType="1" res="1.3698720373213291e-02" rms="8.8869914412498474e-02" purity="1.0000000000000000e+00" nType="0">
              <Node pos="l" depth="4" NCoef="0" IVar="-1" Cut="0.0000000000000000e+00" cType="1" res="9.3374159187078476e-03" rms="9.3501061201095581e-02" purity="1.0000000000000000e+00" nType="-99"/>
              <Node pos="r" depth="4" NCoef="0" IVar="1" Cut="1.0505467653274536e+00" cType="1" res="7.8187650069594383e-03" rms="8.6726471781730652e-02" purity="1.0000000000000000e+00" nType="0">
                <Node pos="l" depth="5" NCoef="0" IVar="-1" Cut="0.0000000000000000e+00" cType="1" res="2.4987654760479927e-03" rms="8.6448542773723602e-02" purity="1.0000000000000000e+00" nType="-99"/>
                <Node pos="r" depth="5" NCoef="0" IVar="-1" Cut="0.0000000000000000e+00" cType="1" res="-2.3687384964432567e-04" rms="8.6066171526908875e-02" purity="1.0000000000000000e+00" nType="-99"/>
              </Node>
            </Node>
            <Node pos="r" depth="3" NCoef="0" IVar="17" Cut="3.3896663665771484e+01" cType="1" res="5.0397958606481552e-02" rms="8.6472183465957642e-02" purity="1.0000000000000000e+00" nType="0">
              <Node pos="l" depth="4" NCoef="0" IVar="4" Cut="5.9096981048583984e+01" cType="1" res="3.5355214029550552e-02" rms="8.7893933057785034e-02" purity="1.0000000000000000e+00" nType="0">
                <Node pos="l" depth="5" NCoef="0" IVar="-1" Cut="0.0000000000000000e+00" cType="1" res="1.4884972944855690e-02" rms="8.9061655104160309e-02" purity="1.0000000000000000e+00" nType="-99"/>
                <Node pos="r" depth="5" NCoef="0" IVar="-1" Cut="0.0000000000000000e+00" cType="1" res="4.2134504765272141e-03" rms="8.6328893899917603e-02" purity="1.0000000000000000e+00" nType="-99"/>
              </Node>
              <Node pos="r" depth="4" NCoef="0" IVar="4" Cut="1.3254724121093750e+02" cType="1" res="6.2278021126985550e-02" rms="8.3437472581863403e-02" purity="1.0000000000000000e+00" nType="0">
                <Node pos="l" depth="5" NCoef="0" IVar="-1" Cut="0.0000000000000000e+00" cType="1" res="2.1281577646732330e-02" rms="7.9482525587081909e-02" purity="1.0000000000000000e+00" nType="-99"/>
                <Node pos="r" depth="5" NCoef="0" IVar="-1" Cut="0.0000000000000000e+00" cType="1" res="7.6384926214814186e-03" rms="8.6070902645587921e-02" purity="1.0000000000000000e+00" nType="-99"/>
              </Node>
            </Node>
          </Node>
          <Node pos="r" depth="2" NCoef="0" IVar="4" Cut="7.4860809326171875e+01" cType="1" res="9.5060504972934723e-03" rms="8.7900429964065552e-02" purity="1.0000000000000000e+00" nType="0">
            <Node pos="l" depth="3" NCoef="0" IVar="-1" Cut="0.0000000000000000e+00" cType="1" res="4.2398208752274513e-03" rms="9.3001112341880798e-02" purity="1.0000000000000000e+00" nType="-99"/>
            <Node pos="r" depth="3" NCoef="0" IVar="1" Cut="1.0565780401229858e+00" cType="1" res="5.2013259846717119e-04" rms="8.3454579114913940e-02" purity="1.0000000000000000e+00" nType="0">
              <Node pos="l" depth="4" NCoef="0" IVar="-1" Cut="0.0000000000000000e+00" cType="1" res="9.6586870495229959e-04" rms="8.3093300461769104e-02" purity="1.0000000000000000e+00" nType="-99"/>
              <Node pos="r" depth="4" NCoef="0" IVar="-1" Cut="0.0000000000000000e+00" cType="1" res="-1.1548491893336177e-03" rms="8.3067990839481354e-02" purity="1.0000000000000000e+00" nType="-99"/>
            </Node>
          </Node>
        </Node>
      </Node>
    </BinaryTree>
    <BinaryTree type="DecisionTree" boostWeight="1.0000000000000000e+00" itree="7">
      <Node pos="s" depth="0" NCoef="0" IVar="6" Cut="2.2771110758185387e-02" cType="1" res="3.3725055400282145e-03" rms="8.5298605263233185e-02" purity="1.0000000000000000e+00" nType="0">
        <Node pos="l" depth="1" NCoef="0" IVar="13" Cut="1.5956971645355225e+00" cType="1" res="-4.7306818887591362e-03" rms="8.2169681787490845e-02" purity="1.0000000000000000e+00" nType="0">
          <Node pos="l" depth="2" NCoef="0" IVar="18" Cut="-1.4485191106796265e+00" cType="1" res="1.4853442553430796e-03" rms="8.3164080977439880e-02" purity="1.0000000000000000e+00" nType="0">
            <Node pos="l" depth="3" NCoef="0" IVar="4" Cut="6.9710655212402344e+01" cType="1" res="-1.2726299464702606e-02" rms="7.8657910227775574e-02" purity="1.0000000000000000e+00" nType="0">
              <Node pos="l" depth="4" NCoef="0" IVar="10" Cut="3.3333337306976318e-01" cType="1" res="2.3093335330486298e-03" rms="9.2021614313125610e-02" purity="1.0000000000000000e+00" nType="0">
                <Node pos="l" depth="5" NCoef="0" IVar="-1" Cut="0.0000000000000000e+00" cType="1" res="-1.0051346616819501e-03" rms="9.2812880873680115e-02" purity="1.0000000000000000e+00" nType="-99"/>
                <Node pos="r" depth="5" NCoef="0" IVar="-1" Cut="0.0000000000000000e+00" cType="1" res="1.8755943747237325e-03" rms="8.9714527130126953e-02" purity="1.0000000000000000e+00" nType="-99"/>
              </Node>
              <Node pos="r" depth="4" NCoef="0" IVar="10" Cut="3.1137725710868835e-01" cType="1" res="-1.6800636425614357e-02" rms="7.4102140963077545e-02" purity="1.0000000000000000e+00" nType="0">
                <Node pos="l" depth="5" NCoef="0" IVar="-1" Cut="0.0000000000000000e+00" cType="1" res="-2.8417101129889488e-03" rms="7.5490675866603851e-02" purity="1.0000000000000000e+00" nType="-99"/>
                <Node pos="r" depth="5" NCoef="0" IVar="-1" Cut="0.0000000000000000e+00" cType="1" res="-1.4906160067766905e-03" rms="7.2541251778602600e-02" purity="1.0000000000000000e+00" nType="-99"/>
              </Node>
            </Node>
            <Node pos="r" depth="3" NCoef="0" IVar="18" Cut="9.7022002935409546e-01" cType="1" res="6.9550657644867897e-03" rms="8.4197759628295898e-02" purity="1.0000000000000000e+00" nType="0">
              <Node pos="l" depth="4" NCoef="0" IVar="17" Cut="7.0364730834960938e+01" cType="1" res="2.1141251549124718e-02" rms="8.5374720394611359e-02" purity="1.0000000000000000e+00" nType="0">
                <Node pos="l" depth="5" NCoef="0" IVar="-1" Cut="0.0000000000000000e+00" cType="1" res="2.2946079261600971e-03" rms="8.4481626749038696e-02" purity="1.0000000000000000e+00" nType="-99"/>
                <Node pos="r" depth="5" NCoef="0" IVar="-1" Cut="0.0000000000000000e+00" cType="1" res="1.1915393173694611e-02" rms="8.6510576307773590e-02" purity="1.0000000000000000e+00" nType="-99"/>
              </Node>
              <Node pos="r" depth="4" NCoef="0" IVar="4" Cut="6.8233734130859375e+01" cType="1" res="-9.3358708545565605e-03" rms="7.9772002995014191e-02" purity="1.0000000000000000e+00" nType="0">
                <Node pos="l" depth="5" NCoef="0" IVar="-1" Cut="0.0000000000000000e+00" cType="1" res="1.0083845118060708e-03" rms="9.2679925262928009e-02" purity="1.0000000000000000e+00" nType="-99"/>
                <Node pos="r" depth="5" NCoef="0" IVar="-1" Cut="0.0000000000000000e+00" cType="1" res="-1.7506838776171207e-03" rms="7.5436711311340332e-02" purity="1.0000000000000000e+00" nType="-99"/>
              </Node>
            </Node>
          </Node>
          <Node pos="r" depth="2" NCoef="0" IVar="9" Cut="5.3033836185932159e-02" cType="1" res="-1.7326293513178825e-02" rms="7.8624233603477478e-02" purity="1.0000000000000000e+00" nType="0">
            <Node pos="l" depth="3" NCoef="0" IVar="13" Cut="2.5548384189605713e+00" cType="1" res="-1.0348941199481487e-02" rms="7.6510526239871979e-02" purity="1.0000000000000000e+00" nType="0">
              <Node pos="l" depth="4" NCoef="0" IVar="4" Cut="7.3955558776855469e+01" cType="1" res="-4.8471963964402676e-03" rms="7.7817976474761963e-02" purity="1.0000000000000000e+00" nType="0">
                <Node pos="l" depth="5" NCoef="0" IVar="-1" Cut="0.0000000000000000e+00" cType="1" res="1.2203593505546451e-03" rms="8.6928665637969971e-02" purity="1.0000000000000000e+00" nType="-99"/>
                <Node pos="r" depth="5" NCoef="0" IVar="-1" Cut="0.0000000000000000e+00" cType="1" res="-1.1595907853916287e-03" rms="7.4847705662250519e-02" purity="1.0000000000000000e+00" nType="-99"/>
              </Node>
              <Node pos="r" depth="4" NCoef="0" IVar="9" Cut="1.3761027948930860e-03" cType="1" res="-1.8771445378661156e-02" rms="7.3672845959663391e-02" purity="1.0000000000000000e+00" nType="0">
                <Node pos="l" depth="5" NCoef="0" IVar="-1" Cut="0.0000000000000000e+00" cType="1" res="-1.2170114787295461e-03" rms="7.5177706778049469e-02" purity="1.0000000000000000e+00" nType="-99"/>
                <Node pos="r" depth="5" NCoef="0" IVar="-1" Cut="0.0000000000000000e+00" cType="1" res="-2.7816987130790949e-03" rms="7.2691783308982849e-02" purity="1.0000000000000000e+00" nType="-99"/>
              </Node>
            </Node>
            <Node pos="r" depth="3" NCoef="0" IVar="13" Cut="2.5451469421386719e+00" cType="1" res="-2.9668942093849182e-02" rms="8.0767378211021423e-02" purity="1.0000000000000000e+00" nType="0">
              <Node pos="l" depth="4" NCoef="0" IVar="18" Cut="2.0755875110626221e+00" cType="1" res="-2.3016756400465965e-02" rms="8.2039542496204376e-02" purity="1.0000000000000000e+00" nType="0">
                <Node pos="l" depth="5" NCoef="0" IVar="-1" Cut="0.0000000000000000e+00" cType="1" res="-2.6724827475845814e-03" rms="8.3155341446399689e-02" purity="1.0000000000000000e+00" nType="-99"/>
                <Node pos="r" depth="5" NCoef="0" IVar="-1" Cut="0.0000000000000000e+00" cType="1" res="-4.8917806707322598e-03" rms="7.6539658010005951e-02" purity="1.0000000000000000e+00" nType="-99"/>
              </Node>
              <Node pos="r" depth="4" NCoef="0" IVar="19" Cut="1.6988638639450073e+00" cType="1" res="-4.1901797056198120e-02" rms="7.6886132359504700e-02" purity="1.0000000000000000e+00" nType="0">
                <Node pos="l" depth="5" NCoef="0" IVar="-1" Cut="0.0000000000000000e+00" cType="1" res="-4.2505664750933647e-03" rms="7.4980087578296661e-02" purity="1.0000000000000000e+00" nType="-99"/>
                <Node pos="r" depth="5" NCoef="0" IVar="-1" Cut="0.0000000000000000e+00" cType="1" res="-7.2184787131845951e-03" rms="7.7850088477134705e-02" purity="1.0000000000000000e+00" nType="-99"/>
              </Node>
            </Node>
          </Node>
        </Node>
        <Node pos="r" depth="1" NCoef="0" IVar="18" Cut="-1.4735933542251587e+00" cType="1" res="2.2171989083290100e-02" rms="8.9363142848014832e-02" purity="1.0000000000000000e+00" nType="0">
          <Node pos="l" depth="2" NCoef="0" IVar="4" Cut="5.8394992828369141e+01" cType="1" res="2.0780444610863924e-03" rms="8.6024969816207886e-02" purity="1.0000000000000000e+00" nType="0">
            <Node pos="l" depth="3" NCoef="0" IVar="-1" Cut="0.0000000000000000e+00" cType="1" res="4.3135387822985649e-03" rms="9.5933713018894196e-02" purity="1.0000000000000000e+00" nType="-99"/>
            <Node pos="r" depth="3" NCoef="0" IVar="18" Cut="-2.4324328899383545e+00" cType="1" res="-1.8046674085780978e-03" rms="8.3472676575183868e-02" purity="1.0000000000000000e+00" nType="0">
              <Node pos="l" depth="4" NCoef="0" IVar="17" Cut="2.5703620910644531e+01" cType="1" res="-8.8388985022902489e-03" rms="8.2140386104583740e-02" purity="1.0000000000000000e+00" nType="0">
                <Node pos="l" depth="5" NCoef="0" IVar="-1" Cut="0.0000000000000000e+00" cType="1" res="7.0942427555564791e-05" rms="8.2372777163982391e-02" purity="1.0000000000000000e+00" nType="-99"/>
                <Node pos="r" depth="5" NCoef="0" IVar="-1" Cut="0.0000000000000000e+00" cType="1" res="-2.1355722565203905e-03" rms="8.1341154873371124e-02" purity="1.0000000000000000e+00" nType="-99"/>
              </Node>
              <Node pos="r" depth="4" NCoef="0" IVar="6" Cut="1.8390984833240509e-01" cType="1" res="5.1101380959153175e-03" rms="8.4191039204597473e-02" purity="1.0000000000000000e+00" nType="0">
                <Node pos="l" depth="5" NCoef="0" IVar="-1" Cut="0.0000000000000000e+00" cType="1" res="-1.5831159544177353e-04" rms="8.3208784461021423e-02" purity="1.0000000000000000e+00" nType="-99"/>
                <Node pos="r" depth="5" NCoef="0" IVar="-1" Cut="0.0000000000000000e+00" cType="1" res="1.6593006439507008e-03" rms="8.5001863539218903e-02" purity="1.0000000000000000e+00" nType="-99"/>
              </Node>
            </Node>
          </Node>
          <Node pos="r" depth="2" NCoef="0" IVar="18" Cut="7.8333389759063721e-01" cType="1" res="2.7566172182559967e-02" rms="8.9473195374011993e-02" purity="1.0000000000000000e+00" nType="0">
            <Node pos="l" depth="3" NCoef="0" IVar="17" Cut="7.6282226562500000e+01" cType="1" res="4.0205731987953186e-02" rms="8.8456079363822937e-02" purity="1.0000000000000000e+00" nType="0">
              <Node pos="l" depth="4" NCoef="0" IVar="4" Cut="2.0925563049316406e+02" cType="1" res="3.5192236304283142e-02" rms="8.8607341051101685e-02" purity="1.0000000000000000e+00" nType="0">
                <Node pos="l" depth="5" NCoef="0" IVar="-1" Cut="0.0000000000000000e+00" cType="1" res="7.3133516125380993e-03" rms="8.8884711265563965e-02" purity="1.0000000000000000e+00" nType="-99"/>
                <Node pos="r" depth="5" NCoef="0" IVar="-1" Cut="0.0000000000000000e+00" cType="1" res="-1.8003809964284301e-04" rms="7.7496208250522614e-02" purity="1.0000000000000000e+00" nType="-99"/>
              </Node>
              <Node pos="r" depth="4" NCoef="0" IVar="-1" Cut="0.0000000000000000e+00" cType="1" res="2.3821299895644188e-02" rms="7.8795835375785828e-02" purity="1.0000000000000000e+00" nType="-99"/>
            </Node>
            <Node pos="r" depth="3" NCoef="0" IVar="4" Cut="5.3995708465576172e+01" cType="1" res="7.2585209272801876e-03" rms="8.7333500385284424e-02" purity="1.0000000000000000e+00" nType="0">
              <Node pos="l" depth="4" NCoef="0" IVar="-1" Cut="0.0000000000000000e+00" cType="1" res="7.7380277216434479e-03" rms="9.5425792038440704e-02" purity="1.0000000000000000e+00" nType="-99"/>
              <Node pos="r" depth="4" NCoef="0" IVar="18" Cut="1.9836469888687134e+00" cType="1" res="3.1934420112520456e-03" rms="8.5338197648525238e-02" purity="1.0000000000000000e+00" nType="0">
                <Node pos="l" depth="5" NCoef="0" IVar="-1" Cut="0.0000000000000000e+00" cType="1" res="1.5859836712479591e-03" rms="8.6897142231464386e-02" purity="1.0000000000000000e+00" nType="-99"/>
                <Node pos="r" depth="5" NCoef="0" IVar="-1" Cut="0.0000000000000000e+00" cType="1" res="-7.9002708662301302e-04" rms="8.3047047257423401e-02" purity="1.0000000000000000e+00" nType="-99"/>
              </Node>
            </Node>
          </Node>
        </Node>
      </Node>
    </BinaryTree>
    <BinaryTree type="DecisionTree" boostWeight="1.0000000000000000e+00" itree="8">
      <Node pos="s" depth="0" NCoef="0" IVar="6" Cut="1.1575314402580261e-01" cType="1" res="3.0640200711786747e-03" rms="8.4805913269519806e-02" purity="1.0000000000000000e+00" nType="0">
        <Node pos="l" depth="1" NCoef="0" IVar="13" Cut="1.8681333065032959e+00" cType="1" res="-2.3786933161318302e-03" rms="8.2637481391429901e-02" purity="1.0000000000000000e+00" nType="0">
          <Node pos="l" depth="2" NCoef="0" IVar="18" Cut="1.9125418663024902e+00" cType="1" res="2.3433784954249859e-03" rms="8.3441115915775299e-02" purity="1.0000000000000000e+00" nType="0">
            <Node pos="l" depth="3" NCoef="0" IVar="18" Cut="-9.5247638225555420e-01" cType="1" res="6.6995248198509216e-03" rms="8.4386408329010010e-02" purity="1.0000000000000000e+00" nType="0">
              <Node pos="l" depth="4" NCoef="0" IVar="4" Cut="5.4274871826171875e+01" cType="1" res="-8.8919876143336296e-03" rms="8.0009423196315765e-02" purity="1.0000000000000000e+00" nType="0">
                <Node pos="l" depth="5" NCoef="0" IVar="-1" Cut="0.0000000000000000e+00" cType="1" res="2.2443076595664024e-03" rms="9.5329247415065765e-02" purity="1.0000000000000000e+00" nType="-99"/>
                <Node pos="r" depth="5" NCoef="0" IVar="-1" Cut="0.0000000000000000e+00" cType="1" res="-1.5458969864994287e-03" rms="7.7670067548751831e-02" purity="1.0000000000000000e+00" nType="-99"/>
              </Node>
              <Node pos="r" depth="4" NCoef="0" IVar="18" Cut="5.5723327398300171e-01" cType="1" res="1.8261617049574852e-02" rms="8.5677951574325562e-02" purity="1.0000000000000000e+00" nType="0">
                <Node pos="l" depth="5" NCoef="0" IVar="-1" Cut="0.0000000000000000e+00" cType="1" res="3.8867006078362465e-03" rms="8.5909985005855560e-02" purity="1.0000000000000000e+00" nType="-99"/>
                <Node pos="r" depth="5" NCoef="0" IVar="-1" Cut="0.0000000000000000e+00" cType="1" res="5.4729741532355547e-04" rms="8.3685271441936493e-02" purity="1.0000000000000000e+00" nType="-99"/>
              </Node>
            </Node>
            <Node pos="r" depth="3" NCoef="0" IVar="17" Cut="3.0712263107299805e+01" cType="1" res="-1.3238884508609772e-02" rms="7.8001558780670166e-02" purity="1.0000000000000000e+00" nType="0">
              <Node pos="l" depth="4" NCoef="0" IVar="10" Cut="2.6722604036331177e-01" cType="1" res="-6.3825761899352074e-03" rms="7.9546339809894562e-02" purity="1.0000000000000000e+00" nType="0">
                <Node pos="l" depth="5" NCoef="0" IVar="-1" Cut="0.0000000000000000e+00" cType="1" res="-1.9681272096931934e-03" rms="8.1516355276107788e-02" purity="1.0000000000000000e+00" nType="-99"/>
                <Node pos="r" depth="5" NCoef="0" IVar="-1" Cut="0.0000000000000000e+00" cType="1" res="-2.8091148124076426e-04" rms="7.7786788344383240e-02" purity="1.0000000000000000e+00" nType="-99"/>
              </Node>
              <Node pos="r" depth="4" NCoef="0" IVar="10" Cut="2.2155688703060150e-01" cType="1" res="-1.9591027870774269e-02" rms="7.5992494821548462e-02" purity="1.0000000000000000e+00" nType="0">
                <Node pos="l" depth="5" NCoef="0" IVar="-1" Cut="0.0000000000000000e+00" cType="1" res="-4.0202331729233265e-03" rms="7.8103043138980865e-02" purity="1.0000000000000000e+00" nType="-99"/>
                <Node pos="r" depth="5" NCoef="0" IVar="-1" Cut="0.0000000000000000e+00" cType="1" res="-1.9892181735485792e-03" rms="7.4741564691066742e-02" purity="1.0000000000000000e+00" nType="-99"/>
              </Node>
            </Node>
          </Node>
          <Node pos="r" depth="2" NCoef="0" IVar="9" Cut="6.4601093530654907e-02" cType="1" res="-1.6030143946409225e-02" rms="7.8691042959690094e-02" purity="1.0000000000000000e+00" nType="0">
            <Node pos="l" depth="3" NCoef="0" IVar="9" Cut="1.2894207611680031e-04" cType="1" res="-1.0148656554520130e-02" rms="7.6801128685474396e-02" purity="1.0000000000000000e+00" nType="0">
              <Node pos="l" depth="4" NCoef="0" IVar="13" Cut="2.9487900733947754e+00" cType="1" res="4.9166465032612905e-05" rms="7.8058190643787384e-02" purity="1.0000000000000000e+00" nType="0">
                <Node pos="l" depth="5" NCoef="0" IVar="-1" Cut="0.0000000000000000e+00" cType="1" res="3.6848950549028814e-04" rms="7.8837722539901733e-02" purity="1.0000000000000000e+00" nType="-99"/>
                <Node pos="r" depth="5" NCoef="0" IVar="-1" Cut="0.0000000000000000e+00" cType="1" res="-1.3352328678593040e-03" rms="7.5296573340892792e-02" purity="1.0000000000000000e+00" nType="-99"/>
              </Node>
              <Node pos="r" depth="4" NCoef="0" IVar="13" Cut="2.7278625965118408e+00" cType="1" res="-1.3855056837201118e-02" rms="7.6000832021236420e-02" purity="1.0000000000000000e+00" nType="0">
                <Node pos="l" depth="5" NCoef="0" IVar="-1" Cut="0.0000000000000000e+00" cType="1" res="-1.2570867547765374e-03" rms="7.7275477349758148e-02" purity="1.0000000000000000e+00" nType="-99"/>
                <Node pos="r" depth="5" NCoef="0" IVar="-1" Cut="0.0000000000000000e+00" cType="1" res="-2.5993955787271261e-03" rms="7.3583111166954041e-02" purity="1.0000000000000000e+00" nType="-99"/>
              </Node>
            </Node>
            <Node pos="r" depth="3" NCoef="0" IVar="13" Cut="3.0782949924468994e+00" cType="1" res="-2.9862754046916962e-02" rms="8.1306360661983490e-02" purity="1.0000000000000000e+00" nType="0">
              <Node pos="l" depth="4" NCoef="0" IVar="18" Cut="-2.2009732723236084e+00" cType="1" res="-2.5487631559371948e-02" rms="8.2099907100200653e-02" purity="1.0000000000000000e+00" nType="0">
                <Node pos="l" depth="5" NCoef="0" IVar="-1" Cut="0.0000000000000000e+00" cType="1" res="-5.2454797551035881e-03" rms="7.5768813490867615e-02" purity="1.0000000000000000e+00" nType="-99"/>
                <Node pos="r" depth="5" NCoef="0" IVar="-1" Cut="0.0000000000000000e+00" cType="1" res="-3.1182968523353338e-03" rms="8.3345428109169006e-02" purity="1.0000000000000000e+00" nType="-99"/>
              </Node>
              <Node pos="r" depth="4" NCoef="0" IVar="-1" Cut="0.0000000000000000e+00" cType="1" res="-6.1780051328241825e-03" rms="7.6573900878429413e-02" purity="1.0000000000000000e+00" nType="-99"/>
            </Node>
          </Node>
        </Node>
        <Node pos="r" depth="1" NCoef="0" IVar="4" Cut="5.2785854339599609e+01" cType="1" res="2.6500314474105835e-02" rms="8.9881516993045807e-02" purity="1.0000000000000000e+00" nType="0">
          <Node pos="l" depth="2" NCoef="0" IVar="17" Cut="3.1460123062133789e+01" cType="1" res="5.3339809179306030e-02" rms="9.1024570167064667e-02" purity="1.0000000000000000e+00" nType="0">
            <Node pos="l" depth="3" NCoef="0" IVar="-1" Cut="0.0000000000000000e+00" cType="1" res="1.1257748119533062e-02" rms="9.2623397707939148e-02" purity="1.0000000000000000e+00" nType="-99"/>
            <Node pos="r" depth="3" NCoef="0" IVar="-1" Cut="0.0000000000000000e+00" cType="1" res="2.1609321236610413e-02" rms="8.7595105171203613e-02" purity="1.0000000000000000e+00" nType="-99"/>
          </Node>
          <Node pos="r" depth="2" NCoef="0" IVar="17" Cut="8.2057327270507812e+01" cType="1" res="2.2282646968960762e-02" rms="8.8967427611351013e-02" purity="1.0000000000000000e+00" nType="0">
            <Node pos="l" depth="3" NCoef="0" IVar="4" Cut="1.3774516296386719e+02" cType="1" res="1.9117588177323341e-02" rms="8.8440738618373871e-02" purity="1.0000000000000000e+00" nType="0">
              <Node pos="l" depth="4" NCoef="0" IVar="19" Cut="2.1661658287048340e+00" cType="1" res="2.5117246434092522e-02" rms="9.0071991086006165e-02" purity="1.0000000000000000e+00" nType="0">
                <Node pos="l" depth="5" NCoef="0" IVar="-1" Cut="0.0000000000000000e+00" cType="1" res="5.7863555848598480e-03" rms="8.7976619601249695e-02" purity="1.0000000000000000e+00" nType="-99"/>
                <Node pos="r" depth="5" NCoef="0" IVar="-1" Cut="0.0000000000000000e+00" cType="1" res="2.1318923681974411e-03" rms="9.1416299343109131e-02" purity="1.0000000000000000e+00" nType="-99"/>
              </Node>
              <Node pos="r" depth="4" NCoef="0" IVar="4" Cut="2.3411459350585938e+02" cType="1" res="3.4691039472818375e-03" rms="8.1996873021125793e-02" purity="1.0000000000000000e+00" nType="0">
                <Node pos="l" depth="5" NCoef="0" IVar="-1" Cut="0.0000000000000000e+00" cType="1" res="1.1828448623418808e-03" rms="8.3686672151088715e-02" purity="1.0000000000000000e+00" nType="-99"/>
                <Node pos="r" depth="5" NCoef="0" IVar="-1" Cut="0.0000000000000000e+00" cType="1" res="-1.9818709697574377e-03" rms="7.3180668056011200e-02" purity="1.0000000000000000e+00" nType="-99"/>
              </Node>
            </Node>
            <Node pos="r" depth="3" NCoef="0" IVar="-1" Cut="0.0000000000000000e+00" cType="1" res="1.7152590677142143e-02" rms="8.6662746965885162e-02" purity="1.0000000000000000e+00" nType="-99"/>
          </Node>
        </Node>
      </Node>
    </BinaryTree>
    <BinaryTree type="DecisionTree" boostWeight="1.0000000000000000e+00" itree="9">
      <Node pos="s" depth="0" NCoef="0" IVar="6" Cut="2.0873516798019409e-02" cType="1" res="2.8091499116271734e-03" rms="8.4428258240222931e-02" purity="1.0000000000000000e+00" nType="0">
        <Node pos="l" depth="1" NCoef="0" IVar="13" Cut="1.5178582668304443e+00" cType="1" res="-3.9294958114624023e-03" rms="8.1301048398017883e-02" purity="1.0000000000000000e+00" nType="0">
          <Node pos="l" depth="2" NCoef="0" IVar="4" Cut="5.2713153839111328e+01" cType="1" res="1.4790307031944394e-03" rms="8.2502730190753937e-02" purity="1.0000000000000000e+00" nType="0">
